{
    "value": {
        "hidden_layer_size": 30,
        "hidden_layer_count": 2,
        "weights": [
            -0.14230889081954956,
            0.03005942702293396,
            0.1890595257282257,
            0.4810025990009308,
            0.5436458587646484,
            0.10742898285388947,
            0.0875404104590416,
            0.033856019377708435,
            -0.24325679242610931,
            -0.8333291411399841,
            0.4805338382720947,
            -0.8173514008522034,
            -0.3178667426109314,
            -0.2588981091976166,
            -0.23924444615840912,
            -0.28746235370635986,
            -0.17937792837619781,
            0.2732836902141571,
            0.23681657016277313,
            0.12798433005809784,
            0.28533363342285156,
            -0.04569417983293533,
            0.37490779161453247,
            -0.3376988470554352,
            0.31342899799346924,
            0.3565237820148468,
            -0.34775835275650024,
            0.21579280495643616,
            0.14697712659835815,
            0.35118168592453003,
            -0.3538450002670288,
            0.5221977829933167,
            0.21430201828479767,
            0.44009876251220703,
            -0.30418717861175537,
            -0.5773656368255615,
            -0.11221153289079666,
            -0.2681402862071991,
            0.1951039582490921,
            -0.02492724172770977,
            -0.3824560344219208,
            0.03444623947143555,
            -0.27793198823928833,
            -0.3796831965446472,
            -0.17889496684074402,
            -0.4693329632282257,
            0.06779424846172333,
            -0.06472711265087128,
            0.09938420355319977,
            -0.21387168765068054,
            0.3175077438354492,
            -0.3134901821613312,
            0.11846260726451874,
            -0.3191487789154053,
            0.6428605914115906,
            -0.6402159333229065,
            0.1366831660270691,
            -0.014317651279270649,
            0.06997480243444443,
            -0.06830020993947983,
            0.3811599016189575,
            0.2506403625011444,
            0.08246540278196335,
            0.423496276140213,
            0.014227104373276234,
            0.033123310655355453,
            0.2462455779314041,
            -0.7652114033699036,
            0.32012856006622314,
            0.5892437696456909,
            0.3459143340587616,
            0.012805554084479809,
            -0.4490785002708435,
            0.11311505734920502,
            0.06978344917297363,
            -0.273255318403244,
            0.014711943455040455,
            -0.06404591351747513,
            0.20920269191265106,
            0.5375956296920776,
            0.2486024796962738,
            0.11446283757686615,
            -0.5027236938476562,
            -0.4334023892879486,
            -0.11222687363624573,
            -0.07571727782487869,
            -0.40059617161750793,
            -0.7464853525161743,
            -0.05493695288896561,
            0.0990062952041626,
            0.03794919699430466,
            0.28978797793388367,
            -0.16067206859588623,
            -0.051011208444833755,
            -0.8067223429679871,
            0.16411544382572174,
            -0.13042475283145905,
            -0.302943617105484,
            -0.01358336303383112,
            0.015638627111911774,
            0.07181612402200699,
            -0.1952281892299652,
            0.040734272450208664,
            0.25105634331703186,
            0.17590564489364624,
            0.24592503905296326,
            -0.4250747263431549,
            -0.4273969233036041,
            -0.08320602774620056,
            0.009537969715893269,
            -0.12625882029533386,
            -0.5662053227424622,
            0.02775191329419613,
            -0.18427857756614685,
            -0.24227067828178406,
            0.18888449668884277,
            -0.31230154633522034,
            0.11533572524785995,
            0.1221478059887886,
            -0.32274362444877625,
            -0.8215836882591248,
            -0.5171459317207336,
            0.46699878573417664,
            -0.43178725242614746,
            -0.13339121639728546,
            0.05941646546125412,
            -0.562376081943512,
            -0.2543848156929016,
            0.031169066205620766,
            -0.30835893750190735,
            0.39169228076934814,
            0.4195947051048279,
            0.6116155385971069,
            0.28484004735946655,
            0.03988610953092575,
            -0.13414116203784943,
            0.04174669086933136,
            0.22959110140800476,
            -0.4488607347011566,
            -0.37870144844055176,
            0.7572222948074341,
            -0.3197236657142639,
            -0.26347294449806213,
            -0.21991102397441864,
            -0.17448607087135315,
            -0.22765029966831207,
            -0.35973578691482544,
            -0.04457949101924896,
            -0.2626037895679474,
            0.27005913853645325,
            -0.039230503141880035,
            -0.06870757788419724,
            0.18025653064250946,
            -0.5094200372695923,
            0.06465055793523788,
            -0.11229296028614044,
            0.13057775795459747,
            -0.0316084623336792,
            -0.878818929195404,
            -0.3197936415672302,
            0.1344270408153534,
            -0.007459815125912428,
            0.5514206290245056,
            -0.11325863003730774,
            -0.05563119798898697,
            -0.1515599489212036,
            -0.14291535317897797,
            0.5263597965240479,
            -0.2584553062915802,
            -0.23758628964424133,
            0.18653689324855804,
            0.369659423828125,
            -0.5529511570930481,
            -0.07550952583551407,
            0.07914510369300842,
            0.10991884022951126,
            -0.6111789345741272,
            0.47169235348701477,
            -0.013307818211615086,
            -0.07108916342258453,
            -0.21934133768081665,
            -0.15572698414325714,
            0.2800104320049286,
            -0.017722826451063156,
            0.26957234740257263,
            -0.08629850298166275,
            0.17529113590717316,
            -0.05443738400936127,
            -0.38153308629989624,
            -0.18582549691200256,
            -0.1852109134197235,
            1.173509120941162,
            0.4332863390445709,
            0.626903772354126,
            -0.6767486333847046,
            -0.6713074445724487,
            0.08855201303958893,
            -0.00972582958638668,
            0.28703755140304565,
            0.5474565625190735,
            -0.3013617694377899,
            0.25177881121635437,
            0.34630921483039856,
            -0.22678090631961823,
            -0.06309909373521805,
            -0.4986730217933655,
            0.5373625159263611,
            -0.22031213343143463,
            0.04954495280981064,
            -0.008234907872974873,
            -0.3567441403865814,
            0.6175153255462646,
            -0.3518807291984558,
            -0.523028552532196,
            -0.044278375804424286,
            -0.6319264769554138,
            -0.4418632388114929,
            -0.10807885974645615,
            -1.1212602853775024,
            0.16201111674308777,
            0.3824474513530731,
            -0.05753430724143982,
            -0.25303852558135986,
            -0.2877551019191742,
            0.014183876104652882,
            -0.7643216848373413,
            -0.5826163291931152,
            0.13484248518943787,
            -0.878007709980011,
            -0.2899850904941559,
            -1.0424375534057617,
            0.3217938244342804,
            0.3994751274585724,
            0.3556934893131256,
            -0.1648261547088623,
            -0.00920384842902422,
            0.5199300646781921,
            0.3756014108657837,
            -0.15235456824302673,
            -0.021002376452088356,
            -0.045971620827913284,
            0.24343222379684448,
            -0.3908945918083191,
            -0.005770011339336634,
            0.08987845480442047,
            0.12200406938791275,
            0.37995070219039917,
            -0.12310992181301117,
            0.40765896439552307,
            -0.6877396106719971,
            0.45058107376098633,
            0.2641249895095825,
            0.5377114415168762,
            -0.06140376999974251,
            0.17541730403900146,
            0.26977553963661194,
            0.34256261587142944,
            0.1569717675447464,
            -0.4780632257461548,
            0.4227084815502167,
            0.15851758420467377,
            0.03816143050789833,
            -0.1619587391614914,
            0.3408961594104767,
            0.2129860818386078,
            -0.0720825344324112,
            -0.3223664164543152,
            0.6263973116874695,
            -0.5340811610221863,
            0.04901815205812454,
            0.09766087681055069,
            0.41475263237953186,
            0.46537381410598755,
            -0.07711723446846008,
            0.32986176013946533,
            -0.12127047032117844,
            -0.4026952087879181,
            -0.09535067528486252,
            0.3870302736759186,
            0.23754028975963593,
            -0.017696639522910118,
            0.025415776297450066,
            0.4887077808380127,
            -0.22106997668743134,
            0.038441743701696396,
            0.3166145980358124,
            0.32121729850769043,
            -0.4626469612121582,
            -0.025804344564676285,
            -0.029991760849952698,
            -0.18387944996356964,
            0.052610449492931366,
            -0.1193883940577507,
            0.11589840799570084,
            -0.12219370156526566,
            -0.2938542366027832,
            -0.09976585954427719,
            0.06705889105796814,
            -0.2036810666322708,
            -0.39983150362968445,
            0.025808624923229218,
            -0.04979106783866882,
            0.14812496304512024,
            -0.44274285435676575,
            0.3315020203590393,
            0.555341362953186,
            -1.0143957138061523,
            0.5994160771369934,
            -0.007608784828335047,
            -0.27457329630851746,
            -0.17608261108398438,
            0.2803489863872528,
            0.05624090135097504,
            0.030955171212553978,
            0.46886247396469116,
            0.36562275886535645,
            -0.37070006132125854,
            -0.34103310108184814,
            0.566968560218811,
            0.39912086725234985,
            -0.0855337530374527,
            -0.1741003692150116,
            -0.2718396484851837,
            -0.20975978672504425,
            -0.11721822619438171,
            0.5834887027740479,
            0.41007399559020996,
            -0.5586673617362976,
            0.41155898571014404,
            0.3521069884300232,
            0.42971909046173096,
            0.0446317158639431,
            0.3225685954093933,
            0.32819101214408875,
            -0.644878625869751,
            0.443244993686676,
            0.14025357365608215,
            0.37332865595817566,
            -0.1077449843287468,
            0.41480496525764465,
            -0.19425895810127258,
            -0.16335326433181763,
            0.09758497774600983,
            0.2145249843597412,
            0.0807991549372673,
            0.08996859937906265,
            -0.20111489295959473,
            0.13993056118488312,
            -0.7243781089782715,
            0.3377326726913452,
            -0.12401505559682846,
            -0.5483867526054382,
            0.5336737632751465,
            -0.14562557637691498,
            0.1979651302099228,
            0.1835431307554245,
            -0.31019219756126404,
            0.3491212725639343,
            -0.564188539981842,
            -0.01998031511902809,
            0.2465580701828003,
            0.18510748445987701,
            0.521234393119812,
            -0.5794035792350769,
            0.27690985798835754,
            -0.533852219581604,
            -0.5081474781036377,
            -0.3337962031364441,
            -0.3587774932384491,
            0.015525370836257935,
            0.16458305716514587,
            0.23380231857299805,
            -0.16553440690040588,
            -0.3151521682739258,
            -0.035953931510448456,
            0.13006143271923065,
            -0.3004322350025177,
            0.5728266835212708,
            -0.1119948998093605,
            -0.5316326022148132,
            -0.5378240942955017,
            0.3799581825733185,
            0.08324269205331802,
            0.03137150779366493,
            -0.11069504171609879,
            0.018205149099230766,
            0.25525444746017456,
            0.26274773478507996,
            -0.23184089362621307,
            0.070466548204422,
            0.3083796203136444,
            0.5913004875183105,
            0.6041710376739502,
            -0.4780180752277374,
            -0.09119274467229843,
            0.43031030893325806,
            -0.0184699147939682,
            -0.030315103009343147,
            0.6114445924758911,
            0.09602214395999908,
            0.11889555305242538,
            0.25756457448005676,
            -0.4781428873538971,
            -0.2003702074289322,
            0.40455999970436096,
            -0.06861110031604767,
            -0.014357819221913815,
            -0.18943428993225098,
            -0.6802486777305603,
            0.14081618189811707,
            0.3648533225059509,
            0.27502673864364624,
            -0.5068515539169312,
            -0.25004103779792786,
            0.10672857612371445,
            0.24409186840057373,
            0.4643349051475525,
            -0.23221702873706818,
            -0.32625511288642883,
            0.221690833568573,
            -0.3372587263584137,
            0.46863046288490295,
            0.7068175673484802,
            -0.3989059627056122,
            0.23911556601524353,
            0.02289062738418579,
            0.173364520072937,
            -0.16334770619869232,
            -0.2277621626853943,
            -0.33105188608169556,
            -0.3720957934856415,
            -0.42403438687324524,
            -0.38979706168174744,
            -0.18467198312282562,
            -1.0017757415771484,
            0.06418140232563019,
            0.2536926865577698,
            -0.08057451993227005,
            -0.47119951248168945,
            -0.5757672190666199,
            -0.4449969530105591,
            0.43796268105506897,
            -0.24716044962406158,
            0.5107985734939575,
            0.18962383270263672,
            0.1724109798669815,
            0.1967097520828247,
            0.38955268263816833,
            -0.11050987988710403,
            0.8465149998664856,
            -0.2434796243906021,
            1.2631659507751465,
            0.40898045897483826,
            -0.3618691563606262,
            -0.060962822288274765,
            -0.00768148573115468,
            -0.11551342159509659,
            0.19093185663223267,
            0.3766603469848633,
            -0.09128736704587936,
            0.8738646507263184,
            0.34945669770240784,
            0.11156141012907028,
            0.5333722829818726,
            -0.31988614797592163,
            -0.3292570412158966,
            0.4067572355270386,
            -0.401945561170578,
            0.34848690032958984,
            -0.2762148976325989,
            0.41367703676223755,
            -0.35447150468826294,
            -0.1440524160861969,
            -0.3683970868587494,
            0.6181782484054565,
            -0.4893394708633423,
            -0.35624411702156067,
            0.6840046048164368,
            0.3476768732070923,
            -0.4784083068370819,
            0.16874471306800842,
            0.33368927240371704,
            -0.45762136578559875,
            -0.1434325873851776,
            -0.3213026225566864,
            -0.2848075032234192,
            0.25577181577682495,
            0.5336577892303467,
            -0.4957219958305359,
            0.09903138130903244,
            -0.5969763994216919,
            -0.005917941220104694,
            0.1269412785768509,
            -0.24782022833824158,
            0.004901641048491001,
            0.03438804671168327,
            0.26713788509368896,
            0.1931145191192627,
            0.041368838399648666,
            0.3622511923313141,
            0.1748981922864914,
            0.1147860512137413,
            0.12238608300685883,
            -0.25259894132614136,
            -0.1513422280550003,
            -0.3118812143802643,
            -0.3468332886695862,
            0.409430593252182,
            0.4221767485141754,
            0.002069747308269143,
            0.0700996145606041,
            0.05174864083528519,
            0.18067283928394318,
            0.01388170663267374,
            -0.37516969442367554,
            -0.011540735140442848,
            0.07617147266864777,
            0.02103540487587452,
            0.34720221161842346,
            0.06491175293922424,
            0.7866169810295105,
            -0.11067353188991547,
            -0.15056930482387543,
            0.13920582830905914,
            0.16862046718597412,
            -0.09615936130285263,
            -0.08817972242832184,
            -0.06542716920375824,
            -0.16201987862586975,
            0.202019602060318,
            0.19206760823726654,
            -0.2424468994140625,
            -0.3165859580039978,
            0.1405390501022339,
            0.08504493534564972,
            0.06457854807376862,
            0.30604103207588196,
            -0.17460554838180542,
            -0.2230234295129776,
            0.3084203898906708,
            -0.3688688576221466,
            0.02298794500529766,
            0.30541354417800903,
            0.3228139281272888,
            -0.4095578193664551,
            -0.17296068370342255,
            -0.19217614829540253,
            0.2876715362071991,
            0.047375548630952835,
            -0.00872371532022953,
            -0.31270831823349,
            -0.03673182800412178,
            0.09608738869428635,
            -0.18319128453731537,
            0.36352792382240295,
            0.20324678719043732,
            -0.008879954926669598,
            -0.20647887885570526,
            0.0045396205969154835,
            0.5675885081291199,
            0.019824927672743797,
            0.13897018134593964,
            -0.31830376386642456,
            -0.05312882736325264,
            -0.22861060500144958,
            -0.5781843066215515,
            -0.04600834846496582,
            0.47443684935569763,
            -0.2259518951177597,
            -0.12872175872325897,
            -0.3734414577484131,
            -0.07837070524692535,
            0.42927202582359314,
            -0.13295432925224304,
            0.18587830662727356,
            0.31250056624412537,
            0.15600256621837616,
            -0.15133081376552582,
            -0.26899388432502747,
            -0.08228565752506256,
            0.16629043221473694,
            -0.0830993801355362,
            0.19107526540756226,
            0.2370564341545105,
            -0.2973552644252777,
            -0.12901487946510315,
            0.18180052936077118,
            0.23457662761211395,
            -0.1801111400127411,
            0.1411421149969101,
            -0.3368232250213623,
            -0.4451364278793335,
            0.04690080136060715,
            -0.20069171488285065,
            0.029583850875496864,
            0.16349726915359497,
            0.1270896941423416,
            0.02788713574409485,
            -0.2560579776763916,
            -0.1598520427942276,
            0.23787462711334229,
            -0.012904029339551926,
            -0.494731605052948,
            -0.3265165388584137,
            0.07442377507686615,
            -0.576121985912323,
            0.3440086543560028,
            -0.1375875622034073,
            -0.0064687300473451614,
            0.5423707962036133,
            -0.2043045461177826,
            -0.0861838310956955,
            0.17800065875053406,
            0.060572683811187744,
            0.41723018884658813,
            0.3523954451084137,
            0.5330291986465454,
            0.2776452600955963,
            -0.1971355527639389,
            0.3228934705257416,
            0.1313115805387497,
            -0.20917032659053802,
            0.499765008687973,
            -0.3724479675292969,
            -0.15134437382221222,
            -0.13640013337135315,
            -0.2298329472541809,
            0.20728714764118195,
            -0.14417065680027008,
            -0.2289084941148758,
            -0.32066571712493896,
            -0.16806575655937195,
            0.1363401710987091,
            -0.04275067523121834,
            0.260690838098526,
            -0.16520774364471436,
            -0.37634462118148804,
            0.4436396062374115,
            0.36659544706344604,
            0.03924539312720299,
            0.3313756585121155,
            -0.00552872009575367,
            -0.13293497264385223,
            -0.09991127252578735,
            0.33132582902908325,
            0.18987981975078583,
            0.10072402656078339,
            -0.08647582679986954,
            0.015750685706734657,
            0.12326288968324661,
            -0.20410531759262085,
            0.1696092188358307,
            -0.19313077628612518,
            0.6939384937286377,
            0.2747006118297577,
            0.35093510150909424,
            -0.4101329743862152,
            -0.09743278473615646,
            -0.21154600381851196,
            0.08013687282800674,
            -0.1519903540611267,
            -0.2958295941352844,
            -0.17607326805591583,
            0.3138621747493744,
            0.46266764402389526,
            -0.21045030653476715,
            -0.10675353556871414,
            0.09834077209234238,
            -0.11974410712718964,
            -0.28079500794410706,
            -0.203049898147583,
            0.23698793351650238,
            -0.21968086063861847,
            -0.1905805915594101,
            -0.08637692034244537,
            -0.10665442049503326,
            -0.20367339253425598,
            0.23339834809303284,
            0.39895084500312805,
            -0.4156339764595032,
            0.1932167112827301,
            0.053012337535619736,
            0.34986352920532227,
            0.14008314907550812,
            0.13521617650985718,
            0.08289740234613419,
            -0.14940325915813446,
            -0.1340397149324417,
            0.28788289427757263,
            -0.3757438659667969,
            -0.09336207807064056,
            -0.5068538784980774,
            -0.5910739302635193,
            -0.37231314182281494,
            0.23730094730854034,
            0.039120156317949295,
            -0.28780102729797363,
            -0.04243910685181618,
            -0.3045039176940918,
            -0.09396932274103165,
            0.20190152525901794,
            0.3411245048046112,
            -0.4398508071899414,
            -0.031519707292318344,
            -0.04534285515546799,
            -0.10108965635299683,
            0.33692073822021484,
            0.016897814348340034,
            0.21796347200870514,
            0.27382829785346985,
            0.07085142284631729,
            -0.1362411081790924,
            -0.1931934505701065,
            -0.2830406427383423,
            -0.010846558026969433,
            -0.009588727727532387,
            -0.006144408602267504,
            -0.07513194531202316,
            0.06980329751968384,
            -0.03628396615386009,
            -0.2702580988407135,
            -0.10936251282691956,
            0.04415251314640045,
            -0.03509728983044624,
            0.11114028841257095,
            0.5166080594062805,
            0.3014620244503021,
            0.12013524770736694,
            -0.24685227870941162,
            0.046801842749118805,
            -0.27439868450164795,
            -0.08288334310054779,
            0.07385078072547913,
            -0.012261765077710152,
            0.1538533866405487,
            -0.3740720748901367,
            -0.4713422656059265,
            0.12792298197746277,
            0.04321061447262764,
            0.005130475852638483,
            0.31881022453308105,
            -0.04863445460796356,
            -0.03476753830909729,
            0.17619723081588745,
            0.17190095782279968,
            -0.06414688378572464,
            -0.12276173382997513,
            0.10259175300598145,
            0.20791319012641907,
            -0.056554317474365234,
            -0.5331031680107117,
            -0.0893125981092453,
            0.2995944917201996,
            -0.051680788397789,
            -0.2909560799598694,
            0.38896408677101135,
            -0.06262775510549545,
            0.3086552321910858,
            -0.24430827796459198,
            -0.16831715404987335,
            -0.3174220025539398,
            -0.11005285382270813,
            0.30038824677467346,
            -0.03108472190797329,
            0.18441423773765564,
            0.21828240156173706,
            -0.33240392804145813,
            -0.05099926516413689,
            0.15545238554477692,
            0.2040957510471344,
            0.09746316075325012,
            0.12252708524465561,
            0.012630249373614788,
            0.2677750587463379,
            0.24832656979560852,
            -0.9638864398002625,
            -0.09594797343015671,
            -0.1793692260980606,
            -0.2566312849521637,
            0.5246624946594238,
            0.16608834266662598,
            -0.018410557880997658,
            -0.01790095865726471,
            -0.04702956601977348,
            -0.37662965059280396,
            0.10441627353429794,
            0.24996256828308105,
            -0.08444131165742874,
            0.05131632089614868,
            0.1492370069026947,
            -0.4069732129573822,
            -0.18639150261878967,
            0.03435230255126953,
            -0.17228028178215027,
            0.10075124353170395,
            -0.20527197420597076,
            -0.10823631286621094,
            0.052808791399002075,
            0.04237957298755646,
            0.1883019357919693,
            -0.18454204499721527,
            0.10858892649412155,
            0.22120864689350128,
            -0.1522510051727295,
            -0.09396780282258987,
            -0.37816402316093445,
            -0.5758796334266663,
            0.05819719284772873,
            -0.4116285741329193,
            0.40995538234710693,
            -0.06175221875309944,
            -0.4185973107814789,
            0.06395075470209122,
            0.331169068813324,
            0.06918086111545563,
            -0.005877551157027483,
            -0.16434930264949799,
            -0.1492099016904831,
            0.16155469417572021,
            -0.22830063104629517,
            -0.11545184999704361,
            0.4229949712753296,
            0.190264031291008,
            0.26713764667510986,
            -0.02316284365952015,
            0.3821210265159607,
            -0.009403842501342297,
            0.4584011733531952,
            -0.047189801931381226,
            0.02626451663672924,
            -0.097627192735672,
            0.07928432524204254,
            0.483108788728714,
            0.049548521637916565,
            -0.15836557745933533,
            -0.022326063364744186,
            0.14614363014698029,
            -0.11531749367713928,
            -0.07005103677511215,
            0.35202813148498535,
            0.2899130880832672,
            0.4541858434677124,
            -0.10174905508756638,
            0.1106744334101677,
            0.11224370449781418,
            0.3767443597316742,
            0.23258009552955627,
            0.12924911081790924,
            0.16581781208515167,
            0.24276845157146454,
            0.29916343092918396,
            0.2524855136871338,
            -0.0059678941033780575,
            0.34451401233673096,
            0.2588391602039337,
            -0.17438668012619019,
            -0.07740268856287003,
            -0.1488959789276123,
            -0.08942112326622009,
            -0.16678684949874878,
            0.05785752832889557,
            0.004489749204367399,
            -0.24972602725028992,
            -0.03935898467898369,
            -0.13981100916862488,
            0.2562890648841858,
            0.20709951221942902,
            0.053163010627031326,
            0.31247520446777344,
            -0.1674538552761078,
            -0.1466006189584732,
            0.27140361070632935,
            0.03154585510492325,
            0.11933164298534393,
            0.206468865275383,
            0.30208489298820496,
            0.1992879956960678,
            0.03699736297130585,
            0.0564444325864315,
            0.21934564411640167,
            -0.012489194050431252,
            -0.06730504333972931,
            0.3537370264530182,
            -0.19742266833782196,
            -0.015108520165085793,
            0.22715626657009125,
            -0.3225952684879303,
            -0.684000551700592,
            -0.3736969530582428,
            -0.4265216886997223,
            0.13741935789585114,
            -0.0815936028957367,
            0.2668149471282959,
            0.09767690300941467,
            -0.14245501160621643,
            0.135925754904747,
            0.17470166087150574,
            -0.1275087296962738,
            -0.05352778732776642,
            -0.472949743270874,
            -0.013619551435112953,
            0.4945911467075348,
            -0.17204870283603668,
            -0.11180602759122849,
            -0.1537306308746338,
            0.04561576247215271,
            0.09264647215604782,
            -0.35845276713371277,
            0.19978943467140198,
            -0.11816316843032837,
            0.3325846195220947,
            -0.040236856788396835,
            -0.04738243669271469,
            -0.11678928136825562,
            0.18258364498615265,
            0.05519896373152733,
            0.24410809576511383,
            0.16384823620319366,
            -0.061413440853357315,
            0.05498706176877022,
            -0.25563231110572815,
            -0.10090316087007523,
            0.3083508312702179,
            0.09995687007904053,
            0.07558528333902359,
            -0.03526688367128372,
            0.21724417805671692,
            -0.10696661472320557,
            -0.16367708146572113,
            0.21138498187065125,
            -0.1579471379518509,
            -0.3382005989551544,
            0.017377356067299843,
            0.08048069477081299,
            0.11044622212648392,
            -0.24658004939556122,
            0.2687395215034485,
            0.2225073128938675,
            0.04553549736738205,
            -0.15052728354930878,
            0.22689411044120789,
            -0.09189283102750778,
            -0.06343322992324829,
            -0.09086721390485764,
            -0.7051384449005127,
            -0.22512483596801758,
            0.3516319692134857,
            -0.1362481564283371,
            0.29953527450561523,
            -0.010293572209775448,
            -0.28014618158340454,
            0.6685054302215576,
            -0.003781072096899152,
            0.2684045732021332,
            0.3807968497276306,
            -0.046591464430093765,
            0.2356453537940979,
            0.17961138486862183,
            -0.12812155485153198,
            0.1293134242296219,
            -0.2753514349460602,
            -0.1738399714231491,
            0.0686669573187828,
            0.4329432547092438,
            0.028050599619746208,
            0.10802232474088669,
            0.07119414210319519,
            0.12450765073299408,
            -0.0658516213297844,
            0.3950273394584656,
            0.022025594487786293,
            -0.13966459035873413,
            -0.26621314883232117,
            -0.1309952288866043,
            -0.05942424014210701,
            0.14072269201278687,
            0.04332423582673073,
            0.029072348028421402,
            0.1217534989118576,
            -0.056019071489572525,
            -0.130869522690773,
            0.16050338745117188,
            -0.03976401314139366,
            -0.03579806536436081,
            -0.31252363324165344,
            -0.24809002876281738,
            -0.11915396898984909,
            0.28424161672592163,
            -0.1807190328836441,
            -0.08194606006145477,
            0.03992852941155434,
            0.3387823700904846,
            0.5569711923599243,
            -0.2350447177886963,
            -0.19291438162326813,
            -0.2505429685115814,
            0.40020331740379333,
            0.03772205114364624,
            0.3720983862876892,
            -0.11264783143997192,
            0.4753202497959137,
            0.15767477452754974,
            0.2962276041507721,
            0.13930478692054749,
            0.3455139994621277,
            0.17716540396213531,
            -0.20326609909534454,
            -0.03274562582373619,
            0.04814374819397926,
            -0.01396128349006176,
            -0.004194738809019327,
            -0.3008181154727936,
            -0.3157428801059723,
            -0.04904917627573013,
            0.1175779178738594,
            -0.11848071962594986,
            0.30386412143707275,
            0.051468297839164734,
            0.058292314410209656,
            -0.42262062430381775,
            -0.23041102290153503,
            0.059988074004650116,
            0.1896386295557022,
            0.23141510784626007,
            -0.03313673660159111,
            -0.12757661938667297,
            0.14920757710933685,
            0.05451164022088051,
            -0.5659196972846985,
            0.23021921515464783,
            -0.753508448600769,
            -0.5866970419883728,
            0.39117300510406494,
            -0.03697185590863228,
            -0.12207208573818207,
            -0.3336831033229828,
            -0.197102352976799,
            -0.5991659164428711,
            -0.250590443611145,
            -0.3860425353050232,
            -0.2834600806236267,
            0.22839340567588806,
            -0.06858616322278976,
            0.03428684175014496,
            -0.038011401891708374,
            -0.20203903317451477,
            0.41711297631263733,
            -0.10229779034852982,
            0.31227850914001465,
            0.15840160846710205,
            -0.30025169253349304,
            -0.38265636563301086,
            0.11913613975048065,
            -0.2231133133172989,
            0.26122984290122986,
            0.16224384307861328,
            0.2252841293811798,
            0.039787016808986664,
            -0.7427464723587036,
            -0.4292178750038147,
            0.06735335290431976,
            -0.28798744082450867,
            0.04750804975628853,
            0.3783736526966095,
            -0.13237127661705017,
            0.4437521994113922,
            0.18510952591896057,
            -0.17467612028121948,
            0.016359739005565643,
            0.1352333426475525,
            -0.23877717554569244,
            -0.08037979155778885,
            0.07162052392959595,
            -0.32159486413002014,
            0.0845588892698288,
            -0.15308721363544464,
            -0.1239994615316391,
            0.11916255205869675,
            -0.11083128303289413,
            -0.0023872230667620897,
            0.07920132577419281,
            0.41882041096687317,
            -0.4511188268661499,
            -0.012657993473112583,
            0.4123695492744446,
            0.04790012165904045,
            0.10418298095464706,
            0.12729881703853607,
            0.0801788941025734,
            -0.7095845937728882,
            0.0757436454296112,
            -0.2793554663658142,
            -0.05697868764400482,
            -0.012070526368916035,
            -0.3033125400543213,
            -0.23779037594795227,
            -0.04052213579416275,
            -0.38664236664772034,
            -0.134502574801445,
            -0.05445033684372902,
            0.11009631305932999,
            0.18992964923381805,
            0.3199757933616638,
            -0.029014086350798607,
            -0.12939909100532532,
            -0.3411242365837097,
            -0.2941000163555145,
            -0.2308465540409088,
            -0.22600379586219788,
            0.17971472442150116,
            -0.3595704138278961,
            0.20660759508609772,
            -0.46349984407424927,
            -0.05823160707950592,
            -0.47842517495155334,
            -0.3732915222644806,
            -0.15216845273971558,
            0.35299140214920044,
            0.24714328348636627,
            0.09593433886766434,
            -0.1309518814086914,
            -0.012034587562084198,
            -0.08533331006765366,
            -0.3072253465652466,
            -0.3042261302471161,
            -0.14988242089748383,
            0.009630403481423855,
            -0.3402106761932373,
            0.012665431015193462,
            0.05380502715706825,
            0.029484577476978302,
            0.2258504033088684,
            0.2633330225944519,
            0.009985809214413166,
            0.009238407015800476,
            0.0815739706158638,
            -0.34075021743774414,
            0.25645315647125244,
            -0.016564857214689255,
            0.11231832951307297,
            0.2046705037355423,
            0.08287427574396133,
            0.17187808454036713,
            0.12560681998729706,
            0.22005820274353027,
            0.1490744948387146,
            -0.18848761916160583,
            0.05902602896094322,
            -0.1780562549829483,
            0.06516177952289581,
            0.11285997182130814,
            0.5333085656166077,
            0.2955997586250305,
            -0.0811123177409172,
            0.06139051541686058,
            0.4241871237754822,
            0.21097294986248016,
            0.2858198881149292,
            -0.03769712895154953,
            0.09374178200960159,
            0.051872607320547104,
            0.2910575270652771,
            0.16344144940376282,
            0.14555074274539948,
            0.11843318492174149,
            0.4747998118400574,
            -0.0246060099452734,
            0.21891596913337708,
            0.035368263721466064,
            -0.009257957339286804,
            -0.40166717767715454,
            -0.18041417002677917,
            -0.11579834669828415,
            -0.04554101452231407,
            0.24119915068149567,
            0.0837317481637001,
            0.06761878728866577,
            0.17210161685943604,
            -0.3296819031238556,
            -0.8053910732269287,
            -0.16759149730205536,
            -0.26829686760902405,
            0.15796639025211334,
            0.22681988775730133,
            -0.11407358199357986,
            -0.19885513186454773,
            0.39326170086860657,
            -0.5816525816917419,
            0.015953293070197105,
            0.06119783967733383,
            -0.28901249170303345,
            -0.17685633897781372,
            -0.19127053022384644,
            0.4435424208641052,
            0.18107998371124268,
            0.11156415194272995,
            0.09007447957992554,
            -0.013831894844770432,
            -0.03832729160785675,
            -0.25758785009384155,
            -0.06401296705007553,
            -0.2823396325111389,
            0.15103347599506378,
            -0.17215874791145325,
            -0.025087585672736168,
            0.11234750598669052,
            -0.21654663980007172,
            0.4505968987941742,
            -0.1262214481830597,
            0.2850292921066284,
            0.029482755810022354,
            0.2785469889640808,
            0.10710892826318741,
            0.08753875643014908,
            -0.12809164822101593,
            -0.18462011218070984,
            -0.3629802465438843,
            0.4357081949710846,
            -0.06080954149365425,
            -0.11782572418451309,
            0.24264279007911682,
            -0.052552901208400726,
            0.05817519873380661,
            -0.458560049533844,
            -0.1601385921239853,
            -0.16469143331050873,
            0.05588541924953461,
            -0.0302768275141716,
            -0.12415875494480133,
            -0.03327944502234459,
            -0.24311700463294983,
            -0.1454729437828064,
            -0.008215779438614845,
            -0.012984040193259716,
            -0.27999889850616455,
            0.12918904423713684,
            0.2651616632938385,
            0.28835055232048035,
            0.4798024892807007,
            -0.091310054063797,
            -0.3232567012310028,
            0.2637065351009369,
            -0.29264622926712036,
            -0.03324662148952484,
            -0.08319055289030075,
            0.122768834233284,
            -0.08084359019994736,
            -0.019575756043195724,
            -0.06069345772266388,
            0.29078248143196106,
            0.06734450906515121,
            0.24356020987033844,
            0.12169710546731949,
            -0.004815250635147095,
            0.329180508852005,
            -0.33797410130500793,
            -0.02697748877108097,
            0.26778432726860046,
            0.20304404199123383,
            0.3671179711818695,
            0.07753109186887741,
            0.2019207775592804,
            -0.18510644137859344,
            0.01599135249853134,
            -0.11574412137269974,
            -0.2962706387042999,
            -0.6663678884506226,
            0.1698516309261322,
            0.11645995825529099,
            -0.4411637783050537,
            0.7313330769538879,
            -0.17418846487998962,
            -0.05089682713150978,
            0.12960903346538544,
            0.2284265160560608,
            -0.20649805665016174,
            -0.4988615810871124,
            0.131973996758461,
            0.019855301827192307,
            -0.2783929407596588,
            -0.1218535527586937,
            -0.3441280722618103,
            -0.1875557005405426,
            0.744664192199707,
            -0.2888426184654236,
            0.3165937066078186,
            -0.054711662232875824,
            -0.05263479799032211,
            0.2434941530227661,
            0.2217496931552887,
            0.10541190207004547,
            0.15607622265815735,
            0.09053768962621689,
            -0.08041656017303467,
            0.08451776206493378,
            0.21903134882450104,
            -0.008204320445656776,
            0.4300113916397095,
            0.24770091474056244,
            0.36274340748786926,
            -0.4266018569469452,
            -0.18430618941783905,
            0.103938028216362,
            0.20313967764377594,
            -0.29315418004989624,
            -0.027147019281983376,
            0.26431193947792053,
            0.01795448176562786,
            0.2979585826396942,
            -0.03279303014278412,
            -0.24313993752002716,
            0.1299656331539154,
            -0.07894568890333176,
            0.22408783435821533,
            0.1945822536945343,
            -0.27698859572410583,
            -0.24557839334011078,
            0.044722676277160645,
            0.06415143609046936,
            -0.17655682563781738,
            0.1280834674835205,
            -0.4068446159362793,
            0.596676230430603,
            0.13934192061424255,
            -0.06736484169960022,
            -0.1564813107252121,
            0.09660616517066956,
            -0.12290515750646591,
            -0.04067644476890564,
            -0.32262447476387024,
            0.31460556387901306,
            0.3937745690345764,
            -0.004877831786870956,
            0.1438579559326172,
            -0.19312036037445068,
            0.017327940091490746,
            0.13781484961509705,
            -0.1370714008808136,
            0.2840040624141693,
            0.1512303501367569,
            0.10980420559644699,
            -0.20218804478645325,
            0.23895856738090515,
            -0.27506962418556213,
            -0.36208125948905945,
            -0.45474374294281006,
            0.37540775537490845,
            0.03211142495274544,
            -0.5936772227287292,
            -0.036170512437820435,
            0.2865183651447296,
            0.21469224989414215,
            -0.07682602107524872,
            -0.07498749345541,
            -0.06786190718412399,
            0.08935276418924332,
            -0.20170769095420837,
            0.18250243365764618,
            -0.04182757809758186,
            0.13597434759140015,
            -0.11902853846549988,
            0.31566497683525085,
            -0.013261678628623486,
            0.017465908080339432,
            -0.47443294525146484,
            0.013508605770766735,
            0.32166245579719543,
            0.02495892532169819,
            -0.005891039036214352,
            -0.34980660676956177,
            0.7066162824630737,
            -0.5601910352706909,
            -0.1592349261045456,
            -0.1363852620124817,
            0.21133482456207275,
            -0.06038356572389603,
            0.09853875637054443,
            -0.21709471940994263,
            -0.12522956728935242,
            0.41834086179733276,
            0.38616666197776794,
            -0.15446873009204865,
            0.1377871185541153,
            -0.07008002698421478,
            -0.491321325302124,
            -0.028781520202755928,
            -0.05610846355557442,
            0.1432182341814041,
            -0.2780546545982361,
            0.20854534208774567,
            0.04668857529759407,
            -0.4115215539932251,
            0.07292815297842026,
            -0.01956949755549431,
            -0.3215382993221283,
            0.022905347868800163,
            0.36239689588546753,
            0.5303820371627808,
            0.023748964071273804,
            -0.40427708625793457,
            0.06784846633672714,
            0.24744422733783722,
            0.03161609172821045,
            -0.27021679282188416,
            0.29716551303863525,
            -0.09320306777954102,
            0.46624839305877686,
            0.34863629937171936,
            -0.06446006149053574,
            0.025235841050744057
        ],
        "bias": [
            0,
            0,
            0,
            0,
            0,
            0,
            0,
            0,
            0,
            0,
            0,
            0,
            0,
            0,
            0,
            0,
            0,
            0,
            0,
            0,
            0,
            0,
            0,
            0,
            0,
            0,
            0,
            0,
            0,
            0,
            0,
            0,
            0,
            0,
            0,
            0,
            0,
            0,
            0,
            0,
            0,
            0,
            0,
            0,
            0,
            0,
            0,
            0,
            0,
            0,
            0,
            0,
            0,
            0,
            0,
            0,
            0,
            0,
            0,
            0,
            0
        ]
    },
    "policy": {
        "hidden_layer_size": 30,
        "hidden_layer_count": 2,
        "weights": [
            0.010758298449218273,
            -0.5710861682891846,
            0.1980670690536499,
            0.18292272090911865,
            -0.03796418011188507,
            -0.08895471692085266,
            0.3865613341331482,
            -0.03630895912647247,
            0.4954875409603119,
            0.22983530163764954,
            0.7917259335517883,
            0.2876490354537964,
            -0.3769395351409912,
            0.2602168917655945,
            -0.837278425693512,
            0.2576499283313751,
            0.26708468794822693,
            0.21268275380134583,
            0.3249049484729767,
            -0.4374198317527771,
            -0.33505550026893616,
            -0.38710543513298035,
            -0.38141587376594543,
            -0.11201965063810349,
            0.3557273745536804,
            0.3295820355415344,
            0.017220158129930496,
            0.12383688241243362,
            0.672707736492157,
            0.3060298562049866,
            -0.5231876373291016,
            0.4094385802745819,
            -0.2195262610912323,
            -0.07210168242454529,
            -0.0723351314663887,
            -0.07701651751995087,
            0.5488119125366211,
            -0.3368506133556366,
            -0.28620103001594543,
            -0.11768615990877151,
            0.5905801653862,
            -0.082672119140625,
            -0.258715957403183,
            -0.12469065189361572,
            0.21733197569847107,
            -0.005828837864100933,
            0.10551678389310837,
            -0.20948238670825958,
            0.6039669513702393,
            -0.44022008776664734,
            -0.3338243365287781,
            0.5356398820877075,
            0.08980126678943634,
            -0.327912837266922,
            -0.047993406653404236,
            -0.3246597945690155,
            -0.15292640030384064,
            -0.4500579833984375,
            0.5150797963142395,
            0.32375460863113403,
            0.2730570435523987,
            0.034058500081300735,
            0.12347129732370377,
            -0.3676675260066986,
            -0.35260269045829773,
            -0.18569587171077728,
            -0.014639543369412422,
            0.06182027980685234,
            0.26222845911979675,
            -0.4165865182876587,
            0.2638002336025238,
            0.17626076936721802,
            0.42313626408576965,
            0.4534556567668915,
            -0.2787783145904541,
            0.6074023246765137,
            -0.42015960812568665,
            -0.6817076206207275,
            0.01237301155924797,
            0.3743918836116791,
            -0.18490873277187347,
            -0.2398894727230072,
            -0.3277638256549835,
            0.8304061889648438,
            0.0044709122739732265,
            -0.007846235297620296,
            0.37205544114112854,
            -0.14866922795772552,
            -0.46496525406837463,
            0.09971053898334503,
            0.4317510724067688,
            0.43899005651474,
            -0.20267921686172485,
            -0.21772542595863342,
            -0.2453068196773529,
            -0.02567102573812008,
            0.356105238199234,
            -0.3161277770996094,
            0.56306391954422,
            -0.2451217621564865,
            0.45958203077316284,
            0.6350499391555786,
            0.2645835280418396,
            -0.7275408506393433,
            -0.18042290210723877,
            -0.2903200685977936,
            0.09830702841281891,
            0.6779608130455017,
            -0.674213171005249,
            0.1529756486415863,
            0.24164198338985443,
            -0.24799595773220062,
            0.1998293548822403,
            0.2033367156982422,
            0.3514624238014221,
            -0.09718949347734451,
            -0.3198627233505249,
            -0.13426966965198517,
            -0.1141546219587326,
            -0.18336066603660583,
            0.12845173478126526,
            -0.5694230794906616,
            -0.4043160676956177,
            0.4737166464328766,
            -0.18332329392433167,
            0.1435990035533905,
            -0.1554097980260849,
            0.9574487805366516,
            -0.5282520651817322,
            -0.4011305272579193,
            -0.07200846076011658,
            -0.04832034558057785,
            -0.4364334046840668,
            0.511186957359314,
            -0.09184488654136658,
            -0.6217126846313477,
            -0.04772275313735008,
            -0.18882408738136292,
            0.5734167695045471,
            0.23399370908737183,
            0.13811638951301575,
            0.0947064533829689,
            -0.3330851197242737,
            0.08296633511781693,
            0.5446029305458069,
            -0.3758642077445984,
            0.04816018044948578,
            -0.3510942757129669,
            0.3497559428215027,
            -0.3335256576538086,
            -0.06745842844247818,
            -0.023489709943532944,
            -0.20277169346809387,
            0.30133408308029175,
            0.6410408616065979,
            0.22195973992347717,
            0.31610020995140076,
            -0.06837590783834457,
            0.375912070274353,
            -0.2731228768825531,
            0.22906149923801422,
            -0.30984941124916077,
            -0.020799854770302773,
            -0.5112888216972351,
            -0.2779489755630493,
            0.4659116566181183,
            -0.1395173966884613,
            0.05340389162302017,
            -0.28256911039352417,
            -0.0843796506524086,
            -0.1546022891998291,
            -0.17264389991760254,
            0.25305303931236267,
            -0.29650554060935974,
            -0.40907609462738037,
            0.316068172454834,
            0.21619920432567596,
            -0.007081103045493364,
            0.3388462960720062,
            0.42129209637641907,
            -0.6199688911437988,
            -0.3452322781085968,
            -0.03834263235330582,
            -0.3762103021144867,
            -0.5461949706077576,
            -0.12999266386032104,
            0.13933470845222473,
            0.23674288392066956,
            -0.2497631013393402,
            0.07696633785963058,
            -0.05409044772386551,
            0.20591969788074493,
            0.3247590661048889,
            0.1834971308708191,
            0.05841986835002899,
            -0.6094716191291809,
            -0.039029646664857864,
            0.14038701355457306,
            -0.6169791221618652,
            0.1348143368959427,
            0.12235083431005478,
            -0.2792169153690338,
            0.13812366127967834,
            0.5826593637466431,
            -0.21752770245075226,
            -0.6926276683807373,
            0.5872304439544678,
            0.627512514591217,
            -0.36454007029533386,
            0.28532811999320984,
            -0.23459376394748688,
            0.5812457203865051,
            -0.3056258261203766,
            -0.09313742816448212,
            0.12566345930099487,
            0.0667429193854332,
            -1.1439718008041382,
            0.14738436043262482,
            0.24057412147521973,
            -0.03056994080543518,
            -0.08528070896863937,
            0.063630111515522,
            -0.2084389626979828,
            0.08517917990684509,
            -0.23317880928516388,
            0.24525174498558044,
            0.2847816050052643,
            -0.2408360093832016,
            0.2772296667098999,
            0.32983267307281494,
            0.6317789554595947,
            -0.024440214037895203,
            0.028033509850502014,
            0.4685545861721039,
            0.13181790709495544,
            -0.44686198234558105,
            0.30535122752189636,
            0.21247868239879608,
            0.20404008030891418,
            -0.3143090009689331,
            -0.03468087315559387,
            0.08984494209289551,
            0.18447639048099518,
            0.3555266857147217,
            -0.4054355323314667,
            -0.5707088112831116,
            0.41880500316619873,
            -0.020293043926358223,
            0.29747939109802246,
            -0.12472344189882278,
            0.07792694866657257,
            -0.05306835472583771,
            0.2674963176250458,
            0.05139421299099922,
            0.33214545249938965,
            -0.13347041606903076,
            -0.4621517062187195,
            0.0033043534494936466,
            -0.3884725570678711,
            -0.0902322381734848,
            0.8708145022392273,
            -0.4317435324192047,
            -0.37632107734680176,
            -0.38632795214653015,
            0.09419640153646469,
            0.28999415040016174,
            0.18587440252304077,
            -0.013623200356960297,
            0.2010503113269806,
            -0.16835354268550873,
            -0.08611645549535751,
            -0.4153296649456024,
            -0.27850738167762756,
            0.1932380050420761,
            -0.1281593292951584,
            -0.28458303213119507,
            0.4445563554763794,
            -0.18939581513404846,
            -0.4280756711959839,
            0.583203911781311,
            0.033652957528829575,
            0.1385917365550995,
            -0.25845083594322205,
            -0.13680937886238098,
            -0.29981014132499695,
            0.049942534416913986,
            -0.21674346923828125,
            0.3832203447818756,
            -0.21119621396064758,
            -0.2777034640312195,
            -0.2990673780441284,
            0.10250096768140793,
            0.2415817528963089,
            0.2993890345096588,
            -0.2461884468793869,
            0.17412126064300537,
            0.4995571970939636,
            -0.2730298936367035,
            0.0564231239259243,
            -0.3636222779750824,
            -0.16527415812015533,
            -0.4485802948474884,
            -0.10132152587175369,
            0.15303786098957062,
            -0.5213137865066528,
            -0.22274115681648254,
            0.09172768145799637,
            -0.23259665071964264,
            0.466309517621994,
            0.41850748658180237,
            0.13002806901931763,
            -0.10613249242305756,
            0.16044597327709198,
            0.08843814581632614,
            0.2313629537820816,
            0.06606245785951614,
            -0.501869261264801,
            -0.1257726103067398,
            -0.46112507581710815,
            -0.3158641457557678,
            -0.2764696180820465,
            0.1953505128622055,
            0.1653280407190323,
            0.010662058368325233,
            -0.10385352373123169,
            0.3754611909389496,
            -0.27861925959587097,
            -0.2927808463573456,
            0.03094492480158806,
            -0.17218346893787384,
            0.3318418264389038,
            0.12627214193344116,
            0.0775122418999672,
            0.24772588908672333,
            0.05693183094263077,
            0.5242010951042175,
            0.05374159663915634,
            -0.044073436409235,
            0.22734862565994263,
            0.015109807252883911,
            -0.18707653880119324,
            -0.3482378125190735,
            -0.5378979444503784,
            0.12138605862855911,
            0.12584958970546722,
            0.24248601496219635,
            0.05184303596615791,
            0.29460495710372925,
            -0.06310244649648666,
            0.163981094956398,
            -0.6316350698471069,
            0.3632124364376068,
            -0.09662092477083206,
            -0.2434130311012268,
            0.13464519381523132,
            0.753718912601471,
            -0.24656565487384796,
            0.005632543005049229,
            -0.083126001060009,
            -0.14936085045337677,
            0.04034578427672386,
            0.10948190838098526,
            -0.6030175089836121,
            0.42027854919433594,
            -0.06989315152168274,
            -0.001181554514914751,
            0.2716858386993408,
            -0.2998126447200775,
            0.057385288178920746,
            0.10903219878673553,
            -0.4477389454841614,
            -0.23762932419776917,
            -0.1998974233865738,
            0.799140214920044,
            -0.13693669438362122,
            0.2968387007713318,
            0.3219352960586548,
            -0.08954664319753647,
            0.1977577656507492,
            -0.08430680632591248,
            0.1638980656862259,
            0.11972981691360474,
            0.09807433187961578,
            0.3019256591796875,
            -0.20911957323551178,
            -0.0673770159482956,
            -0.2855307459831238,
            -0.4349313974380493,
            -0.057167898863554,
            -0.2314096838235855,
            -0.28900134563446045,
            -0.4529508650302887,
            0.06025759130716324,
            0.23031027615070343,
            0.08417358249425888,
            0.0851031094789505,
            -0.2821348011493683,
            0.11468835920095444,
            0.05970204621553421,
            -0.5022910237312317,
            0.442175954580307,
            0.41319942474365234,
            0.3337691128253937,
            -0.4251903295516968,
            -0.041241079568862915,
            -0.20672369003295898,
            0.045236848294734955,
            0.2075316309928894,
            -0.225690558552742,
            -1.0716750621795654,
            -0.4000968635082245,
            0.04782593622803688,
            -0.18014538288116455,
            0.20264092087745667,
            -0.7372789978981018,
            -0.176735058426857,
            -0.12191545963287354,
            0.42256253957748413,
            -0.4923592209815979,
            0.462701678276062,
            0.16059915721416473,
            -0.15922653675079346,
            0.3733333647251129,
            -0.13113592565059662,
            -0.11253912001848221,
            -0.012937171384692192,
            0.4429214894771576,
            -0.16086705029010773,
            -0.15140041708946228,
            0.34846222400665283,
            0.296074777841568,
            -0.30087149143218994,
            -0.270174115896225,
            0.024968864396214485,
            0.18560002744197845,
            0.4316999316215515,
            0.4043709337711334,
            0.4478769898414612,
            0.37345874309539795,
            -0.24248799681663513,
            -0.09195881336927414,
            0.38694944977760315,
            -0.16267898678779602,
            0.42637014389038086,
            0.4010988175868988,
            0.21683773398399353,
            0.2158307582139969,
            -0.23965412378311157,
            -0.36539867520332336,
            -0.4670783579349518,
            -0.26550784707069397,
            0.0874372273683548,
            0.20510903000831604,
            0.32956168055534363,
            -0.5234836935997009,
            -0.39616039395332336,
            -0.5995794534683228,
            -0.18008644878864288,
            0.21505188941955566,
            -0.34034714102745056,
            0.19858646392822266,
            -0.5500832796096802,
            0.10219315439462662,
            -0.20849654078483582,
            -0.4199240803718567,
            -0.13372039794921875,
            -0.2299516797065735,
            -0.2731113135814667,
            -0.1862032115459442,
            0.08365379273891449,
            0.6463691592216492,
            0.43351054191589355,
            0.5215775966644287,
            0.36976709961891174,
            -0.4315445125102997,
            -0.6061205863952637,
            -0.4528391361236572,
            -0.48573893308639526,
            -0.41349947452545166,
            0.5167440176010132,
            0.011004004627466202,
            -0.11415046453475952,
            0.04453438147902489,
            -0.3548186123371124,
            -0.14617358148097992,
            -0.8858562707901001,
            -0.3860560953617096,
            0.17495623230934143,
            0.10443727672100067,
            -0.06451694667339325,
            -0.09617964923381805,
            0.15352433919906616,
            -0.04603724926710129,
            0.09148780256509781,
            0.20694656670093536,
            -0.044041454792022705,
            0.2119525671005249,
            0.050370827317237854,
            -0.4663711488246918,
            -0.2701648771762848,
            -0.03062751516699791,
            -0.4421074390411377,
            0.10904031991958618,
            0.3752671182155609,
            -0.14969468116760254,
            -0.09763254225254059,
            -0.132188618183136,
            -0.035716038197278976,
            -0.23260094225406647,
            0.15703585743904114,
            -0.09207475930452347,
            -0.29936620593070984,
            0.0978819727897644,
            -0.14333787560462952,
            0.447395384311676,
            0.31171318888664246,
            -0.1317538172006607,
            0.1688157320022583,
            0.08919771760702133,
            0.31646671891212463,
            0.16868601739406586,
            -0.33190420269966125,
            0.04786576330661774,
            -0.07198010385036469,
            0.0907876193523407,
            -0.5664408206939697,
            0.05884994938969612,
            0.5302184820175171,
            -0.19981667399406433,
            0.108680859208107,
            0.022951368242502213,
            -0.25799092650413513,
            0.19978514313697815,
            0.060132354497909546,
            0.0607229545712471,
            0.02162996493279934,
            0.002833768492564559,
            -0.0845758393406868,
            0.3203202188014984,
            -0.32228049635887146,
            0.15098249912261963,
            0.48433491587638855,
            -0.08109839260578156,
            0.35591399669647217,
            0.20700860023498535,
            0.07764618843793869,
            0.00420333119109273,
            0.05959969386458397,
            -0.13746249675750732,
            -0.3155227303504944,
            0.22174353897571564,
            0.32199233770370483,
            0.21567130088806152,
            0.20288880169391632,
            -0.33214110136032104,
            0.08488059788942337,
            0.15475662052631378,
            0.3117179572582245,
            -0.14494085311889648,
            0.15863975882530212,
            -0.35480421781539917,
            0.1034887433052063,
            -0.2464037835597992,
            0.12335782498121262,
            0.026077326387166977,
            0.3372248411178589,
            -0.043716903775930405,
            -0.07989755272865295,
            -0.1232282891869545,
            -0.17251117527484894,
            0.04866427183151245,
            0.06032093986868858,
            0.14261983335018158,
            -0.11355990916490555,
            -0.07859426736831665,
            0.14591377973556519,
            -0.12484942376613617,
            0.3383916914463043,
            0.09218930453062057,
            -0.08269304782152176,
            0.20372235774993896,
            0.0352465957403183,
            0.2214595228433609,
            -0.3319275975227356,
            -0.10757805407047272,
            0.30150920152664185,
            0.010524200275540352,
            0.10882316529750824,
            -0.36280155181884766,
            0.12989671528339386,
            0.33952876925468445,
            -0.1095886155962944,
            0.2152826488018036,
            0.029459945857524872,
            -0.13390782475471497,
            -0.13499793410301208,
            0.10853379964828491,
            -0.2601824998855591,
            0.18365752696990967,
            0.026364443823695183,
            -0.22351747751235962,
            -0.02310924232006073,
            -0.22211986780166626,
            -0.025024591013789177,
            0.09797509759664536,
            -0.4185420572757721,
            -0.4097532331943512,
            -0.5694891810417175,
            0.09907429665327072,
            -0.39242130517959595,
            -0.20382143557071686,
            -0.33776938915252686,
            0.3398888111114502,
            0.5658308863639832,
            0.36412590742111206,
            -0.7181535363197327,
            -0.14612554013729095,
            0.3563172519207001,
            -0.2216821312904358,
            0.3510720133781433,
            0.5378516316413879,
            -0.2894846200942993,
            0.5912579298019409,
            0.1524919867515564,
            0.4736504554748535,
            0.4141130745410919,
            0.4988971948623657,
            -0.020069992169737816,
            -0.2615809440612793,
            -0.34014564752578735,
            -0.12566272914409637,
            -0.20473402738571167,
            0.18271403014659882,
            -0.021888943389058113,
            -0.4813712239265442,
            0.1361335664987564,
            -0.1084914356470108,
            -0.047021862119436264,
            -0.43594515323638916,
            -0.07361147552728653,
            -0.058786630630493164,
            0.054878201335668564,
            -0.19317416846752167,
            -0.11326400935649872,
            0.28287819027900696,
            0.24907319247722626,
            0.33679431676864624,
            0.4232901632785797,
            0.33844152092933655,
            -0.1515963077545166,
            0.3371962606906891,
            -0.4212605059146881,
            -0.042965345084667206,
            0.252331018447876,
            -0.014496445655822754,
            -0.03527393192052841,
            -0.4057183265686035,
            -0.3292672336101532,
            -0.3845536708831787,
            0.06821917742490768,
            -0.2916002869606018,
            -0.13739833235740662,
            -0.5005102753639221,
            0.23837389051914215,
            -0.1996506005525589,
            0.34109559655189514,
            -0.29058679938316345,
            0.21690306067466736,
            0.3083736300468445,
            -0.08105982095003128,
            0.1583193838596344,
            0.41329899430274963,
            -0.14265033602714539,
            0.03337286785244942,
            -0.1259242594242096,
            0.005831022281199694,
            0.07729748636484146,
            0.418935090303421,
            -0.5960450172424316,
            -0.23288178443908691,
            0.13642975687980652,
            -0.225973442196846,
            0.19312292337417603,
            -0.18684466183185577,
            -0.030786678194999695,
            -0.5825214385986328,
            0.3877895474433899,
            -0.2136877030134201,
            -0.2810749411582947,
            -0.27833062410354614,
            0.4058212637901306,
            0.049452319741249084,
            0.19255651533603668,
            -0.23568706214427948,
            -0.15018171072006226,
            -0.2773140072822571,
            0.010474331676959991,
            0.2522791922092438,
            0.4525923728942871,
            -0.01592654548585415,
            0.025301974266767502,
            0.012791580520570278,
            0.22566606104373932,
            0.31325992941856384,
            0.01844237558543682,
            0.22094644606113434,
            -0.11523018777370453,
            -0.11558464914560318,
            -0.5011367201805115,
            -0.037826649844646454,
            -0.18583354353904724,
            -0.0903148204088211,
            0.5228262543678284,
            0.4895498752593994,
            -0.33028799295425415,
            0.018003229051828384,
            0.04638253152370453,
            -0.4040204584598541,
            -0.1810246706008911,
            -0.009079212322831154,
            0.4292224049568176,
            -0.172014519572258,
            0.29540449380874634,
            0.37030988931655884,
            -0.08052574098110199,
            0.10930345952510834,
            -0.09639542549848557,
            0.09857410937547684,
            -0.14058439433574677,
            -0.012109830044209957,
            -0.3818645477294922,
            0.2883961796760559,
            -0.10600731521844864,
            0.335226446390152,
            0.11851766705513,
            -0.4601570665836334,
            -0.5946559309959412,
            -0.05998001992702484,
            -0.0011203489266335964,
            -0.08944877237081528,
            -0.03873298317193985,
            0.12554259598255157,
            0.3980584144592285,
            0.13091261684894562,
            -0.3527158200740814,
            0.12166983634233475,
            0.047631680965423584,
            0.18427406251430511,
            0.004964339546859264,
            -0.28619539737701416,
            -0.31095489859580994,
            -0.1819954663515091,
            -0.5186409950256348,
            0.41097813844680786,
            -0.21438351273536682,
            0.13049796223640442,
            0.5818257927894592,
            0.5048307776451111,
            0.06145186722278595,
            0.012170478701591492,
            0.16697391867637634,
            -0.4098919928073883,
            0.0509842112660408,
            -0.35464632511138916,
            -0.07936524599790573,
            0.0180354043841362,
            -0.019541295245289803,
            0.2797156274318695,
            0.14857244491577148,
            0.3290521204471588,
            -0.04273691400885582,
            0.3229028284549713,
            -0.1644146740436554,
            -0.32261621952056885,
            -0.5074418187141418,
            -0.4797694683074951,
            -0.38613566756248474,
            -0.623828113079071,
            0.2108137309551239,
            -0.19066891074180603,
            -0.13227516412734985,
            -0.3257967531681061,
            -0.0994621068239212,
            -0.15827596187591553,
            0.09045853465795517,
            0.3328300416469574,
            -0.10583695769309998,
            0.38277050852775574,
            -0.17874017357826233,
            0.31500449776649475,
            -0.20349054038524628,
            0.4023539125919342,
            0.12392985075712204,
            0.1637147068977356,
            -0.2158600389957428,
            0.3516177833080292,
            -0.04599389433860779,
            -0.08639734238386154,
            0.31075963377952576,
            -0.06551377475261688,
            0.14828169345855713,
            -0.02009304240345955,
            -0.010165125131607056,
            0.1841852068901062,
            0.059914570301771164,
            -0.13830678164958954,
            0.15780553221702576,
            -0.04231152683496475,
            -0.12338267266750336,
            -0.4744557738304138,
            0.11896588653326035,
            -0.055989958345890045,
            -0.1083541214466095,
            0.13494393229484558,
            -0.09637846052646637,
            -0.05546102300286293,
            0.05703984573483467,
            -0.047216422855854034,
            -0.38398683071136475,
            0.3231269121170044,
            -0.15487343072891235,
            -0.03979106619954109,
            0.05193347856402397,
            0.35238680243492126,
            -0.39344751834869385,
            0.19497889280319214,
            0.2558930516242981,
            -0.17734596133232117,
            -0.13556638360023499,
            -0.42806103825569153,
            -0.05545377358794212,
            0.1724022477865219,
            -0.16655167937278748,
            -0.3145190179347992,
            0.0859464630484581,
            0.10775917023420334,
            0.1811421513557434,
            0.23037800192832947,
            0.05599362403154373,
            0.36411625146865845,
            -0.0914422869682312,
            0.1838964968919754,
            0.060912828892469406,
            -0.15283633768558502,
            -0.2883811593055725,
            0.2950421869754791,
            0.15750591456890106,
            0.08876818418502808,
            -0.03565245121717453,
            -0.060133881866931915,
            0.07469956576824188,
            -0.16572979092597961,
            -0.5413116812705994,
            -0.15889962017536163,
            0.40011849999427795,
            -0.3221651613712311,
            0.07997787743806839,
            0.16026745736598969,
            -0.04190428555011749,
            0.12088296562433243,
            0.34882014989852905,
            0.28862643241882324,
            0.043199144303798676,
            -0.060425058007240295,
            -0.3178319036960602,
            0.24455775320529938,
            -0.06920605897903442,
            0.02922547236084938,
            -0.2385672926902771,
            0.1586877405643463,
            0.5654019713401794,
            0.2475794553756714,
            0.02088245376944542,
            -0.4367581903934479,
            -0.09167180955410004,
            0.2659584879875183,
            0.2356971800327301,
            0.022338317707180977,
            -0.0028090912383049726,
            0.02225896529853344,
            0.4431453347206116,
            -0.10013360530138016,
            -0.4315704107284546,
            -0.08046457171440125,
            0.27941128611564636,
            -0.06274477392435074,
            -0.04604937508702278,
            0.09955831617116928,
            0.36566221714019775,
            -0.07346661388874054,
            -0.017744634300470352,
            0.3632420003414154,
            0.07002522051334381,
            0.2726573348045349,
            0.07920605689287186,
            -0.284568727016449,
            -0.024980824440717697,
            -0.46576830744743347,
            0.05655413120985031,
            -0.21386554837226868,
            -0.03171912953257561,
            0.5112603902816772,
            -0.07431179285049438,
            -0.19957618415355682,
            -0.19063293933868408,
            0.1474418342113495,
            -0.42099955677986145,
            0.2689518630504608,
            -0.14938198029994965,
            -0.5213658213615417,
            0.0074133374728262424,
            -0.33920231461524963,
            -0.1455438733100891,
            -0.0020014967303723097,
            0.2625865340232849,
            -0.25231537222862244,
            -0.16463731229305267,
            0.2480396032333374,
            0.09822385013103485,
            0.28940853476524353,
            0.07738499343395233,
            0.10351330786943436,
            -0.2574463188648224,
            -0.5373431444168091,
            0.17797070741653442,
            -0.01517444383352995,
            0.22455601394176483,
            -0.18420782685279846,
            -0.09308859705924988,
            -0.061743274331092834,
            -0.13446003198623657,
            -0.20044781267642975,
            -0.11110621690750122,
            0.2951030135154724,
            -0.03969072178006172,
            -0.1988649070262909,
            0.23995374143123627,
            0.19507049024105072,
            0.39959701895713806,
            0.05915823206305504,
            -0.030106917023658752,
            0.49020716547966003,
            -0.4671575427055359,
            -0.07361805438995361,
            0.06930758059024811,
            -0.38122209906578064,
            -0.20256580412387848,
            -0.05115487426519394,
            -0.09249936044216156,
            -0.20034955441951752,
            -0.020246759057044983,
            -0.05849934369325638,
            -0.07109957188367844,
            -0.17013496160507202,
            -0.15945234894752502,
            0.07160410284996033,
            0.29817476868629456,
            -0.10954034328460693,
            -0.19336190819740295,
            0.32304418087005615,
            0.013451035134494305,
            0.08169689774513245,
            0.22514517605304718,
            0.0595245435833931,
            0.2505972385406494,
            -0.1255866140127182,
            0.1907534897327423,
            0.14347176253795624,
            0.39320677518844604,
            -0.04313544183969498,
            -0.10078085958957672,
            0.43370863795280457,
            -0.054974332451820374,
            0.08441171050071716,
            0.19709119200706482,
            -0.3782956600189209,
            0.5451300144195557,
            -0.02887357398867607,
            -0.3630641996860504,
            -0.0137029392644763,
            0.32187795639038086,
            0.2446543276309967,
            0.29397210478782654,
            0.20010441541671753,
            -0.14413347840309143,
            -0.0011239040177315474,
            -0.23838549852371216,
            -0.3956363797187805,
            0.06670531630516052,
            0.08863828331232071,
            0.11367637664079666,
            -0.19046878814697266,
            -0.24029390513896942,
            0.7667537331581116,
            -0.10597957670688629,
            0.04622112959623337,
            -0.5826631784439087,
            -0.3018632233142853,
            0.01359484251588583,
            0.43492335081100464,
            0.0172793660312891,
            0.038586296141147614,
            0.039481595158576965,
            -0.659049391746521,
            -0.37546083331108093,
            0.07678084075450897,
            0.09459968656301498,
            -0.29873692989349365,
            -0.001321124960668385,
            -0.005471405107527971,
            -0.1152595803141594,
            0.35367462038993835,
            0.29817578196525574,
            -0.021419884636998177,
            -0.267010360956192,
            -0.2982465922832489,
            -0.030541202053427696,
            -0.1387270838022232,
            -0.021909726783633232,
            0.21171055734157562,
            0.05013387277722359,
            -0.0970262885093689,
            0.05118678882718086,
            0.1865449696779251,
            -0.10816271603107452,
            -0.3172689378261566,
            -0.0032720151357352734,
            -0.15356914699077606,
            -0.13037210702896118,
            0.09905152767896652,
            -0.031356584280729294,
            -0.35188305377960205,
            -0.08621256798505783,
            -0.004811719059944153,
            0.06165355443954468,
            0.12066206336021423,
            0.14517615735530853,
            -0.12216747552156448,
            0.030627870932221413,
            0.09741190075874329,
            -0.03907556086778641,
            0.3333200216293335,
            0.2629684805870056,
            -0.01867302879691124,
            0.21177361905574799,
            -0.28998348116874695,
            -0.11596133559942245,
            0.022696685045957565,
            -0.25287219882011414,
            -0.10480871051549911,
            0.18818292021751404,
            -0.19509433209896088,
            0.04169376567006111,
            -0.3757120668888092,
            0.035896025598049164,
            0.4620368182659149,
            0.16280603408813477,
            -0.2937174141407013,
            -0.19352741539478302,
            0.3001229465007782,
            0.10475825518369675,
            0.7035220265388489,
            -0.1344299018383026,
            0.38306236267089844,
            -0.07619848847389221,
            -0.34605613350868225,
            -0.2879698574542999,
            0.29153454303741455,
            -0.6973736882209778,
            0.00021527391800191253,
            0.16688600182533264,
            -0.20482070744037628,
            0.5638335347175598,
            0.01482359692454338,
            0.007937837392091751,
            0.2623899579048157,
            0.10715136677026749,
            -0.07763133943080902,
            -0.09760157763957977,
            0.1014651507139206,
            -0.07947902381420135,
            0.07245437800884247,
            -0.11376971006393433,
            0.0654284805059433,
            -0.084025077521801,
            -0.16158965229988098,
            -0.28193143010139465,
            -0.09263017773628235,
            0.4681675434112549,
            0.15104970335960388,
            -0.31335967779159546,
            0.03273288533091545,
            0.04209725931286812,
            -0.19784073531627655,
            0.18767517805099487,
            0.32725852727890015,
            0.2980543076992035,
            -0.06914959847927094,
            0.09643279761075974,
            -0.24138091504573822,
            -0.06402954459190369,
            0.31125321984291077,
            -0.21136006712913513,
            -0.2218213528394699,
            -0.47163212299346924,
            -0.06491013616323471,
            -0.040227651596069336,
            0.3700525164604187,
            0.44733327627182007,
            0.3837924003601074,
            0.3020489513874054,
            0.060375094413757324,
            -0.1386980265378952,
            -0.1245075911283493,
            -0.03948230668902397,
            0.07488558441400528,
            0.18462783098220825,
            -0.27732816338539124,
            -0.18632374703884125,
            -0.28576311469078064,
            -0.17438645660877228,
            0.31329450011253357,
            -0.17701996862888336,
            -0.7501965761184692,
            -0.05202800780534744,
            0.10445795208215714,
            0.3973690867424011,
            -0.6546455025672913,
            -0.25404995679855347,
            -0.21337048709392548,
            0.14358264207839966,
            0.7342207431793213,
            0.36387893557548523,
            -0.09879251569509506,
            0.1819409281015396,
            -0.04118989408016205,
            -0.13390997052192688,
            0.22917121648788452,
            0.3802153170108795,
            -0.2686005234718323,
            -0.20061782002449036,
            0.04749283194541931,
            0.04851120710372925,
            0.5522606372833252,
            0.19119606912136078,
            -0.03815893083810806,
            0.14704613387584686,
            0.49431541562080383,
            0.4544326961040497,
            0.09908976405858994,
            -0.051133252680301666,
            -0.4733022153377533,
            0.40555819869041443,
            0.22140687704086304,
            0.11032863706350327,
            0.28688135743141174,
            0.2395404726266861,
            0.04470037296414375,
            0.2583846151828766,
            -0.20961472392082214,
            0.3950229585170746,
            -0.5435652732849121,
            -0.19316287338733673,
            -0.40891218185424805,
            0.5172467827796936,
            -0.31690794229507446,
            -0.26364853978157043,
            -0.21287375688552856,
            0.06377467513084412,
            0.11155178397893906,
            -0.23288121819496155,
            0.2428586333990097,
            0.1685764640569687,
            -0.654377281665802,
            0.11858193576335907,
            0.0320512056350708,
            -0.029141640290617943,
            0.19623954594135284,
            -0.36903372406959534,
            -0.3451169729232788,
            0.14767351746559143,
            0.2608601748943329,
            0.03802313283085823,
            0.21923480927944183,
            -0.02175918035209179,
            -0.4172472059726715,
            0.15599994361400604,
            -0.24626223742961884,
            -0.33291956782341003,
            0.12046490609645844,
            0.17225465178489685,
            -0.2572925388813019,
            0.1981024295091629,
            -0.26206445693969727,
            -0.21947479248046875,
            -0.40478283166885376,
            -0.15447454154491425,
            0.2217666506767273,
            0.2230711728334427,
            0.5788075923919678,
            -0.5777985453605652,
            0.3734547793865204,
            -0.21084697544574738,
            0.09125567972660065,
            0.23011833429336548,
            0.12019302695989609,
            0.2408134490251541,
            0.1438068151473999,
            -0.181946262717247,
            0.22571294009685516,
            -0.06218191236257553,
            -0.22223883867263794,
            0.0574473962187767,
            0.15813352167606354,
            0.26962217688560486,
            -0.21273267269134521,
            -0.0661517083644867,
            0.12642967700958252,
            0.2881835103034973,
            -0.006103203631937504,
            0.43740135431289673,
            0.024604015052318573,
            0.03415047377347946,
            0.23832011222839355,
            0.010773449204862118,
            -0.5036610960960388,
            -0.37852954864501953,
            0.17713932693004608,
            -0.40942463278770447,
            0.17356325685977936,
            0.1373026818037033,
            0.11006928980350494,
            0.43124428391456604,
            0.029127417132258415,
            0.24621757864952087,
            0.18900102376937866,
            -0.024848774075508118,
            0.2823367118835449,
            0.022687815129756927,
            0.09246168285608292,
            0.3158189654350281,
            0.3926635980606079,
            0.022752782329916954,
            -0.04161189869046211,
            0.04153935983777046,
            -0.09800790250301361,
            0.26810768246650696,
            0.4312470853328705,
            -0.150759756565094,
            0.37059706449508667,
            -0.24602434039115906,
            0.44115930795669556,
            -0.6726027131080627,
            0.5602597594261169,
            0.07625053822994232,
            0.200503870844841,
            0.7897141575813293,
            -0.061609141528606415,
            0.1347733736038208,
            -0.10936148464679718,
            0.0433945506811142,
            -0.17720501124858856,
            -0.02659905143082142,
            0.04965807870030403,
            -0.29935869574546814,
            0.25235819816589355,
            -0.24566277861595154,
            0.1041569784283638,
            -0.037402547895908356,
            -0.19428670406341553,
            -0.5493744611740112,
            0.5036789178848267,
            -0.3701523244380951,
            0.11535188555717468,
            -0.09685471653938293,
            -0.13408975303173065,
            -0.14629292488098145,
            0.12556318938732147,
            0.036329660564661026,
            0.3888348639011383,
            -0.08383604139089584,
            0.22713994979858398,
            0.4383845925331116,
            -0.22604288160800934,
            -0.04196646437048912,
            0.29512831568717957,
            -0.0686289593577385,
            -0.3524426519870758,
            -0.4325625002384186,
            0.07717960327863693,
            0.22209446132183075,
            0.2006569802761078,
            -0.15899312496185303,
            0.12382965534925461,
            -0.28835466504096985,
            0.5074183940887451,
            -0.34646546840667725,
            0.05775493010878563,
            0.1526644080877304,
            0.06195162236690521,
            0.06253521144390106,
            -0.18750499188899994,
            -0.10553447902202606,
            0.48417800664901733,
            -0.06488656252622604,
            -0.2737511992454529,
            0.28126344084739685,
            0.19722266495227814,
            -0.19791807234287262,
            0.2738829255104065,
            -0.12323696911334991,
            0.15694129467010498,
            -0.1966189444065094,
            0.10817631334066391,
            -0.4037444591522217,
            -0.4941647946834564,
            0.7131458520889282,
            0.08642099797725677,
            0.29252129793167114,
            0.25829851627349854,
            0.20318198204040527,
            0.12137237191200256,
            -0.1953609585762024,
            0.23591971397399902,
            -0.3188163638114929,
            -0.013251518830657005,
            -0.04953768104314804,
            -0.2186603844165802,
            0.10209662467241287,
            0.0019762334413826466,
            -0.33563050627708435,
            -0.5887219905853271,
            0.07206621021032333,
            0.05252555012702942,
            0.19977469742298126,
            -0.16082721948623657,
            0.3076818585395813,
            -0.43002980947494507,
            0.2209172248840332,
            0.04404079169034958,
            0.2868252992630005,
            0.017122892662882805,
            -0.4439787268638611,
            -0.3621620237827301,
            -0.14992892742156982,
            -0.04326193407177925,
            -0.012370004318654537,
            0.23114995658397675,
            -0.06158161908388138,
            0.11984486877918243,
            -0.09246720373630524,
            -0.2788376808166504,
            -0.12054701149463654,
            0.08067486435174942,
            -0.10112381726503372,
            -0.5605424046516418,
            -0.49712038040161133,
            0.38012170791625977,
            0.397863507270813,
            -0.04186917841434479,
            -0.06125256046652794,
            -0.08249285072088242,
            -0.11065727472305298,
            0.5198354125022888,
            -0.010821952484548092,
            0.40448808670043945,
            0.07250449806451797,
            0.1201976016163826,
            -0.7614255547523499,
            0.33276963233947754,
            0.1420692503452301,
            -0.005795982666313648,
            -0.020177213475108147,
            0.14975251257419586,
            0.02266284078359604,
            0.09272943437099457,
            -0.4852242171764374,
            -0.3310050964355469,
            0.13262172043323517,
            -0.22054657340049744,
            -0.028836438432335854,
            -0.08063212782144547,
            0.13626421988010406,
            0.02343454211950302,
            -0.21530838310718536,
            0.16368205845355988,
            0.32116690278053284,
            0.027098113670945168,
            -0.2127222865819931,
            0.2464277446269989,
            -0.2836652994155884,
            0.1571965515613556,
            0.026623722165822983,
            -0.0299827940762043,
            0.13321532309055328,
            -0.36007872223854065,
            -0.07344014197587967,
            0.04374910891056061,
            0.5214335918426514,
            -0.28605571389198303,
            -0.1020715981721878,
            -0.2916276454925537,
            0.20886696875095367,
            0.20544995367527008,
            -0.5201337933540344,
            -0.009313301183283329,
            -0.06253065168857574,
            0.3167693316936493,
            0.07940692454576492,
            -0.30509740114212036,
            -0.4974479377269745,
            0.16903690993785858,
            -0.018345704302191734,
            -0.010594794526696205,
            0.35210472345352173,
            0.05244690179824829,
            0.12866926193237305,
            -0.004791695158928633,
            0.46922487020492554,
            0.08119753003120422,
            0.11688007414340973,
            0.1266087293624878,
            0.2415892332792282,
            0.009577339515089989,
            0.09696142375469208,
            -0.05867297202348709,
            -0.04590262100100517,
            0.20416049659252167,
            0.4112192988395691,
            0.07032480835914612,
            0.07804306596517563,
            0.17627760767936707,
            0.5372045636177063,
            -0.01827678270637989,
            -0.08044054359197617,
            0.20799611508846283,
            0.07351091504096985,
            0.08023520559072495,
            -0.601818323135376,
            0.025089260190725327,
            -0.10906129330396652,
            0.05360633134841919,
            -0.3212316036224365,
            -0.11767419427633286,
            0.13035784661769867,
            -0.1139211654663086,
            0.2668458819389343,
            -0.19137915968894958,
            0.3974580764770508,
            0.07232420891523361,
            0.34250643849372864,
            0.4482961893081665,
            0.12917642295360565,
            -0.28311291337013245,
            0.19677630066871643,
            -0.03938516229391098,
            0.5332092046737671,
            0.14780065417289734,
            0.10746986418962479,
            -0.08329088985919952,
            0.03596767038106918,
            -0.17829583585262299,
            -0.23265394568443298,
            0.08646246790885925,
            0.558183491230011,
            -0.4590017795562744,
            -0.2856617271900177,
            0.011876078322529793,
            -0.2531464397907257,
            0.47129368782043457,
            0.28472375869750977,
            0.3035351634025574,
            -0.06369055807590485,
            0.5838983654975891,
            -0.7448044419288635,
            -0.18316249549388885,
            -0.19072379171848297,
            -0.1316237598657608,
            0.11779040843248367,
            0.017001543194055557,
            0.46194884181022644,
            -0.11985929310321808,
            0.13081014156341553,
            -0.2774004340171814,
            0.3142935633659363,
            0.18484213948249817,
            0.0977838933467865,
            -0.5460380911827087,
            0.12502969801425934,
            0.13810278475284576,
            0.13316664099693298,
            0.7183118462562561,
            0.5538967251777649,
            -0.25377413630485535,
            -0.24050810933113098,
            0.19541780650615692,
            0.4418375492095947,
            0.18543821573257446,
            -0.17850257456302643,
            -0.13520830869674683
        ],
        "bias": [
            0,
            0,
            0,
            0,
            0,
            0,
            0,
            0,
            0,
            0,
            0,
            0,
            0,
            0,
            0,
            0,
            0,
            0,
            0,
            0,
            0,
            0,
            0,
            0,
            0,
            0,
            0,
            0,
            0,
            0,
            0,
            0,
            0,
            0,
            0,
            0,
            0,
            0,
            0,
            0,
            0,
            0,
            0,
            0,
            0,
            0,
            0,
            0,
            0,
            0,
            0,
            0,
            0,
            0,
            0,
            0,
            0,
            0,
            0,
            0,
            0,
            0,
            0,
            0
        ]
    }
}