{
    "value": {
        "hidden_layer_size": 18,
        "hidden_layer_count": 1,
        "weights": [
            0.09888079017400742,
            0.6195434331893921,
            0.02534784935414791,
            -0.45707544684410095,
            -0.07060573250055313,
            0.42746129631996155,
            0.13515853881835938,
            -0.8433617949485779,
            -0.0644822046160698,
            0.606076180934906,
            0.03860258683562279,
            -0.30384308099746704,
            0.25440046191215515,
            0.21485872566699982,
            -0.5335293412208557,
            -0.11196122318506241,
            -0.5625490546226501,
            0.30500879883766174,
            0.0681367889046669,
            -0.027048645541071892,
            -0.3723647892475128,
            -0.256015807390213,
            0.013244394212961197,
            0.2071027159690857,
            0.11253193765878677,
            0.03223525360226631,
            0.1906527578830719,
            -0.07618357986211777,
            -0.27010923624038696,
            0.17062890529632568,
            -0.2635558843612671,
            0.03604510799050331,
            0.2976057231426239,
            0.7336386442184448,
            -0.2519933879375458,
            0.12905186414718628,
            -0.10104338824748993,
            -0.01907564327120781,
            -0.6736714839935303,
            -0.2541620433330536,
            -0.062445901334285736,
            0.35291990637779236,
            0.521259605884552,
            0.690034031867981,
            0.02384134940803051,
            -0.13634905219078064,
            0.0830739364027977,
            0.040824852883815765,
            -0.6366878747940063,
            0.3878863751888275,
            -0.6065798997879028,
            0.03670758008956909,
            -0.2159019112586975,
            -0.06402189284563065,
            0.4509972631931305,
            -0.28196781873703003,
            -0.45223087072372437,
            0.10816824436187744,
            0.2967399060726166,
            -0.09210965037345886,
            -0.07636772841215134,
            0.30515897274017334,
            -0.6933351755142212,
            0.225350022315979,
            -0.1252603381872177,
            -0.06060352176427841,
            0.44701868295669556,
            0.33928999304771423,
            0.02624647319316864,
            -0.26777544617652893,
            0.4766678214073181,
            -0.28096866607666016,
            0.17547650635242462,
            0.04060523584485054,
            0.059890054166316986,
            0.11756624281406403,
            -0.16623662412166595,
            0.11682046949863434,
            0.23523415625095367,
            0.04689571261405945,
            -0.6134610772132874,
            -0.03953614830970764,
            0.17621873319149017,
            0.2875978946685791,
            -0.041244056075811386,
            0.01163680013269186,
            0.19612549245357513,
            -0.03170303627848625,
            0.560560405254364,
            -0.3397253751754761,
            0.31494349241256714,
            -0.43332430720329285,
            -0.1483658403158188,
            0.029222285374999046,
            0.06422650814056396,
            -0.2340569943189621,
            0.13671137392520905,
            0.761267900466919,
            0.7222099304199219,
            -0.7730716466903687,
            0.24424812197685242,
            0.5895093083381653,
            0.49751126766204834,
            -0.022713234648108482,
            -0.15435311198234558,
            0.20146296918392181,
            0.0576067715883255,
            -0.2592976987361908,
            0.3416186273097992,
            -0.07159097492694855,
            0.35985565185546875,
            -0.30931007862091064,
            0.8276064395904541,
            -0.21388745307922363,
            -0.08308543264865875,
            -0.06617994606494904,
            0.30504515767097473,
            -0.3541988730430603,
            -0.047315116971731186,
            -0.08210936933755875,
            -0.0521511435508728,
            -0.07493864744901657,
            -0.45506492257118225,
            0.6390590667724609,
            0.0933978483080864,
            0.39785099029541016,
            -0.11472262442111969,
            0.12398890405893326,
            -0.4283909201622009,
            -0.17848503589630127,
            0.1448153555393219,
            -0.37735024094581604,
            -0.6345584988594055,
            0.12712383270263672,
            -0.20619748532772064,
            0.1491289883852005,
            0.4408212900161743,
            0.3801203966140747,
            0.2853035628795624,
            0.16614653170108795,
            0.017882512882351875,
            -0.9339975714683533,
            -0.6321880221366882,
            -0.3808671832084656,
            -0.34745293855667114,
            0.09441772848367691,
            0.13830585777759552,
            0.05285089835524559,
            0.40269362926483154,
            0.30866628885269165,
            0.23053090274333954,
            -0.4949263334274292,
            -0.09321587532758713,
            -0.03507280349731445,
            0.2181353121995926,
            -0.09384217858314514,
            0.171108677983284,
            -0.02260555699467659,
            -0.5079712271690369,
            0.04868793487548828,
            0.30117735266685486,
            -0.3204110860824585,
            -0.6232197880744934,
            0.1712244749069214,
            0.429789662361145,
            -0.33343514800071716,
            -0.23044642806053162,
            0.7996231317520142,
            0.27903884649276733,
            -0.06639162451028824,
            -0.04343687742948532,
            -0.2211037129163742,
            -0.439677894115448,
            -0.0913342610001564,
            -0.5382306575775146,
            -0.26409196853637695,
            0.2693929076194763,
            -0.10054291039705276,
            0.17032496631145477,
            0.38116565346717834,
            -0.08843393623828888,
            0.12902602553367615,
            -0.08773870766162872,
            0.15242372453212738,
            0.32814472913742065,
            0.17588874697685242,
            0.20175310969352722,
            -0.5015761256217957,
            -0.41178157925605774,
            0.21905159950256348,
            -0.6134698987007141,
            0.4377053678035736,
            0.012712807394564152,
            -0.050866831094026566,
            -0.19050343334674835,
            0.16163216531276703,
            -0.33708295226097107,
            -0.14561344683170319,
            -0.06760479509830475,
            -0.16101127862930298,
            -0.3898736834526062,
            0.21378962695598602,
            0.1965906172990799,
            -0.14426064491271973,
            -0.6592279672622681,
            0.18772058188915253,
            0.15404847264289856,
            -0.17749202251434326,
            -0.3057457208633423,
            0.8106071352958679,
            0.2947957217693329,
            -0.11696405708789825,
            0.5434076189994812,
            0.33868005871772766,
            0.09663020074367523,
            -0.03936297073960304,
            -0.07970892637968063,
            0.04560096561908722,
            0.12076044082641602,
            0.24695917963981628,
            -0.03386884927749634,
            -0.2765447199344635,
            -0.07538466155529022,
            0.4961584210395813,
            -0.6586726903915405,
            -0.002753671258687973,
            0.9968786835670471,
            -1.0075567960739136,
            -0.23555155098438263,
            0.026026040315628052,
            0.09322278946638107,
            -0.461935430765152,
            0.5349591374397278,
            0.1972174346446991,
            -0.31710386276245117,
            0.26271405816078186,
            -0.02332419529557228,
            0.037878941744565964,
            -0.29068395495414734,
            0.5137637257575989,
            -0.28862908482551575,
            -0.20459416508674622,
            0.8694514632225037,
            0.5305894613265991,
            0.6957281231880188,
            -0.3878858983516693,
            -0.005524732172489166,
            -0.5524123907089233,
            0.39786383509635925,
            -0.24190448224544525,
            0.23077790439128876,
            -0.8568058013916016,
            0.398553729057312,
            -0.12894558906555176,
            0.2251104861497879,
            -0.25063660740852356,
            0.16918618977069855,
            -0.13102987408638,
            0.2639729678630829,
            0.05628963187336922,
            0.044135235249996185,
            -0.21160461008548737,
            -0.20385675132274628,
            -0.05494418367743492,
            -0.5335536599159241,
            -0.40633058547973633,
            0.09974633902311325,
            -0.03458629548549652,
            0.36143797636032104,
            0.752859890460968,
            0.22600489854812622,
            -0.09558658301830292,
            0.19341325759887695,
            -0.32579928636550903,
            -0.5757734179496765,
            0.31210532784461975,
            -0.3302493095397949,
            0.07590924203395844,
            0.2736174762248993,
            0.09655823558568954,
            0.06430843472480774,
            -0.14839182794094086,
            -0.3333440124988556,
            -0.32839083671569824,
            -0.6387711763381958,
            -0.19550497829914093,
            -0.562556266784668,
            -0.1604064702987671,
            -0.4392401874065399,
            -0.10012514889240265,
            0.175980806350708,
            0.1099867969751358,
            0.09356409311294556,
            -0.08734214305877686,
            -0.19589200615882874,
            0.2828234136104584,
            -0.35752516984939575,
            0.27534019947052,
            -0.05192951112985611,
            0.14430342614650726,
            -0.3052218556404114,
            0.2712266445159912,
            -0.3560026288032532,
            0.009798272512853146,
            -0.08584868162870407,
            -0.05746231600642204
        ],
        "bias": [
            0,
            0,
            0,
            0,
            0,
            0,
            0,
            0,
            0,
            0,
            0,
            0,
            0,
            0,
            0,
            0,
            0,
            0,
            0
        ]
    },
    "policy": {
        "hidden_layer_size": 18,
        "hidden_layer_count": 1,
        "weights": [
            -0.5681941509246826,
            0.43565768003463745,
            0.2891096770763397,
            0.0024593626148998737,
            0.46629422903060913,
            0.24328835308551788,
            -0.5649879574775696,
            -0.12435559183359146,
            0.655816912651062,
            0.47851285338401794,
            -0.20845746994018555,
            0.09196096658706665,
            -0.022394640371203423,
            -0.16795779764652252,
            0.20463304221630096,
            -0.01783103309571743,
            0.4092383086681366,
            0.07408462464809418,
            0.25590333342552185,
            0.28437262773513794,
            0.09227269142866135,
            0.3663252294063568,
            -0.07913033664226532,
            0.630902886390686,
            0.025164717808365822,
            -0.23042628169059753,
            -0.047411106526851654,
            -0.4169863760471344,
            0.08279159665107727,
            -0.3205658197402954,
            -0.00648565124720335,
            -0.5417031645774841,
            -0.6154286861419678,
            -0.057810261845588684,
            0.1839851289987564,
            0.3131120204925537,
            -0.28963202238082886,
            0.28328990936279297,
            -0.5878673195838928,
            0.1298695206642151,
            -0.07350368797779083,
            -0.1684456169605255,
            -0.2696889042854309,
            0.18717320263385773,
            -0.46011725068092346,
            0.32195958495140076,
            -0.016454551368951797,
            -0.03696596622467041,
            -0.8660715222358704,
            0.1840500384569168,
            0.3208736777305603,
            -0.4571845233440399,
            -0.24484911561012268,
            0.11763417720794678,
            -0.8456852436065674,
            0.4143562316894531,
            -0.370078980922699,
            -0.06455831229686737,
            0.16584429144859314,
            -0.5605367422103882,
            -0.2936568558216095,
            -0.012057069689035416,
            -0.5080731511116028,
            -0.4388369023799896,
            -0.4455004036426544,
            -0.0029085171408951283,
            0.21507856249809265,
            0.13437937200069427,
            -0.059644099324941635,
            -0.22117553651332855,
            0.2172102928161621,
            0.14803975820541382,
            0.41497793793678284,
            -0.46177396178245544,
            0.6615623831748962,
            0.43874841928482056,
            0.07128498703241348,
            -0.15759669244289398,
            -0.26344671845436096,
            0.17068377137184143,
            -0.21882963180541992,
            -0.009206537157297134,
            -0.5591470003128052,
            0.381976455450058,
            -0.5206281542778015,
            -0.304639995098114,
            0.18476389348506927,
            0.17812985181808472,
            -0.053071994334459305,
            -0.1145157739520073,
            -0.1795717030763626,
            0.03250178322196007,
            -0.460265576839447,
            -0.014007152058184147,
            -0.23274195194244385,
            -0.24210654199123383,
            -0.6042556762695312,
            -0.4302070736885071,
            -0.17664982378482819,
            0.34459805488586426,
            0.21926632523536682,
            0.07677890360355377,
            -0.03311619535088539,
            -0.2641037106513977,
            0.3297836184501648,
            0.37030449509620667,
            -0.21655215322971344,
            0.3861284852027893,
            0.33105894923210144,
            0.2109689712524414,
            -0.11530894041061401,
            0.13670189678668976,
            0.8374637365341187,
            0.010206480510532856,
            -0.4287447929382324,
            0.01715620420873165,
            0.42771875858306885,
            -0.22519144415855408,
            0.5251911878585815,
            0.40022221207618713,
            0.38663628697395325,
            -0.045760627835989,
            0.44278764724731445,
            -0.09720297902822495,
            -0.02567877806723118,
            0.6391424536705017,
            0.03538510575890541,
            0.2623439431190491,
            0.1887081116437912,
            -0.5351271629333496,
            0.39257317781448364,
            -0.33851200342178345,
            -0.4375555217266083,
            0.339974045753479,
            0.5661342740058899,
            0.15088695287704468,
            -0.3808547258377075,
            -0.3223375678062439,
            -0.29785439372062683,
            -0.8937666416168213,
            0.8565545082092285,
            0.20892253518104553,
            -0.5170793533325195,
            -0.2441452294588089,
            -0.4127810299396515,
            0.20832926034927368,
            0.03889268636703491,
            -0.06423568725585938,
            -0.8836284875869751,
            0.15566983819007874,
            0.3266070783138275,
            0.048818424344062805,
            0.014005875214934349,
            -0.351358026266098,
            0.2357913851737976,
            0.06108798459172249,
            0.47919127345085144,
            -0.031029190868139267,
            0.49974095821380615,
            0.28515398502349854,
            -0.3997456133365631,
            0.23143425583839417,
            -0.457712322473526,
            -0.010010873898863792,
            -0.47852760553359985,
            -0.06069758161902428,
            0.2898225784301758,
            -0.08601611107587814,
            0.32080191373825073,
            0.05052459239959717,
            -0.2775883972644806,
            -0.16365277767181396,
            -0.4530772566795349,
            -0.0819607824087143,
            -0.21753975749015808,
            -0.4445177912712097,
            0.7041297554969788,
            -0.2145201861858368,
            -0.33992430567741394,
            0.2933560311794281,
            0.20799735188484192,
            -0.0550079382956028,
            0.27768760919570923,
            -0.46812641620635986,
            0.01631333865225315,
            0.1985384225845337,
            -0.04646080359816551,
            -0.015488521195948124,
            -0.35039636492729187,
            -0.42694082856178284,
            -0.3777696192264557,
            -0.19768168032169342,
            0.4075368344783783,
            0.5243552327156067,
            -0.15789131820201874,
            0.18489164113998413,
            -0.3512679636478424,
            0.8260475397109985,
            -0.2817491292953491,
            -0.22690582275390625,
            -0.06459975987672806,
            0.2430146187543869,
            -0.6414256691932678,
            0.4147564768791199,
            0.037443097680807114,
            0.11809494346380234,
            0.3303586542606354,
            -0.0013945383252575994,
            -0.07606349140405655,
            0.5878764390945435,
            -0.2523438334465027,
            0.08338496088981628,
            0.28293222188949585,
            0.0728512778878212,
            1.001314640045166,
            -0.14012034237384796,
            -0.19460105895996094,
            -0.20169249176979065,
            -0.4110969305038452,
            -0.26271116733551025,
            0.5085621476173401,
            -0.37872546911239624,
            -0.0732748806476593,
            -0.2191229611635208,
            -0.23508894443511963,
            0.19967539608478546,
            -0.08059079200029373,
            -0.06464491039514542,
            -0.40150928497314453,
            0.6624274253845215,
            0.22305825352668762,
            0.18102604150772095,
            -0.2842995822429657,
            -0.24009472131729126,
            0.011241785250604153,
            0.27336108684539795,
            -0.023115867748856544,
            0.41287004947662354,
            0.8480814695358276,
            0.301852822303772,
            -0.07008390128612518,
            -0.13355277478694916,
            0.1341879814863205,
            -0.35938119888305664,
            -0.25925812125205994,
            0.5477433204650879,
            0.07731705158948898,
            -0.4789979159832001,
            0.08903492987155914,
            0.4620163142681122,
            0.4934321641921997,
            0.09237756580114365,
            0.40773138403892517,
            0.28626662492752075,
            0.16604343056678772,
            0.5476270318031311,
            0.0071799494326114655,
            -0.3829955756664276,
            -0.07047446072101593,
            0.34273335337638855,
            -0.7592157125473022,
            0.2265922576189041,
            0.20146608352661133,
            1.1724495887756348,
            0.10087905079126358,
            0.3460754454135895,
            0.35139480233192444,
            -0.31052666902542114,
            0.19533951580524445,
            0.09990587830543518,
            0.12904304265975952,
            0.7732523083686829,
            0.36709731817245483,
            -0.0891711413860321,
            -0.2168320268392563,
            -0.19818510115146637,
            -0.26572707295417786,
            0.4127988815307617,
            -0.21416142582893372,
            -0.1352919042110443,
            -0.5415593981742859,
            -0.22637921571731567,
            0.008811776526272297,
            -0.4434044659137726,
            -0.30770477652549744,
            0.12023904919624329,
            -0.14067429304122925,
            0.2044721394777298,
            -0.022885574027895927,
            0.2941432297229767,
            -0.33980828523635864,
            -0.3727596700191498,
            -0.481084406375885,
            -0.42196545004844666,
            0.24170342087745667,
            0.1394883543252945,
            0.5113455057144165,
            -0.6388715505599976,
            -0.7072638869285583,
            0.19680234789848328,
            0.14483946561813354,
            0.35973137617111206,
            -0.7964698076248169,
            0.20168018341064453,
            0.5131490230560303,
            -0.09970007836818695,
            0.550815224647522,
            0.12321891635656357,
            0.3612004220485687,
            -0.14655311405658722,
            -0.028090864419937134,
            0.006913989316672087,
            -0.26986879110336304,
            -0.5932396650314331,
            0.7223443388938904,
            0.4132002294063568,
            -0.04438644275069237,
            0.10751363635063171,
            -0.2946290373802185,
            0.15335004031658173,
            0.006701943464577198,
            -0.3271558880805969,
            0.13973908126354218,
            0.031089674681425095,
            0.06968234479427338,
            0.12208925932645798,
            0.2405894249677658,
            0.46651217341423035,
            -0.15542705357074738,
            0.05751081928610802,
            -0.17910704016685486,
            0.4461706578731537,
            0.1521075814962387,
            0.6606496572494507,
            -0.4132705628871918,
            -0.015559508465230465,
            0.5551181435585022,
            0.35061880946159363,
            0.5655397772789001,
            -0.47078737616539,
            0.5342931151390076,
            -0.14120548963546753,
            -0.3100275993347168,
            0.2022031992673874,
            -0.24245700240135193,
            0.47803980112075806,
            -0.05963670462369919,
            -0.5198051929473877,
            0.17305856943130493,
            -0.24817484617233276,
            -0.6431230306625366,
            -0.0005408105789683759,
            -0.520012617111206,
            -0.5216118097305298,
            0.022554941475391388,
            -0.21484273672103882,
            -0.41363322734832764,
            -0.1828746646642685,
            0.3760793209075928,
            -0.18247143924236298
        ],
        "bias": [
            0,
            0,
            0,
            0,
            0,
            0,
            0,
            0,
            0,
            0,
            0,
            0,
            0,
            0,
            0,
            0,
            0,
            0,
            0,
            0,
            0,
            0
        ]
    }
}