{
    "value": {
        "hidden_layer_size": 26,
        "hidden_layer_count": 2,
        "weights": [
            -0.21723903715610504,
            0.13372281193733215,
            0.5795192122459412,
            -0.1691974550485611,
            0.33163291215896606,
            -0.2903282344341278,
            0.3363180458545685,
            0.009315336123108864,
            -0.32455211877822876,
            -0.18914856016635895,
            0.21502242982387543,
            0.09720379114151001,
            -0.2769773602485657,
            0.3250133693218231,
            -0.6291834115982056,
            -0.11960718035697937,
            0.3132779598236084,
            0.08962233364582062,
            -0.747317910194397,
            0.17548377811908722,
            -0.00171424332074821,
            0.46618330478668213,
            0.36299124360084534,
            0.33174461126327515,
            0.06676557660102844,
            0.061508599668741226,
            -0.02269577421247959,
            -0.3114321529865265,
            -0.1446170061826706,
            -0.5863709449768066,
            -0.02066568285226822,
            0.13001281023025513,
            -0.005910215433686972,
            0.25856849551200867,
            -0.02723383717238903,
            0.11932594329118729,
            -0.15655501186847687,
            0.5885242223739624,
            0.5042889714241028,
            -0.28916141390800476,
            -0.46545928716659546,
            -0.19740283489227295,
            0.29540500044822693,
            0.3134266436100006,
            -0.09553666412830353,
            -0.0013076445320621133,
            -0.12106350809335709,
            0.4723328948020935,
            -0.34378448128700256,
            0.6942100524902344,
            -0.48471134901046753,
            0.622687578201294,
            0.18461143970489502,
            0.17757397890090942,
            -0.18376751244068146,
            -0.2702966034412384,
            -0.08294060081243515,
            0.13994558155536652,
            0.0029607433825731277,
            -0.621484637260437,
            0.03922862559556961,
            -0.07854966074228287,
            -0.12861020863056183,
            0.5569685101509094,
            -0.1830618977546692,
            0.19572825729846954,
            0.0015858113765716553,
            0.50074303150177,
            0.31601381301879883,
            -0.016345003619790077,
            0.22708171606063843,
            0.4877709150314331,
            0.15162506699562073,
            0.2638571262359619,
            0.09948363155126572,
            0.015719329938292503,
            0.27372193336486816,
            -0.04902888461947441,
            -0.05201905220746994,
            -0.050053518265485764,
            0.4542366862297058,
            -0.44423267245292664,
            -0.16809697449207306,
            0.2538706660270691,
            0.17330239713191986,
            0.0855993926525116,
            -0.06233493983745575,
            0.08746061474084854,
            -0.5861109495162964,
            0.3534909784793854,
            -0.20872433483600616,
            0.07505641132593155,
            0.2533336281776428,
            -0.09637497365474701,
            0.4101446866989136,
            0.19242151081562042,
            -0.807923436164856,
            0.6530643105506897,
            -0.28344693779945374,
            0.004534069914370775,
            -0.33071058988571167,
            0.385811984539032,
            -0.48086926341056824,
            -0.8783771395683289,
            -0.14705076813697815,
            0.2942099869251251,
            0.4634677767753601,
            -0.17346398532390594,
            0.24197793006896973,
            0.27578380703926086,
            0.08408703655004501,
            -0.3364209532737732,
            -0.33633434772491455,
            -0.050524383783340454,
            0.11959818005561829,
            0.46240124106407166,
            0.1084590032696724,
            0.030770564451813698,
            0.2606440484523773,
            0.16599005460739136,
            -0.8311752080917358,
            0.1961691677570343,
            -0.15354883670806885,
            -0.019047563895583153,
            -0.24245619773864746,
            0.10293897986412048,
            0.5024229884147644,
            -0.3952333331108093,
            -0.053951382637023926,
            0.09161162376403809,
            0.7736141681671143,
            0.13396887481212616,
            -0.5477089285850525,
            0.35116150975227356,
            0.2539881467819214,
            0.09145982563495636,
            0.10397511720657349,
            0.2136468142271042,
            0.22834338247776031,
            0.22328129410743713,
            0.034222472459077835,
            0.45302554965019226,
            -0.3141974210739136,
            0.4595339894294739,
            0.10137595981359482,
            0.4430823028087616,
            0.10913793742656708,
            -0.04177561774849892,
            -0.40255820751190186,
            0.7854859828948975,
            -0.17141927778720856,
            -0.11826776713132858,
            -0.027864376083016396,
            0.5588393211364746,
            0.3988196849822998,
            -0.42328113317489624,
            -0.036936286836862564,
            -0.17091681063175201,
            -0.11218081414699554,
            0.08467548340559006,
            0.4160290062427521,
            -0.007736746687442064,
            -0.5282242298126221,
            -0.28789791464805603,
            -0.06186957657337189,
            -0.060827504843473434,
            -0.2086956948041916,
            0.3749258816242218,
            0.044725291430950165,
            -0.020745526999235153,
            0.11677973717451096,
            0.10217811912298203,
            0.2415838986635208,
            0.13968448340892792,
            0.05772191658616066,
            0.5014069080352783,
            0.24294807016849518,
            0.10495863109827042,
            0.4985849857330322,
            -0.23717394471168518,
            0.1374470740556717,
            0.24382638931274414,
            0.06198551133275032,
            0.05206400528550148,
            0.24884088337421417,
            1.0802228450775146,
            -0.2038562297821045,
            -0.07160825282335281,
            0.17659874260425568,
            0.4100581407546997,
            -0.4985053241252899,
            -0.032837625592947006,
            0.060647137463092804,
            0.3441545367240906,
            -0.6051397323608398,
            0.01906578242778778,
            0.32065796852111816,
            0.10445144027471542,
            0.10566624253988266,
            -0.3391754627227783,
            0.6137071847915649,
            -0.21466030180454254,
            0.6154947876930237,
            0.5629253387451172,
            -0.0905998945236206,
            0.03989611938595772,
            0.02058245986700058,
            0.07663777470588684,
            0.19898217916488647,
            -0.3699405789375305,
            -0.2927217185497284,
            -0.03933611139655113,
            -0.3448665142059326,
            -0.2648598551750183,
            0.48426353931427,
            0.2864370048046112,
            -0.010644417256116867,
            0.22413957118988037,
            -0.3647504448890686,
            0.37211692333221436,
            0.15034769475460052,
            0.30764299631118774,
            -0.21915975213050842,
            -0.048896100372076035,
            0.09939517825841904,
            -0.29333096742630005,
            -0.02644784189760685,
            0.7348891496658325,
            -0.16520877182483673,
            0.317376047372818,
            0.24199767410755157,
            -0.20762020349502563,
            -1.0034970045089722,
            -0.4053307771682739,
            0.11682580411434174,
            -0.5836186408996582,
            0.6247167587280273,
            -0.27957457304000854,
            0.5789018869400024,
            -0.32544445991516113,
            0.19223257899284363,
            -0.06887400895357132,
            0.006626156624406576,
            -0.4018002152442932,
            -0.2703079581260681,
            -0.15836583077907562,
            0.04391352832317352,
            -0.7045823931694031,
            0.39344221353530884,
            0.4032602310180664,
            0.3703339397907257,
            0.06590134650468826,
            0.23290205001831055,
            -0.2428593635559082,
            0.26519569754600525,
            0.031588926911354065,
            0.5674031376838684,
            0.044940460473299026,
            0.08843090385198593,
            0.7183879613876343,
            0.23614655435085297,
            0.494653582572937,
            0.15354666113853455,
            0.06368198245763779,
            -0.28343114256858826,
            0.6679856181144714,
            -0.07343243062496185,
            0.11612969636917114,
            0.05409149453043938,
            0.5258196592330933,
            -0.39663103222846985,
            0.07662530988454819,
            -0.08082064241170883,
            0.08181815594434738,
            0.077646404504776,
            -0.24262313544750214,
            -0.10643631219863892,
            0.245284304022789,
            0.8495289087295532,
            -0.09758006036281586,
            0.15988245606422424,
            -0.430115282535553,
            0.7534533739089966,
            0.07713817059993744,
            0.4054220914840698,
            -0.12067008018493652,
            -0.059494469314813614,
            -0.04683200269937515,
            -0.761566162109375,
            -0.10065000504255295,
            -0.48269981145858765,
            -0.06505798548460007,
            -0.10986491292715073,
            0.2431885153055191,
            -0.3036790192127228,
            0.6422590613365173,
            -0.020591938868165016,
            -0.11742875725030899,
            -0.2809053063392639,
            -0.2736293077468872,
            -0.11545439809560776,
            0.2926650047302246,
            -0.6375455856323242,
            -0.1775369942188263,
            -0.7270136475563049,
            -0.16111740469932556,
            -0.12578944861888885,
            -0.12987244129180908,
            -0.0003970854450017214,
            -0.123165562748909,
            -0.2526383101940155,
            0.4124317169189453,
            -0.768907368183136,
            0.2138594090938568,
            -0.09188012778759003,
            -0.12472004443407059,
            -0.14708508551120758,
            0.16179119050502777,
            0.35273635387420654,
            0.2706151306629181,
            0.24012263119220734,
            -0.3575870096683502,
            -0.8265252113342285,
            0.5120830535888672,
            -0.43649527430534363,
            0.1391979455947876,
            0.06476037204265594,
            0.3045216500759125,
            -0.33309367299079895,
            0.5771464109420776,
            0.24546092748641968,
            0.40660592913627625,
            0.03226421773433685,
            -0.2778523862361908,
            -0.07908111810684204,
            -0.1363505870103836,
            0.11117371171712875,
            -0.5569600462913513,
            0.277836412191391,
            -0.3195469379425049,
            -0.03153260052204132,
            -0.06497849524021149,
            0.22752469778060913,
            0.5080437064170837,
            -0.1706094592809677,
            0.26466426253318787,
            0.3031200170516968,
            0.4889031946659088,
            -0.340940922498703,
            0.10200152546167374,
            -0.2765258252620697,
            -0.030720820650458336,
            -1.13028085231781,
            0.46418431401252747,
            -0.5297975540161133,
            -0.23227646946907043,
            -0.09572579711675644,
            0.30887871980667114,
            0.05077486112713814,
            0.3929225504398346,
            -0.01738802343606949,
            -0.7508147954940796,
            -0.3322434723377228,
            -0.46382850408554077,
            0.11398784816265106,
            -0.1625019907951355,
            0.15839795768260956,
            -0.5130655765533447,
            0.23320063948631287,
            0.31780919432640076,
            0.37342146039009094,
            -0.028933707624673843,
            0.07794072479009628,
            -0.0515393428504467,
            0.3741439878940582,
            -0.13671858608722687,
            -0.25610077381134033,
            -0.631729781627655,
            0.32734575867652893,
            0.39014944434165955,
            0.6077420115470886,
            -0.011405356228351593,
            0.07073052227497101,
            -0.2841602563858032,
            -0.3407328724861145,
            -0.5150195360183716,
            0.5107919573783875,
            -0.03155164793133736,
            0.3558993339538574,
            -0.3147641122341156,
            0.41889432072639465,
            -0.4574938416481018,
            0.1557985246181488,
            -0.05673222243785858,
            0.08735579252243042,
            0.4631217420101166,
            0.30398625135421753,
            -0.44539377093315125,
            0.2046254575252533,
            -0.061572372913360596,
            0.4717008173465729,
            0.13333074748516083,
            -0.5588470697402954,
            0.31687676906585693,
            0.4961363673210144,
            0.03876810520887375,
            0.2842921316623688,
            -0.16858690977096558,
            -0.45683878660202026,
            -0.3142690658569336,
            -0.6365211009979248,
            0.09015956521034241,
            -0.16474387049674988,
            -0.35326236486434937,
            -0.5834683775901794,
            -0.4207923114299774,
            0.16786624491214752,
            -0.3844923973083496,
            0.007662514224648476,
            0.2928203046321869,
            -0.00720385555177927,
            0.3436454236507416,
            0.11948354542255402,
            0.22418715059757233,
            -0.3857957124710083,
            0.28266990184783936,
            -0.31826722621917725,
            -0.011465715244412422,
            0.5352609753608704,
            0.4924434423446655,
            0.3159683644771576,
            0.4409993588924408,
            0.4179444909095764,
            0.11529961973428726,
            -0.16679565608501434,
            -0.1606953889131546,
            0.029798652976751328,
            0.16253085434436798,
            -0.35437148809432983,
            0.2742098271846771,
            0.08498428761959076,
            0.33293506503105164,
            -0.10702131688594818,
            -0.2731684148311615,
            -0.11783216148614883,
            -0.22761401534080505,
            -0.23235554993152618,
            -0.058021508157253265,
            0.25169703364372253,
            0.002805914031341672,
            0.4788067638874054,
            0.09279809147119522,
            0.3098224103450775,
            0.4370049834251404,
            -0.25568637251853943,
            -0.01486628595739603,
            -0.13012923300266266,
            -0.359904944896698,
            0.22077061235904694,
            0.08069809526205063,
            -0.4447578191757202,
            -0.27816182374954224,
            -0.2847760021686554,
            0.27094584703445435,
            -0.005161920562386513,
            -0.13014282286167145,
            0.3211047947406769,
            -0.2354246973991394,
            -0.19306343793869019,
            -0.18976278603076935,
            -0.3911841809749603,
            0.014216543175280094,
            -0.46658048033714294,
            0.2298281490802765,
            0.09436145424842834,
            -0.20585253834724426,
            -0.05683203414082527,
            0.1294786036014557,
            -0.00045173478429205716,
            0.03169109672307968,
            0.2293398529291153,
            -0.07931242883205414,
            0.3814384937286377,
            0.04880562424659729,
            0.0011866068234667182,
            0.11185724288225174,
            0.312591016292572,
            -0.2558118402957916,
            -0.06129535287618637,
            -0.0006743142730556428,
            0.16436150670051575,
            -0.03126541152596474,
            -0.2950502932071686,
            0.5347657799720764,
            -0.48041486740112305,
            0.07372332364320755,
            0.1155846044421196,
            0.1431671530008316,
            -0.1227625235915184,
            -0.40921685099601746,
            0.11322926729917526,
            -0.009140481241047382,
            0.12699289619922638,
            0.2655591666698456,
            -0.24817976355552673,
            0.20619405806064606,
            0.41798824071884155,
            0.038604386150836945,
            0.11345400661230087,
            0.15349611639976501,
            -0.07592882215976715,
            -0.3860175311565399,
            0.007635029498487711,
            -0.2444291114807129,
            0.04103213548660278,
            -0.05195485055446625,
            0.35396498441696167,
            -0.4575968086719513,
            -0.04873882606625557,
            -0.21538293361663818,
            0.19044433534145355,
            -0.09855595976114273,
            -0.17413552105426788,
            -0.2856980264186859,
            -0.3273298740386963,
            0.13990558683872223,
            0.36788052320480347,
            -0.05157068371772766,
            0.5047394633293152,
            0.0710582286119461,
            -0.34835827350616455,
            -0.12811268866062164,
            -0.05078663304448128,
            -0.18477372825145721,
            -0.09629862010478973,
            0.579971194267273,
            0.4417001008987427,
            0.15807609260082245,
            -0.49017980694770813,
            0.20841744542121887,
            -0.19054105877876282,
            -0.17468351125717163,
            -0.07894149422645569,
            0.1866656243801117,
            0.07661886513233185,
            0.14720562100410461,
            0.1499660313129425,
            0.46984514594078064,
            0.36213359236717224,
            -0.15492117404937744,
            -0.5274667143821716,
            0.02020701766014099,
            0.20322352647781372,
            0.5631241202354431,
            -0.3004586398601532,
            0.15123145282268524,
            0.5039476752281189,
            0.03034563548862934,
            -0.13749149441719055,
            -0.17623931169509888,
            0.2225632220506668,
            -0.33243870735168457,
            0.3734407424926758,
            -0.40337157249450684,
            0.6299852132797241,
            -0.19537721574306488,
            0.5371009111404419,
            0.5200728178024292,
            0.03453398123383522,
            -0.1824101060628891,
            0.01444284338504076,
            0.03851861134171486,
            -0.045836441218853,
            -0.07308392971754074,
            0.3140296936035156,
            0.0655650943517685,
            0.06997083872556686,
            0.08636492490768433,
            -0.12957027554512024,
            -0.019605278968811035,
            0.1848924309015274,
            0.10793066024780273,
            0.19886575639247894,
            0.2803342640399933,
            0.368053674697876,
            -0.3042928874492645,
            -0.0017882046522572637,
            -0.2583487629890442,
            0.21308480203151703,
            0.13571584224700928,
            -0.6755875945091248,
            0.397897332906723,
            -0.2058565616607666,
            0.22794288396835327,
            -0.3824302554130554,
            -0.2266453206539154,
            -0.21767477691173553,
            -0.24202154576778412,
            0.27954787015914917,
            -0.13965724408626556,
            -0.09830920398235321,
            0.14384083449840546,
            -0.048079703003168106,
            -0.17111192643642426,
            0.38611292839050293,
            0.20164304971694946,
            0.490629106760025,
            -0.04270375892519951,
            -0.2978949248790741,
            -0.05264684557914734,
            -0.38107427954673767,
            -0.08960960805416107,
            -0.18116596341133118,
            0.17836296558380127,
            0.7336427569389343,
            0.14684143662452698,
            0.10055386275053024,
            -0.14231985807418823,
            0.19265702366828918,
            0.2352830022573471,
            -0.20159344375133514,
            -0.3029543459415436,
            -0.10864067822694778,
            -0.671664297580719,
            0.24853818118572235,
            -0.40172624588012695,
            -0.05384049192070961,
            -0.375605046749115,
            0.14681817591190338,
            0.3223336935043335,
            -0.23503804206848145,
            0.2733566164970398,
            -0.21122309565544128,
            -0.2345336377620697,
            -0.13014471530914307,
            -0.21574696898460388,
            -0.1283934861421585,
            -0.05219913646578789,
            0.21685922145843506,
            -0.2635076642036438,
            0.08372937142848969,
            -0.5090060830116272,
            0.3722662031650543,
            0.7127005457878113,
            -0.3420104682445526,
            -0.3628878891468048,
            0.24576419591903687,
            0.19221273064613342,
            0.09899695217609406,
            0.050410766154527664,
            -0.11613108962774277,
            -0.3504997789859772,
            -0.00706565473228693,
            -0.1789470613002777,
            -0.3264304995536804,
            -0.35311612486839294,
            0.4152640402317047,
            0.040239833295345306,
            -0.4351958632469177,
            0.20722366869449615,
            0.3701763153076172,
            -0.08171311020851135,
            0.013699325732886791,
            0.5801202058792114,
            -0.04164082929491997,
            0.13977831602096558,
            -0.37676870822906494,
            0.37833940982818604,
            0.004042773507535458,
            0.14736290276050568,
            0.1293012946844101,
            -0.5209928750991821,
            -0.28814104199409485,
            -0.06528202444314957,
            0.08715800195932388,
            -0.30056703090667725,
            0.038370281457901,
            0.5488559603691101,
            0.1409926414489746,
            -0.22910138964653015,
            0.27114126086235046,
            -0.37765204906463623,
            0.30434104800224304,
            0.3092555105686188,
            -0.6791700124740601,
            0.09535933285951614,
            0.07741894572973251,
            0.5815224647521973,
            -0.06319411098957062,
            0.034552231431007385,
            -0.4148373603820801,
            -0.4769473671913147,
            0.2548409104347229,
            -0.12197346240282059,
            -0.16796240210533142,
            0.4156838059425354,
            0.09498155862092972,
            0.18766199052333832,
            -0.13418269157409668,
            0.5210244059562683,
            -0.6093609929084778,
            0.30127352476119995,
            -0.01936183124780655,
            -0.6123016476631165,
            -0.2104216367006302,
            -0.19055955111980438,
            -0.025285206735134125,
            -0.04815378412604332,
            -0.08095420897006989,
            -0.2878035306930542,
            0.3225225508213043,
            -0.6734991073608398,
            0.4231853485107422,
            0.4720708429813385,
            -0.4107440710067749,
            0.19429911673069,
            -0.3602915406227112,
            -0.28456592559814453,
            -0.2242250144481659,
            -0.23367470502853394,
            -0.0061291055753827095,
            0.3586468994617462,
            -0.20118676126003265,
            0.18428993225097656,
            -0.2450615018606186,
            -0.06075455993413925,
            0.2704845368862152,
            -0.23229669034481049,
            -0.3731082081794739,
            -0.41276100277900696,
            0.15490595996379852,
            0.015398649498820305,
            0.038472652435302734,
            0.20031052827835083,
            -0.3213922679424286,
            -0.45750927925109863,
            -0.4691821038722992,
            -0.20272117853164673,
            0.482605516910553,
            -0.061580006033182144,
            0.34184324741363525,
            0.24058711528778076,
            0.1677291840314865,
            0.01835625059902668,
            -0.25055304169654846,
            0.48309025168418884,
            0.1641528457403183,
            -0.09462479501962662,
            0.06172283738851547,
            -0.033673398196697235,
            0.08016099780797958,
            0.22978173196315765,
            0.12193340063095093,
            0.3812231719493866,
            -0.19602495431900024,
            0.11708706617355347,
            0.42246681451797485,
            0.8895291686058044,
            0.0777113139629364,
            -0.24098552763462067,
            -0.4774921238422394,
            0.386433482170105,
            -0.3644808530807495,
            0.025104109197854996,
            -0.4429629147052765,
            0.31124943494796753,
            0.012597641907632351,
            -0.16742849349975586,
            0.2487717866897583,
            -0.1255519986152649,
            0.2578065097332001,
            -0.09148532152175903,
            -0.1140146255493164,
            -0.021626587957143784,
            0.6807917356491089,
            -0.11485817283391953,
            -0.233683243393898,
            0.16868408024311066,
            0.13259358704090118,
            -0.009972675703465939,
            -0.3403787612915039,
            -0.0701364204287529,
            0.6575144529342651,
            0.12101685255765915,
            -0.16560077667236328,
            -0.1864175945520401,
            -0.2952689528465271,
            0.3061392307281494,
            0.40619468688964844,
            0.0984964668750763,
            0.4249812364578247,
            -0.31517294049263,
            0.09448730945587158,
            -0.014609603211283684,
            0.4682079255580902,
            0.13471657037734985,
            0.031093208119273186,
            -0.040792226791381836,
            0.1900925487279892,
            -0.31598910689353943,
            -0.059803057461977005,
            -0.6895473003387451,
            0.15541458129882812,
            -0.4184405505657196,
            -0.24694490432739258,
            0.35214999318122864,
            0.012527023442089558,
            -0.21088449656963348,
            0.16250114142894745,
            0.25824522972106934,
            0.4150601327419281,
            0.162567138671875,
            0.0014000962255522609,
            -0.2388404905796051,
            0.05459829419851303,
            0.061278387904167175,
            -0.2801629602909088,
            -0.4987311065196991,
            0.1059383675456047,
            0.22521372139453888,
            -0.07480570673942566,
            -0.03586677461862564,
            -0.09668978303670883,
            0.47084659337997437,
            -0.23405644297599792,
            -0.14481636881828308,
            0.18995754420757294,
            -0.4262855350971222,
            -0.3298494517803192,
            0.25234758853912354,
            0.17699603736400604,
            -0.44330987334251404,
            -0.436807781457901,
            0.22955292463302612,
            0.19707295298576355,
            0.1935809999704361,
            -0.1944350302219391,
            0.13700294494628906,
            0.10054691135883331,
            0.2609425187110901,
            -0.21593335270881653,
            -0.1333453506231308,
            -0.18487641215324402,
            0.388974130153656,
            0.344686895608902,
            0.19342853128910065,
            -0.41226595640182495,
            0.04856353998184204,
            0.41613829135894775,
            0.27173909544944763,
            -0.3500058948993683,
            0.5860010385513306,
            0.36367708444595337,
            0.011784754693508148,
            -0.1183929517865181,
            0.06738735735416412,
            -0.13808214664459229,
            -0.362407922744751,
            -0.1391904652118683,
            0.059849634766578674,
            0.28129497170448303,
            0.16889876127243042,
            -0.22971205413341522,
            -0.2246951460838318,
            -0.3780139088630676,
            -0.5035675168037415,
            -0.14422079920768738,
            0.12637870013713837,
            -0.06136748567223549,
            0.42520904541015625,
            -0.6783726811408997,
            0.5588770508766174,
            -0.1424054205417633,
            0.26671645045280457,
            0.28890788555145264,
            0.3368939757347107,
            0.19983966648578644,
            -0.4078620672225952,
            -0.007025502156466246,
            0.4277568757534027,
            -0.13842248916625977,
            -0.05442270264029503,
            0.1573062390089035,
            -0.5119912028312683,
            -0.1102897971868515,
            -0.5078043341636658,
            -0.30120769143104553,
            -0.32641473412513733,
            -0.23543137311935425,
            0.5687550902366638,
            -0.047083236277103424,
            -0.27490296959877014,
            -0.10498978942632675,
            -0.2960194945335388,
            0.2863940894603729,
            0.3847195506095886,
            -0.07174846529960632,
            -0.30831366777420044,
            -0.45402973890304565,
            0.30740639567375183,
            0.10911545157432556,
            -0.3407295346260071,
            0.08395636081695557,
            -0.4887928366661072,
            -0.011392447166144848,
            -0.3908316195011139,
            0.43299564719200134,
            0.2639966309070587,
            0.6538320183753967,
            -0.038471754640340805,
            -0.06744584441184998,
            0.08886414021253586,
            0.09171705693006516,
            0.14991454780101776,
            0.23616726696491241,
            0.2051222175359726,
            -0.09583668410778046,
            0.1348162740468979,
            0.320892333984375,
            -0.07465255260467529,
            -0.13775286078453064,
            0.28749942779541016,
            -0.294272243976593,
            -0.34413832426071167,
            -0.07700702548027039,
            0.22215917706489563,
            0.31298813223838806,
            -0.016412103548645973,
            0.24102264642715454,
            -0.49110734462738037,
            -0.1743103563785553,
            0.41870102286338806,
            -0.004931709263473749,
            0.09146744012832642,
            -0.13748587667942047,
            -0.22662664949893951,
            0.18322396278381348,
            0.48922842741012573,
            -0.44007453322410583,
            0.41257691383361816,
            0.09235194325447083,
            0.33897921442985535,
            0.019517840817570686,
            0.12923206388950348,
            0.057902779430150986,
            0.33415982127189636,
            0.6399751901626587,
            0.010602835565805435,
            0.1710267961025238,
            -0.35231998562812805,
            0.14392541348934174,
            -0.2637937664985657,
            0.00816049613058567,
            -0.22741107642650604,
            0.24250270426273346,
            -0.4203129708766937,
            -0.4397367238998413,
            -0.03311287611722946,
            0.014205515384674072,
            -0.08470748364925385,
            0.06389133632183075,
            -0.13906683027744293,
            0.10209933668375015,
            -0.2198859602212906,
            0.016515176743268967,
            0.10032499581575394,
            0.23131373524665833,
            0.1433601677417755,
            0.10862914472818375,
            0.4426349997520447,
            -0.19482974708080292,
            0.45241081714630127,
            0.03300643712282181,
            -0.13227711617946625,
            -0.724495530128479,
            0.5133457183837891,
            0.034524429589509964,
            -0.18237796425819397,
            -0.03413994610309601,
            -0.2936384677886963,
            -0.01555132120847702,
            -0.13315430283546448,
            -0.20830142498016357,
            0.3120654821395874,
            0.09424062818288803,
            -0.05561446398496628,
            -0.022236928343772888,
            -0.11646401882171631,
            -0.25563353300094604,
            0.09360530227422714,
            0.31164878606796265,
            0.14577415585517883,
            -0.14225128293037415,
            -0.04047709330916405,
            0.3037615418434143,
            0.184188574552536,
            -0.2823905348777771,
            -0.024333370849490166,
            -0.2582387924194336,
            0.3416863977909088,
            0.6011955738067627,
            -0.4485625624656677,
            0.1249421089887619,
            0.08723048120737076,
            -0.1274842917919159,
            -0.11842633038759232,
            0.18047615885734558,
            0.22496932744979858,
            0.36039814352989197,
            0.0811464712023735,
            -0.03582136705517769,
            -0.10607120394706726,
            -0.037274640053510666,
            -0.2703726589679718,
            0.2942246198654175,
            0.15163679420948029,
            0.5393897891044617,
            0.46109989285469055,
            0.2680003345012665,
            0.4385465383529663,
            0.06981338560581207,
            -0.2054234892129898,
            0.17114047706127167,
            -0.4071429967880249,
            0.021701116114854813,
            0.14239419996738434,
            -0.0199455413967371,
            0.008581146597862244,
            0.21525326371192932,
            -0.5054246187210083,
            -0.3118668794631958,
            -0.03901399299502373,
            -0.03788777068257332,
            -0.2959047257900238,
            -0.20467640459537506,
            -0.27275174856185913,
            0.2838894724845886,
            0.26498714089393616,
            -0.07554502040147781,
            0.2718816101551056,
            0.2455158531665802,
            -0.12348837405443192,
            0.07686643302440643,
            0.1631544530391693,
            0.21597880125045776,
            -0.11453907936811447,
            0.27334877848625183,
            -0.09651337563991547,
            0.18803265690803528,
            -0.05128780007362366,
            0.16217370331287384,
            -0.12572279572486877,
            0.14712578058242798,
            0.014321998693048954,
            -0.03778420388698578,
            -0.3193163573741913,
            0.03665238991379738,
            0.3146222233772278,
            0.18663246929645538,
            0.19944977760314941,
            -0.3320655822753906,
            -0.5311793088912964,
            0.4244799017906189,
            -0.24951878190040588,
            0.10144694894552231,
            0.20899219810962677,
            -0.11506668478250504,
            0.26103731989860535,
            0.11848431080579758,
            0.33198535442352295,
            0.09734944999217987,
            0.4593283534049988,
            0.20141442120075226,
            0.08007437735795975,
            0.14555427432060242,
            0.14754362404346466,
            0.304790735244751,
            -0.008644652552902699,
            -0.18560779094696045,
            -0.051366791129112244,
            0.010329422540962696,
            0.09090360254049301,
            0.5178769826889038,
            0.16013610363006592,
            0.25079360604286194,
            0.02873620204627514,
            0.26010599732398987,
            0.0830533504486084,
            0.13073061406612396,
            0.04879915341734886,
            -0.13708838820457458,
            -0.4608250856399536,
            -0.17579859495162964,
            0.19029700756072998,
            -0.47124966979026794,
            -0.13218055665493011,
            -0.07256250083446503,
            0.050060708075761795,
            -0.3643360435962677,
            0.21789830923080444,
            -0.10645340383052826,
            -0.7375893592834473,
            -0.46152371168136597,
            0.08750016987323761,
            -0.07235358655452728,
            -0.497700035572052,
            0.10071222484111786,
            -0.07650639116764069,
            0.13743895292282104,
            0.35181400179862976,
            0.08126748353242874,
            -0.01720360480248928,
            0.20279112458229065,
            0.739417552947998,
            -0.01855352520942688,
            -0.059193871915340424,
            -0.22117877006530762,
            0.2929137945175171
        ],
        "bias": [
            0,
            0,
            0,
            0,
            0,
            0,
            0,
            0,
            0,
            0,
            0,
            0,
            0,
            0,
            0,
            0,
            0,
            0,
            0,
            0,
            0,
            0,
            0,
            0,
            0,
            0,
            0,
            0,
            0,
            0,
            0,
            0,
            0,
            0,
            0,
            0,
            0,
            0,
            0,
            0,
            0,
            0,
            0,
            0,
            0,
            0,
            0,
            0,
            0,
            0,
            0,
            0,
            0
        ]
    },
    "policy": {
        "hidden_layer_size": 26,
        "hidden_layer_count": 2,
        "weights": [
            0.47599342465400696,
            0.03407161310315132,
            -0.1997489184141159,
            0.49576619267463684,
            -0.7305940985679626,
            0.4580639898777008,
            0.19209417700767517,
            0.31880053877830505,
            0.46564555168151855,
            0.4209152162075043,
            0.36000463366508484,
            -0.05701799318194389,
            0.35169151425361633,
            -0.4540407359600067,
            -0.20042303204536438,
            -0.13552020490169525,
            0.40704992413520813,
            0.6315924525260925,
            -0.2380644828081131,
            0.1540120542049408,
            -0.32537928223609924,
            -0.08400900661945343,
            0.0956076830625534,
            -0.35155460238456726,
            -0.4560595452785492,
            -0.15482501685619354,
            -0.018622420728206635,
            -0.010669441893696785,
            0.22236290574073792,
            -0.4003606140613556,
            -0.1722414791584015,
            0.647855818271637,
            0.05909532308578491,
            0.11682269722223282,
            0.3640735447406769,
            0.44830241799354553,
            0.14974604547023773,
            0.6122555136680603,
            -0.11611504852771759,
            0.04276669770479202,
            -0.2576937675476074,
            -0.9469847679138184,
            -0.24104396998882294,
            -0.6111603379249573,
            -0.21021808683872223,
            0.2771373987197876,
            -0.25209033489227295,
            0.008747353218495846,
            0.6172036528587341,
            -0.39568787813186646,
            0.14945106208324432,
            -0.44957220554351807,
            -0.09382185339927673,
            -0.11645776033401489,
            0.09705662727355957,
            -0.28159159421920776,
            0.4143363833427429,
            -0.3155156373977661,
            0.3144059181213379,
            0.433147668838501,
            -0.3326015770435333,
            -0.0015606788219884038,
            0.6796367764472961,
            0.16256636381149292,
            -0.43548113107681274,
            -0.10574834048748016,
            -0.4089537262916565,
            0.008468431420624256,
            0.22514857351779938,
            -0.6182044148445129,
            0.6586155295372009,
            0.39048874378204346,
            -0.6509208679199219,
            0.5420438051223755,
            -0.2953185737133026,
            0.5222189426422119,
            0.1032610535621643,
            0.7312525510787964,
            -0.04762568697333336,
            0.13008327782154083,
            0.03610275313258171,
            -0.00424212496727705,
            -0.13288474082946777,
            -0.2303905338048935,
            0.36804699897766113,
            0.28432798385620117,
            -0.045871585607528687,
            -0.4112933874130249,
            -0.47597846388816833,
            0.09339191764593124,
            -0.5835005044937134,
            0.07085010409355164,
            -0.2640753984451294,
            0.31929656863212585,
            -0.10383155941963196,
            -0.39669549465179443,
            -0.4744308888912201,
            -0.16734161972999573,
            -0.28753477334976196,
            -0.27141985297203064,
            0.3888205885887146,
            -0.18899516761302948,
            0.4210470914840698,
            0.16831068694591522,
            0.01472067553550005,
            -0.49619442224502563,
            0.08402560651302338,
            -0.34544187784194946,
            0.115753173828125,
            -0.3315971791744232,
            -0.053531039506196976,
            -0.23605792224407196,
            0.08337932825088501,
            -0.13555105030536652,
            0.3988772928714752,
            0.01748957671225071,
            -0.10541325807571411,
            0.4916766881942749,
            -0.49192288517951965,
            -0.4174150824546814,
            -0.39207932353019714,
            0.28623396158218384,
            0.15798765420913696,
            0.6273158192634583,
            -0.7588342428207397,
            0.18629054725170135,
            -0.2595135271549225,
            1.0847406387329102,
            -0.22807744145393372,
            0.42750313878059387,
            0.6927069425582886,
            0.16641566157341003,
            -0.01254265010356903,
            -0.2603178918361664,
            -0.2647048830986023,
            -0.5310178995132446,
            0.26652196049690247,
            0.2532051205635071,
            0.28710803389549255,
            0.20475870370864868,
            -0.1808638870716095,
            -0.12852485477924347,
            -0.7676820755004883,
            -0.15907710790634155,
            0.11036114394664764,
            -0.2722729742527008,
            0.5319263935089111,
            0.05151515454053879,
            -0.29902148246765137,
            0.24028785526752472,
            -0.5108485221862793,
            -0.20684267580509186,
            0.49916499853134155,
            -0.21443024277687073,
            -0.06471706926822662,
            -0.23637446761131287,
            -0.15381433069705963,
            0.024475134909152985,
            0.39008137583732605,
            -0.531672477722168,
            0.40855371952056885,
            -0.049525339156389236,
            0.2856208086013794,
            0.08240139484405518,
            0.03279339522123337,
            0.8394626379013062,
            0.7155914306640625,
            0.12032267451286316,
            -0.41475728154182434,
            0.027356060221791267,
            0.2180257886648178,
            -0.5425339341163635,
            0.7826570868492126,
            -0.01914655603468418,
            -0.1454908698797226,
            -0.8391999006271362,
            -0.047274231910705566,
            -0.07217556238174438,
            0.24567659199237823,
            -0.16906818747520447,
            -0.3794420063495636,
            -0.2186802476644516,
            -0.4084116518497467,
            -0.17431552708148956,
            0.2778433859348297,
            -0.026274308562278748,
            0.23899734020233154,
            -0.6542087197303772,
            0.21178404986858368,
            -0.5140193104743958,
            -0.018139120191335678,
            0.11759642511606216,
            -0.39194124937057495,
            0.01304171234369278,
            -0.24268728494644165,
            -0.3068622350692749,
            0.2108445167541504,
            -0.046216752380132675,
            0.41450363397598267,
            0.30796894431114197,
            0.9323843121528625,
            -0.15187840163707733,
            0.00007044436642900109,
            0.37489646673202515,
            0.19500169157981873,
            -0.008822662755846977,
            -0.1525968760251999,
            -0.21991810202598572,
            -0.23685689270496368,
            0.21701468527317047,
            -0.09218719601631165,
            0.8488620519638062,
            -0.29518336057662964,
            0.6327615976333618,
            0.914391040802002,
            0.07858700305223465,
            0.042237538844347,
            0.37963250279426575,
            0.3212508261203766,
            0.016907639801502228,
            -0.5027999877929688,
            -0.20742210745811462,
            0.07108686864376068,
            0.4799988269805908,
            0.1785420924425125,
            0.33741921186447144,
            -0.2865404784679413,
            0.11949820816516876,
            -0.35639193654060364,
            -0.3973134458065033,
            -0.1572672575712204,
            -0.0717858299612999,
            -0.5738571882247925,
            0.051739707589149475,
            0.042033206671476364,
            0.5682291388511658,
            -0.8956085443496704,
            0.3395109176635742,
            0.29244235157966614,
            -0.5966053605079651,
            -0.5187588930130005,
            -0.48628944158554077,
            -0.4746144413948059,
            -0.5128498673439026,
            -0.35971370339393616,
            0.4619491696357727,
            -0.6007888317108154,
            -0.0007835214491933584,
            0.1932477205991745,
            0.48151645064353943,
            0.09517018496990204,
            -0.7719120383262634,
            -0.6641935706138611,
            0.5120165944099426,
            -0.020337313413619995,
            0.017896760255098343,
            -0.23324128985404968,
            0.03684230521321297,
            0.024212874472141266,
            -0.0687970295548439,
            -0.2531419098377228,
            -0.32829755544662476,
            0.36105871200561523,
            -0.15924227237701416,
            0.1255044788122177,
            0.36510491371154785,
            0.09592904895544052,
            0.15491464734077454,
            0.03284647688269615,
            -0.3707306385040283,
            -0.10137224942445755,
            0.0994519367814064,
            0.37908822298049927,
            0.06061474233865738,
            0.08797835558652878,
            -0.010948563925921917,
            0.247487410902977,
            -0.8335143327713013,
            -0.5808972120285034,
            -0.30755409598350525,
            -0.024987604469060898,
            -0.19779780507087708,
            -0.2730676233768463,
            -0.2669406831264496,
            0.288284569978714,
            0.31288185715675354,
            0.5825155377388,
            0.026259003207087517,
            -0.24385586380958557,
            -0.29137495160102844,
            0.4007438123226166,
            -0.2651411294937134,
            -0.24891258776187897,
            -0.10506880283355713,
            -0.20298779010772705,
            0.08598457276821136,
            0.13714130222797394,
            -0.3188864290714264,
            0.10851099342107773,
            0.48235318064689636,
            0.43560394644737244,
            -0.004021105822175741,
            -0.05105771869421005,
            -0.07648080587387085,
            0.19554173946380615,
            -0.34727469086647034,
            0.008229810744524002,
            0.11225942522287369,
            0.3656173348426819,
            -0.31692421436309814,
            -0.17503245174884796,
            0.09312523901462555,
            -0.09911657124757767,
            0.004126945044845343,
            0.0685921236872673,
            -0.42242512106895447,
            0.773491621017456,
            0.4469769597053528,
            0.11810262501239777,
            0.23354272544384003,
            0.03242088109254837,
            -0.26187369227409363,
            0.12218151241540909,
            0.30531638860702515,
            -0.24089093506336212,
            -0.44414764642715454,
            0.06340661644935608,
            -0.4753703773021698,
            0.09074284136295319,
            0.3336431384086609,
            -0.054803989827632904,
            -0.32935959100723267,
            0.4532948136329651,
            0.16519755125045776,
            0.0586593933403492,
            0.08447633683681488,
            -0.1454509198665619,
            -0.08062165230512619,
            0.24167604744434357,
            0.06250611692667007,
            0.22660088539123535,
            -0.17961850762367249,
            -0.7808865308761597,
            0.6282427906990051,
            -0.5357399582862854,
            0.24316175282001495,
            -0.27890127897262573,
            -0.0012237005867064,
            0.027000514790415764,
            0.16786642372608185,
            0.17052648961544037,
            0.23772674798965454,
            0.09654589742422104,
            -0.04777911677956581,
            -0.075345478951931,
            -0.040003955364227295,
            0.361148864030838,
            0.47718849778175354,
            0.03731920197606087,
            0.12491592019796371,
            0.22943955659866333,
            0.4067314565181732,
            -0.37582242488861084,
            0.04332403838634491,
            -0.1763511747121811,
            0.24337738752365112,
            -0.4244614243507385,
            0.12469401955604553,
            0.2515738010406494,
            0.3410964608192444,
            -0.26450860500335693,
            -0.1635356843471527,
            -0.007826484739780426,
            -0.3443952798843384,
            0.09951919317245483,
            -0.08920523524284363,
            -0.1034834012389183,
            -0.3968120217323303,
            -0.27691173553466797,
            0.11772298067808151,
            -0.6092434525489807,
            0.1928880661725998,
            0.6990211009979248,
            0.1617223471403122,
            0.1914142519235611,
            -0.456734299659729,
            0.22608023881912231,
            0.10233975201845169,
            -0.45122772455215454,
            0.232089564204216,
            -0.6681951880455017,
            0.041300248354673386,
            -0.09036824852228165,
            -0.4084406793117523,
            0.1366487294435501,
            0.21382254362106323,
            0.4008687734603882,
            -0.2419959455728531,
            0.04023359343409538,
            0.3300640285015106,
            -0.046059176325798035,
            -0.5052816867828369,
            0.37191760540008545,
            0.03463933989405632,
            0.8156301975250244,
            -0.18413414061069489,
            0.5675166845321655,
            0.213143989443779,
            -0.5569770336151123,
            0.5086677670478821,
            0.12703728675842285,
            0.15607944130897522,
            0.44290128350257874,
            0.0005496424273587763,
            -0.08887135982513428,
            -0.2287118136882782,
            -0.10788372159004211,
            -0.08122775703668594,
            -0.74944007396698,
            0.38393014669418335,
            -0.2297487109899521,
            0.27987363934516907,
            -0.42409271001815796,
            -0.19285917282104492,
            -0.009262415580451488,
            0.04479262977838516,
            -0.35549837350845337,
            -0.24513879418373108,
            -0.38074612617492676,
            0.3396064043045044,
            -0.38742589950561523,
            0.25566914677619934,
            0.03765672445297241,
            0.3175072968006134,
            0.22464576363563538,
            -0.5101773142814636,
            0.2976525127887726,
            0.07895157486200333,
            -0.07548871636390686,
            0.07124564051628113,
            0.2684559226036072,
            0.23112227022647858,
            0.43243497610092163,
            -0.181902214884758,
            0.3378596603870392,
            0.15368366241455078,
            0.13738682866096497,
            -0.42051050066947937,
            0.005926896817982197,
            -0.34200623631477356,
            0.3539115786552429,
            0.3495315909385681,
            0.20761539041996002,
            0.27628132700920105,
            0.02853684313595295,
            -0.14947152137756348,
            0.08472512662410736,
            -0.02582244761288166,
            0.1562570482492447,
            -0.11626692116260529,
            -0.1682414561510086,
            0.48247846961021423,
            -0.22729018330574036,
            0.6634364128112793,
            0.14280322194099426,
            -0.2368846833705902,
            0.3630981743335724,
            0.3984575867652893,
            -0.1682312786579132,
            -0.055784985423088074,
            -0.09754746407270432,
            -0.14036840200424194,
            0.3534533381462097,
            -0.11247465759515762,
            -0.4101971387863159,
            -0.29201260209083557,
            0.13020490109920502,
            -0.35581499338150024,
            0.076272152364254,
            -0.16372394561767578,
            0.48166728019714355,
            0.26783105731010437,
            -0.2657523453235626,
            0.37818968296051025,
            0.16690053045749664,
            -0.06979800760746002,
            0.37440410256385803,
            0.06350000947713852,
            -0.3099258840084076,
            0.4121216833591461,
            -0.17741204798221588,
            0.25758227705955505,
            -0.6543025374412537,
            -0.3352738916873932,
            0.380493700504303,
            0.05005832388997078,
            0.5081441402435303,
            0.14081445336341858,
            0.06561532616615295,
            -0.34775638580322266,
            0.2053157240152359,
            -0.029618706554174423,
            0.2031959444284439,
            0.17749547958374023,
            0.3079058825969696,
            0.3684288561344147,
            0.020984282717108727,
            -0.026417238637804985,
            0.2097538411617279,
            -0.2285139560699463,
            -0.05717376619577408,
            0.07663276046514511,
            -0.3729472756385803,
            0.05878136679530144,
            0.16804005205631256,
            0.06815949082374573,
            -0.3890248239040375,
            0.49308544397354126,
            0.025318600237369537,
            -0.06735511869192123,
            -0.04265693202614784,
            -0.13200122117996216,
            -0.1602034717798233,
            0.011431626975536346,
            0.022998861968517303,
            -0.021210119128227234,
            -0.12162082642316818,
            -0.1899814009666443,
            -0.05099644884467125,
            0.07814882695674896,
            -0.5615211725234985,
            -0.2203817218542099,
            -0.25916051864624023,
            0.3051762580871582,
            0.07513707131147385,
            -0.45613718032836914,
            -0.26288002729415894,
            -0.22687312960624695,
            0.015299852937459946,
            0.06530391424894333,
            0.10759884119033813,
            -0.13031846284866333,
            0.16928447782993317,
            -0.40175119042396545,
            0.3965403139591217,
            -0.10866716504096985,
            0.26463061571121216,
            -0.11381874978542328,
            -0.2166614681482315,
            0.33817732334136963,
            0.23635941743850708,
            0.25226855278015137,
            -0.09608989953994751,
            -0.25428059697151184,
            0.08521732687950134,
            0.46921297907829285,
            0.27640649676322937,
            0.17925319075584412,
            0.5975072979927063,
            0.4889274835586548,
            -0.17405308783054352,
            -0.0786532536149025,
            0.17994852364063263,
            -0.2424817681312561,
            -0.21434782445430756,
            -0.27483585476875305,
            0.18317203223705292,
            0.3411004841327667,
            -0.452489972114563,
            0.12946826219558716,
            0.07241442054510117,
            -0.1991172879934311,
            0.23332031071186066,
            -0.03642088174819946,
            -0.26514679193496704,
            -0.10105297714471817,
            -0.292100191116333,
            -0.3183780610561371,
            0.2671509385108948,
            0.31065455079078674,
            0.07427364587783813,
            -0.2735898494720459,
            0.48846951127052307,
            -0.08241190016269684,
            0.2503054738044739,
            -0.11719870567321777,
            -0.16775323450565338,
            -0.20636610686779022,
            -0.6646102070808411,
            0.6044753789901733,
            0.0653337836265564,
            0.06393692642450333,
            0.5155940651893616,
            -0.18992578983306885,
            0.11545057594776154,
            0.3248414695262909,
            0.18715889751911163,
            0.20679204165935516,
            -0.0037673786282539368,
            0.28741365671157837,
            0.8815588355064392,
            0.06827999651432037,
            -0.12367622554302216,
            -0.10849618911743164,
            -0.47814780473709106,
            0.21003271639347076,
            -0.20670853555202484,
            0.1895478516817093,
            -0.1446642428636551,
            0.2155362069606781,
            0.456142783164978,
            0.21549077332019806,
            -0.4344184398651123,
            0.5631632804870605,
            0.761925458908081,
            -0.17188218235969543,
            -0.034838199615478516,
            0.1506689488887787,
            -0.10943108052015305,
            0.2660788893699646,
            0.18588121235370636,
            0.27326318621635437,
            -0.0004320399893913418,
            -0.34512338042259216,
            -0.8843639492988586,
            0.17954744398593903,
            0.1070556789636612,
            -0.6342650651931763,
            -0.05878697335720062,
            0.196773961186409,
            -0.43015143275260925,
            0.08010636270046234,
            -0.06114279851317406,
            0.3379485309123993,
            0.009286713786423206,
            0.44926917552948,
            0.2514198124408722,
            -0.25977060198783875,
            0.5945109128952026,
            0.014258545823395252,
            -0.2595038115978241,
            0.0585080124437809,
            -0.41355758905410767,
            -0.03118792362511158,
            -0.14057154953479767,
            0.13701131939888,
            0.01973501406610012,
            0.04495099186897278,
            0.12287195026874542,
            0.12311841547489166,
            0.4303798973560333,
            -0.25054192543029785,
            -0.3460533916950226,
            0.17852351069450378,
            -0.28849682211875916,
            0.5489186644554138,
            -0.11574672907590866,
            -0.3490396738052368,
            0.29602572321891785,
            0.10519501566886902,
            -0.14269761741161346,
            -0.18080615997314453,
            0.0020048206206411123,
            -0.15112963318824768,
            -0.24663005769252777,
            -0.3055427670478821,
            0.07361190766096115,
            -0.5539794564247131,
            0.03742848336696625,
            0.02713717520236969,
            0.30481478571891785,
            -0.186509907245636,
            -0.13363401591777802,
            -0.3340248167514801,
            0.0085845235735178,
            0.09535283595323563,
            0.5106147527694702,
            -0.21660372614860535,
            -0.33388805389404297,
            0.21853497624397278,
            -0.027892213314771652,
            0.0570160374045372,
            0.1414862722158432,
            -0.5094345808029175,
            0.08169839531183243,
            0.3391597270965576,
            -0.3272525370121002,
            -0.22600068151950836,
            -0.5092398524284363,
            -0.3704386353492737,
            -0.26834407448768616,
            -0.31012895703315735,
            0.4526232182979584,
            -0.27773264050483704,
            0.21663826704025269,
            -0.006688782013952732,
            -0.21117998659610748,
            -0.24595139920711517,
            0.04292256385087967,
            0.12657134234905243,
            -0.549385666847229,
            0.33500540256500244,
            0.5573901534080505,
            0.42490488290786743,
            -0.1425599604845047,
            -0.4240737557411194,
            -0.0023566039744764566,
            0.029814600944519043,
            -0.05075174197554588,
            -0.11401668190956116,
            0.1353563815355301,
            0.31281009316444397,
            -0.4789137542247772,
            -0.3591865301132202,
            0.12198617309331894,
            -0.3237672746181488,
            0.10593897849321365,
            0.5879858136177063,
            -0.16476166248321533,
            -0.054402925074100494,
            -0.2018452137708664,
            0.35570478439331055,
            -0.1624288707971573,
            -0.228176549077034,
            0.8065770268440247,
            -0.3196273148059845,
            0.063780777156353,
            0.29332271218299866,
            -0.18719863891601562,
            0.5804538130760193,
            0.294474720954895,
            -0.04489169642329216,
            -0.42013978958129883,
            -0.004300382453948259,
            0.15669269859790802,
            0.2013375461101532,
            0.17117570340633392,
            0.2741638720035553,
            0.02501429058611393,
            -0.009718155488371849,
            0.03145521134138107,
            -0.48809051513671875,
            0.06568368524312973,
            0.3242972791194916,
            -0.19082027673721313,
            0.45710450410842896,
            -0.2657959461212158,
            -0.1317775547504425,
            0.4218696057796478,
            0.26529738306999207,
            0.35796597599983215,
            0.06543616950511932,
            -0.08272066712379456,
            0.17807485163211823,
            -0.05085208639502525,
            -0.4476456046104431,
            0.3183087408542633,
            -0.026666855439543724,
            -0.2195482701063156,
            -0.30081525444984436,
            -0.26778432726860046,
            -0.04072442278265953,
            -0.2562819719314575,
            0.3537524938583374,
            0.08057351410388947,
            -0.05108587071299553,
            0.46388140320777893,
            -0.0015933681279420853,
            -0.2690771818161011,
            -0.07774440944194794,
            0.5464665293693542,
            0.07739199697971344,
            0.34200623631477356,
            0.14784638583660126,
            0.09004883468151093,
            0.13164113461971283,
            0.1866215318441391,
            -0.18008151650428772,
            -0.25893107056617737,
            -0.10521779209375381,
            -0.14350594580173492,
            -0.1452370584011078,
            0.46130773425102234,
            0.019645653665065765,
            -0.49864327907562256,
            0.11332663148641586,
            -0.14417515695095062,
            -0.2720569372177124,
            -0.09519375115633011,
            -0.07216214388608932,
            -0.10263848304748535,
            -0.39511215686798096,
            -0.3112015426158905,
            0.212472602725029,
            -0.27814769744873047,
            -0.22019776701927185,
            0.1413799375295639,
            -0.17363782227039337,
            0.2580115795135498,
            -0.667082667350769,
            -0.15114876627922058,
            -0.18386304378509521,
            -0.12508399784564972,
            -0.04259428009390831,
            0.31707242131233215,
            0.30216559767723083,
            0.06484080106019974,
            0.09604624658823013,
            0.05588497221469879,
            0.17649391293525696,
            0.27634677290916443,
            -0.2741902470588684,
            -0.7481497526168823,
            0.43373903632164,
            -0.25612786412239075,
            -0.004492290783673525,
            0.019099781289696693,
            -0.3235264718532562,
            0.05519768223166466,
            -0.23490333557128906,
            -0.03127005696296692,
            -0.04955698922276497,
            0.19199463725090027,
            -0.11637374013662338,
            0.21403731405735016,
            0.41634830832481384,
            -0.23805168271064758,
            -0.44980353116989136,
            -0.31366634368896484,
            -0.07030414044857025,
            -0.1370512843132019,
            -0.29934510588645935,
            0.3273559808731079,
            -0.2419322431087494,
            0.10594063997268677,
            -0.09039301425218582,
            0.2153715193271637,
            0.04093379154801369,
            0.019498314708471298,
            0.4389062821865082,
            0.12182899564504623,
            0.287123441696167,
            0.13026519119739532,
            0.01976894587278366,
            0.0829838216304779,
            0.030590375885367393,
            -0.04441843926906586,
            -0.053451426327228546,
            -0.3066200613975525,
            0.2273142784833908,
            -0.10580240935087204,
            0.11061515659093857,
            0.44643136858940125,
            0.03802783414721489,
            0.38945555686950684,
            -0.09508020430803299,
            0.06000502035021782,
            0.08578246086835861,
            -0.11273305863142014,
            0.020215317606925964,
            0.1400769054889679,
            0.19532793760299683,
            0.2624933123588562,
            -0.027693871408700943,
            0.4900265336036682,
            -0.0934668779373169,
            -0.006148213986307383,
            -0.37505337595939636,
            -0.2220822423696518,
            0.05141105502843857,
            -0.2956399619579315,
            -0.21976937353610992,
            -0.11567636579275131,
            0.2730916738510132,
            -0.05916508659720421,
            -0.25634509325027466,
            0.1656370759010315,
            0.3176797926425934,
            0.15310245752334595,
            -0.48432406783103943,
            0.023450471460819244,
            -0.0302534569054842,
            -0.10776916891336441,
            0.12967699766159058,
            -0.05255479738116264,
            -0.03706108033657074,
            -0.0831461101770401,
            0.6666080951690674,
            -0.4832881987094879,
            -0.10725155472755432,
            -0.08190365880727768,
            0.3346264362335205,
            -0.21652284264564514,
            0.12375862151384354,
            0.026276901364326477,
            0.3154941499233246,
            0.0839623510837555,
            -0.19030886888504028,
            -0.6328051686286926,
            -0.4322566092014313,
            0.17000876367092133,
            0.23573720455169678,
            -0.21857388317584991,
            -0.031447675079107285,
            -0.29287150502204895,
            0.03082115389406681,
            0.080668143928051,
            0.4176018536090851,
            -0.07694104313850403,
            -0.17233306169509888,
            0.051489125937223434,
            -0.06628043949604034,
            -0.0713801458477974,
            -0.6670655012130737,
            -0.1615482121706009,
            -0.13690952956676483,
            -0.1653503030538559,
            -0.4633086323738098,
            -0.23102723062038422,
            -0.05002736672759056,
            0.5704935789108276,
            0.13736943900585175,
            -0.03879827260971069,
            -0.13628540933132172,
            -0.011947260238230228,
            -0.3802144229412079,
            -0.3003479838371277,
            0.3081871569156647,
            0.02201327122747898,
            -0.05098193511366844,
            0.21428310871124268,
            0.11296126246452332,
            -0.0853656455874443,
            0.12457632273435593,
            -0.4541120231151581,
            -0.11306913942098618,
            0.39218243956565857,
            0.11209739744663239,
            0.3841034770011902,
            -0.2994022071361542,
            -0.2822774350643158,
            0.14598162472248077,
            0.3254716098308563,
            -0.04705486446619034,
            0.2923527956008911,
            -0.4478290379047394,
            -0.17873424291610718,
            0.042274992913007736,
            0.16474366188049316,
            -0.5018110275268555,
            0.017964281141757965,
            -0.35078534483909607,
            0.3560827970504761,
            -0.23185010254383087,
            -0.06439835578203201,
            -0.5764854550361633,
            0.18286849558353424,
            -0.06500899791717529,
            0.06110871210694313,
            0.23902352154254913,
            0.01139179989695549,
            -0.09223602712154388,
            -0.10451442748308182,
            -0.001505402848124504,
            0.37828126549720764,
            0.47246626019477844,
            -0.04754624515771866,
            0.04824116453528404,
            -0.4680400788784027,
            -0.1838732212781906,
            0.2589573264122009,
            0.19773243367671967,
            0.6148613691329956,
            -0.32002386450767517,
            -0.1767389327287674,
            -0.22501370310783386,
            -0.07259147614240646,
            -0.3049315810203552,
            0.1120188757777214,
            -0.15199457108974457,
            -0.254189133644104,
            0.1641620397567749,
            0.3087141811847687,
            -0.02516775019466877,
            -0.2112240344285965,
            0.40289247035980225,
            0.2940046787261963,
            -0.018972070887684822,
            -0.015903454273939133,
            -0.1439199000597,
            0.019641172140836716,
            0.09974994510412216,
            0.03365149721503258,
            -0.24625152349472046,
            -0.21999773383140564,
            -0.10553102940320969,
            0.19390101730823517,
            -0.43615928292274475,
            -0.02008858323097229,
            0.15877729654312134,
            -0.23322896659374237,
            -0.042499057948589325,
            -0.14548416435718536,
            -0.23246264457702637,
            0.06284133344888687,
            -0.2027800977230072,
            -0.1513032615184784,
            -0.31283506751060486,
            0.3319692015647888,
            -0.3049253523349762,
            -0.34304919838905334,
            0.2728830575942993,
            -0.0038104846607893705,
            -0.06983053684234619,
            0.6090522408485413,
            0.34170055389404297,
            0.05833802744746208,
            0.02513684332370758,
            0.19937889277935028,
            -0.6658570170402527,
            -0.133240208029747,
            0.15285518765449524,
            0.17207518219947815,
            0.014143931679427624,
            0.6581826210021973,
            -0.009143302217125893,
            0.6560291051864624,
            -0.00807273667305708,
            0.021981272846460342,
            0.5271448493003845,
            -0.5190674662590027,
            -0.13631275296211243,
            -0.24408744275569916,
            0.14637549221515656,
            0.16260449588298798,
            -0.11247429251670837,
            -0.31659454107284546,
            -0.07251130789518356,
            -0.47544535994529724,
            0.23393955826759338,
            -0.0719330683350563,
            0.05075640603899956,
            -0.134896382689476,
            0.21311821043491364,
            -0.3771840035915375,
            0.0756140649318695,
            0.35997480154037476,
            -0.05154040828347206,
            -0.14190272986888885,
            0.4226941466331482,
            -0.10360657423734665,
            0.08904038369655609,
            0.31054767966270447,
            0.08906229585409164,
            -0.16248224675655365,
            0.13391739130020142,
            -0.003966724965721369,
            0.17552931606769562,
            0.19329498708248138,
            0.017397329211235046,
            0.0021187749225646257,
            -0.24032220244407654,
            0.21010473370552063,
            0.0561831071972847,
            -0.39550209045410156,
            0.30540063977241516,
            0.3415086269378662,
            0.3673282861709595,
            -0.16600123047828674,
            0.028353700414299965,
            0.33788391947746277,
            -0.16679683327674866,
            -0.21894320845603943,
            -0.12605862319469452,
            0.12560266256332397,
            0.2511598765850067,
            0.22528131306171417,
            -0.17806866765022278,
            -0.12652088701725006,
            -0.05168880149722099,
            -0.3675108253955841,
            0.02385714463889599,
            0.06525759398937225,
            0.19772475957870483,
            0.18098892271518707,
            -0.14618515968322754,
            0.19459092617034912,
            0.26108452677726746,
            -0.22653605043888092,
            -0.1447538137435913,
            -0.1684814840555191,
            -0.5235230326652527,
            0.17398987710475922,
            -0.23676270246505737,
            -0.12099122256040573,
            -0.4890997111797333,
            0.008567539975047112,
            0.27135834097862244,
            -0.4006222188472748,
            -0.16654270887374878,
            0.2031242549419403,
            0.5041326880455017,
            0.3814866840839386,
            0.4557974934577942,
            -0.14858496189117432,
            0.022636225447058678,
            -0.0483541265130043,
            0.03397265821695328,
            0.15641912817955017,
            -0.029247090220451355,
            -0.16323982179164886,
            -0.050647176802158356,
            -0.32348084449768066,
            0.07455930858850479,
            -0.17807553708553314,
            -0.2773743271827698,
            -0.281227171421051,
            -0.08868712931871414,
            0.09247197955846786,
            -0.011799445375800133,
            -0.36699172854423523,
            -0.24214975535869598,
            -0.07652086019515991,
            -0.008732753805816174,
            -0.07722998410463333,
            -0.010463904589414597,
            -0.18765121698379517,
            -0.26672372221946716,
            0.0439271405339241,
            0.4294104278087616,
            -0.376235693693161,
            -0.08291265368461609,
            0.5590255856513977,
            -0.02609780617058277,
            0.15289807319641113,
            0.09824512898921967,
            0.18925048410892487,
            0.06950878351926804,
            -0.11744968593120575,
            -0.333318829536438,
            0.23939621448516846,
            -0.06456656008958817,
            0.1384316235780716,
            -0.04931851476430893,
            -0.2564782202243805,
            -0.22939439117908478,
            0.30198878049850464,
            -0.14882592856884003,
            0.37193846702575684,
            0.09267711639404297,
            -0.5871046781539917,
            0.30924469232559204,
            -0.40454110503196716,
            0.22060048580169678,
            -0.1341867595911026,
            -0.23209480941295624,
            0.06379347294569016,
            0.1707381010055542,
            0.026798108592629433,
            0.22033067047595978,
            0.29999616742134094,
            0.2849540114402771,
            -0.20319995284080505,
            -0.2293781191110611,
            0.5243352055549622,
            -0.059423256665468216,
            0.052490200847387314,
            0.1938500702381134,
            -0.03880424425005913,
            -0.35795673727989197,
            0.16910552978515625,
            -0.44137638807296753,
            -0.11537501215934753,
            0.0013894746080040932,
            0.21105092763900757,
            -0.17240843176841736,
            -0.2644049823284149,
            0.41504326462745667,
            -0.10540261119604111,
            0.057994209229946136,
            0.1059005931019783,
            -0.5077958106994629,
            -0.060301970690488815,
            -0.5753066539764404,
            -0.13734328746795654,
            -0.35481739044189453,
            -0.04522513225674629,
            0.35114192962646484,
            0.27049845457077026,
            0.07204930484294891,
            0.030854003503918648,
            -0.06477470695972443,
            0.3404986262321472,
            0.042113348841667175,
            -0.07932084053754807,
            0.14062738418579102
        ],
        "bias": [
            0,
            0,
            0,
            0,
            0,
            0,
            0,
            0,
            0,
            0,
            0,
            0,
            0,
            0,
            0,
            0,
            0,
            0,
            0,
            0,
            0,
            0,
            0,
            0,
            0,
            0,
            0,
            0,
            0,
            0,
            0,
            0,
            0,
            0,
            0,
            0,
            0,
            0,
            0,
            0,
            0,
            0,
            0,
            0,
            0,
            0,
            0,
            0,
            0,
            0,
            0,
            0,
            0,
            0,
            0,
            0
        ]
    }
}