{
    "value": {
        "hidden_layer_size": 18,
        "hidden_layer_count": 1,
        "weights": [
            0.13563396036624908,
            0.5526105165481567,
            -0.143374964594841,
            0.1351970136165619,
            0.14620068669319153,
            -1.4963653087615967,
            0.87432461977005,
            -0.058200541883707047,
            0.1778731346130371,
            -0.06477594375610352,
            -0.2662677466869354,
            -0.8395094871520996,
            -0.1019921526312828,
            -0.5803216099739075,
            0.10118252784013748,
            0.4000950753688812,
            -0.592004656791687,
            0.6648811101913452,
            0.6706438660621643,
            0.07026757299900055,
            0.24974995851516724,
            0.07141218334436417,
            0.0014222362078726292,
            0.5417829751968384,
            0.06756558269262314,
            -0.16211764514446259,
            0.1205609068274498,
            0.5682086944580078,
            0.16282381117343903,
            0.3708353042602539,
            0.18758806586265564,
            -0.272417813539505,
            -3.0325605869293213,
            -0.1953079253435135,
            -0.16628031432628632,
            0.28531724214553833,
            0.1310473382472992,
            0.35059526562690735,
            0.04066045954823494,
            0.2509230375289917,
            -0.009033224545419216,
            0.01867932267487049,
            -0.3112351894378662,
            -0.07446067035198212,
            0.09735111147165298,
            0.03749575838446617,
            0.0013299381826072931,
            0.1376846879720688,
            0.03921089321374893,
            -0.34642237424850464,
            0.3795347809791565,
            0.4915589392185211,
            -0.3545348644256592,
            -0.6298997402191162,
            -0.35300612449645996,
            -0.015478507615625858,
            -0.11488804221153259,
            -0.5020707249641418,
            0.18893133103847504,
            0.24526827037334442,
            -0.1390305906534195,
            -0.21015511453151703,
            -0.3591928780078888,
            0.38912898302078247,
            -0.313118577003479,
            0.17907558381557465,
            0.3313303291797638,
            -0.20062392950057983,
            -0.6390572190284729,
            0.2364112287759781,
            -0.20505429804325104,
            -0.18481843173503876,
            0.14494521915912628,
            0.07611201703548431,
            -0.1472482979297638,
            0.07239992171525955,
            0.04992029815912247,
            -0.3103474974632263,
            -0.5439422130584717,
            -0.01731514371931553,
            2.2955219745635986,
            -1.0382623672485352,
            0.050069063901901245,
            0.17828412353992462,
            -0.4442773759365082,
            1.0306007862091064,
            0.37858596444129944,
            0.12021846324205399,
            -0.12657131254673004,
            0.0037224560510367155,
            0.02213156595826149,
            -0.5745447278022766,
            -0.3815416097640991,
            0.27939876914024353,
            -0.1141955554485321,
            -0.13873982429504395,
            2.456171751022339,
            0.3577885329723358,
            0.5454069972038269,
            -0.48022109270095825,
            -0.7312609553337097,
            -0.5203525424003601,
            -1.4606194496154785,
            -0.23982186615467072,
            -0.002963657258078456,
            0.12966331839561462,
            -0.005717356689274311,
            0.18110784888267517,
            -0.5833436250686646,
            -0.029073994606733322,
            -0.6001196503639221,
            0.12079862505197525,
            -2.5703072547912598,
            -1.57760751247406,
            -0.31097346544265747,
            -0.026722842827439308,
            0.2529046833515167,
            1.3770697116851807,
            0.026016902178525925,
            -0.2676410377025604,
            0.257710337638855,
            -0.19798502326011658,
            -0.10353453457355499,
            -0.7129504680633545,
            -0.0718495100736618,
            -0.42188331484794617,
            0.3473784029483795,
            0.0595281608402729,
            0.7773219347000122,
            -2.352814197540283,
            -0.4479732811450958,
            -0.06838425248861313,
            -0.4062783718109131,
            0.8220574259757996,
            -0.40007728338241577,
            -0.18368057906627655,
            -0.06781617552042007,
            -0.1314740777015686,
            0.22451573610305786,
            -0.8665125370025635,
            0.2601020932197571,
            0.5331710577011108,
            -0.30180343985557556,
            -0.6549009084701538,
            0.042393624782562256,
            0.5206307172775269,
            0.2078956514596939,
            0.04153319075703621,
            -0.8617175221443176,
            -1.0020235776901245,
            0.10860756784677505,
            -0.02009865827858448,
            0.47575274109840393,
            -0.5352212190628052,
            -0.1512044221162796,
            -0.3278552293777466,
            -0.16306772828102112,
            0.2845386564731598,
            -0.05720016732811928,
            0.024891626089811325,
            1.7026561498641968,
            -0.6955426931381226,
            -0.4194895625114441,
            -0.6176637411117554,
            0.3683747947216034,
            0.5415917038917542,
            -1.7599012851715088,
            -0.23739714920520782,
            -0.04779212921857834,
            0.3203420639038086,
            -0.1782759428024292,
            -0.7186794877052307,
            -0.43628036975860596,
            -0.19226540625095367,
            -0.09941461682319641,
            -0.2297508716583252,
            2.70346999168396,
            -1.655415415763855,
            0.5887548327445984,
            0.38862091302871704,
            -0.1052548959851265,
            0.31077978014945984,
            -0.07479803264141083,
            0.11138719320297241,
            0.10129396617412567,
            -0.031122982501983643,
            -0.04004340246319771,
            -0.19912154972553253,
            -0.33960723876953125,
            -0.06931807845830917,
            -0.09443021565675735,
            1.1999297142028809,
            -0.6525143980979919,
            -0.09304816275835037,
            0.06575018167495728,
            0.1149047315120697,
            0.08681095391511917,
            -0.43550485372543335,
            -0.7302305102348328,
            -0.07729455828666687,
            0.3387480080127716,
            0.11845093220472336,
            -0.20180055499076843,
            -0.20837055146694183,
            -0.04686098173260689,
            -0.18854758143424988,
            0.37633147835731506,
            0.11576607823371887,
            0.17096441984176636,
            -0.43786463141441345,
            0.20890437066555023,
            -0.15585048496723175,
            -0.04249037429690361,
            -1.0309693813323975,
            0.6524515748023987,
            -0.7160826921463013,
            -0.01893540285527706,
            0.9031149744987488,
            -0.06271835416555405,
            -0.31697210669517517,
            -0.6408485174179077,
            0.278084397315979,
            -0.05564819276332855,
            -0.15087787806987762,
            0.6494417786598206,
            -0.7781018018722534,
            -0.2112707942724228,
            -0.14703944325447083,
            0.7279810309410095,
            -1.0126466751098633,
            0.7235271334648132,
            -0.07960380613803864,
            0.016192801296710968,
            -0.36837705969810486,
            0.3240169286727905,
            0.10143839567899704,
            0.05834510177373886,
            -0.21957136690616608,
            -0.24502471089363098,
            -0.18504765629768372,
            0.4570275843143463,
            -1.505689263343811,
            0.43119198083877563,
            -0.06727670878171921,
            0.13719181716442108,
            1.0235202312469482,
            -0.7310037016868591,
            0.6814952492713928,
            0.031474675983190536,
            -0.3973628878593445,
            -0.27470964193344116,
            -0.2684675455093384,
            -0.18780219554901123,
            0.13824118673801422,
            -0.1340179443359375,
            0.6447020173072815,
            0.46636536717414856,
            0.8404024839401245,
            -0.2825154960155487,
            0.21108531951904297,
            -0.2709115445613861,
            0.4362318515777588,
            -0.3240014612674713,
            -0.7577664852142334,
            -0.21313439309597015,
            -0.14623625576496124,
            0.12919235229492188,
            0.8426797986030579,
            -0.4214646816253662,
            0.5844398736953735,
            -0.3302399218082428,
            -0.3496781587600708,
            -0.4746268093585968,
            1.0254242420196533,
            -0.28354838490486145,
            -0.1908857673406601,
            -0.5172618627548218,
            0.5920261740684509,
            -0.36687126755714417,
            -0.09160121530294418,
            0.1568514108657837,
            0.11381015181541443,
            0.6152710914611816,
            0.35870349407196045,
            -0.21841022372245789,
            -0.2676309049129486,
            -0.39150598645210266,
            0.25782471895217896,
            0.35729390382766724,
            0.16420185565948486,
            -0.6631715893745422,
            0.001954729901626706,
            -0.000815185543615371,
            -0.5410186052322388,
            -0.1741441786289215,
            -0.7013663053512573,
            -0.2082238495349884,
            -0.13299785554409027,
            -0.4018864929676056,
            -0.48703622817993164,
            -0.0424395352602005,
            0.1615368127822876,
            -0.15007972717285156,
            -0.14856702089309692,
            0.19890394806861877,
            0.11573711037635803
        ],
        "bias": [
            -0.4203226566314697,
            0.2335401475429535,
            -0.3323890268802643,
            -0.3368827700614929,
            -0.06243927776813507,
            -0.1015375629067421,
            0.1539885401725769,
            -0.2570000886917114,
            -0.028425056487321854,
            -0.8074942231178284,
            -0.31290483474731445,
            -0.39163994789123535,
            -0.44621196389198303,
            -0.6966938972473145,
            -0.5942917466163635,
            -0.5883657336235046,
            -0.19960252940654755,
            0.2067125141620636,
            0.5735133290290833
        ]
    },
    "policy": {
        "hidden_layer_size": 18,
        "hidden_layer_count": 1,
        "weights": [
            0.4987083077430725,
            0.4261508285999298,
            -0.38615021109580994,
            -0.18541361391544342,
            1.1619954109191895,
            -1.1644837856292725,
            -0.09616207331418991,
            0.21380434930324554,
            -0.3092023432254791,
            -0.6615385413169861,
            -0.7582920789718628,
            -0.6427461504936218,
            -0.03822343796491623,
            0.17798292636871338,
            0.5306874513626099,
            -0.34836772084236145,
            -0.19974713027477264,
            -0.13167116045951843,
            -0.6914141774177551,
            -0.45735418796539307,
            0.9567831754684448,
            0.22614049911499023,
            -1.0077217817306519,
            0.023472053930163383,
            0.22733773291110992,
            0.5535057783126831,
            -0.44486144185066223,
            -0.2214447557926178,
            -0.37566283345222473,
            -0.23339417576789856,
            -0.13223421573638916,
            -0.2840873599052429,
            -1.1070642471313477,
            0.4249315559864044,
            -0.4241248369216919,
            -0.10243400186300278,
            -2.139761447906494,
            -1.1010820865631104,
            0.2146802544593811,
            -0.36748382449150085,
            -0.1943320780992508,
            -0.054027363657951355,
            -0.3055708706378937,
            0.07901962846517563,
            0.462354838848114,
            0.21216188371181488,
            -0.40079253911972046,
            -0.6775229573249817,
            0.3061673045158386,
            0.8694602847099304,
            -0.2111448496580124,
            0.22978730499744415,
            -0.33639106154441833,
            -0.776608407497406,
            -0.13473986089229584,
            0.42187634110450745,
            0.42453229427337646,
            0.27400442957878113,
            0.1470392793416977,
            -0.4779767394065857,
            0.4517931640148163,
            -0.07015606015920639,
            -1.0671371221542358,
            -1.0371675491333008,
            -0.9082314968109131,
            0.06929998844861984,
            -0.29553112387657166,
            0.2296636998653412,
            -0.32182374596595764,
            0.35082778334617615,
            0.30238962173461914,
            0.0007877832395024598,
            0.44656282663345337,
            0.23400546610355377,
            0.5065279006958008,
            -0.21694642305374146,
            -1.097241997718811,
            -0.772555947303772,
            -1.0258904695510864,
            -0.20659486949443817,
            -0.46721041202545166,
            -0.7870191335678101,
            -0.33713632822036743,
            -0.047964613884687424,
            0.4112100899219513,
            -0.3618144094944,
            -0.6975768208503723,
            -0.3597673773765564,
            -0.3144858777523041,
            -0.4219528138637543,
            -0.6983236074447632,
            -0.3860510289669037,
            0.22516284883022308,
            0.22518965601921082,
            0.5602992177009583,
            0.7893824577331543,
            -4.101736545562744,
            -1.4632829427719116,
            -0.10727211833000183,
            0.03127262368798256,
            -0.16744786500930786,
            -0.42224743962287903,
            0.4450702965259552,
            0.17237970232963562,
            0.7590174674987793,
            -0.10954411327838898,
            1.057249665260315,
            0.8321672081947327,
            -0.31299641728401184,
            -0.09905693680047989,
            0.14845480024814606,
            0.29656630754470825,
            2.905092239379883,
            0.9461460113525391,
            0.2742766737937927,
            -0.055859941989183426,
            0.5136463046073914,
            0.1015876978635788,
            -0.5199329853057861,
            0.3811357617378235,
            0.16811174154281616,
            -0.3322385251522064,
            -0.2801229655742645,
            -0.5332170724868774,
            0.9708226919174194,
            0.47554174065589905,
            0.17137953639030457,
            0.09371603280305862,
            4.6738386154174805,
            1.863629937171936,
            0.5379176735877991,
            0.5708383917808533,
            -0.04077320545911789,
            -0.31184807419776917,
            0.06019148603081703,
            -0.24712321162223816,
            0.3448658883571625,
            -0.5178441405296326,
            -0.8801559805870056,
            -0.42145347595214844,
            0.2991122901439667,
            0.8054042458534241,
            0.8011949062347412,
            0.3628886640071869,
            0.2261715829372406,
            -1.0305098295211792,
            -0.08881465345621109,
            -0.11400476843118668,
            0.8060560822486877,
            -0.07020203769207001,
            -0.16371816396713257,
            -0.006471368484199047,
            0.35765430331230164,
            0.36781805753707886,
            0.34011274576187134,
            -0.3635629713535309,
            -0.016605187207460403,
            0.07300841808319092,
            0.3041466474533081,
            0.5209589004516602,
            -2.948124408721924,
            -0.9999000430107117,
            0.023352069780230522,
            0.05597013980150223,
            -0.34849342703819275,
            0.17517471313476562,
            0.9072287082672119,
            0.23833422362804413,
            -0.25214502215385437,
            0.14213480055332184,
            1.0113071203231812,
            0.7189808487892151,
            -0.3609747886657715,
            0.12987041473388672,
            0.32498499751091003,
            -0.13087661564350128,
            0.09145624190568924,
            0.5785619616508484,
            -0.8285841941833496,
            0.03459592163562775,
            -0.9657084345817566,
            -0.15534135699272156,
            1.1278281211853027,
            -0.34184759855270386,
            0.03919213265180588,
            0.10368175804615021,
            0.26533952355384827,
            0.4413966238498688,
            -0.07740247994661331,
            -0.1901446133852005,
            -0.4225318729877472,
            -0.3375707268714905,
            -1.2402539253234863,
            -0.7943441271781921,
            -0.5238029360771179,
            0.13052800297737122,
            0.17753632366657257,
            -0.6861380338668823,
            0.07554217427968979,
            0.5526186227798462,
            0.27611005306243896,
            0.5231599807739258,
            -0.027650609612464905,
            0.04988740757107735,
            -0.2587270736694336,
            -0.25618183612823486,
            0.17773497104644775,
            0.8862237930297852,
            2.6718175411224365,
            1.2785745859146118,
            -0.8639273643493652,
            -0.009098186157643795,
            -0.48822981119155884,
            -0.7558009028434753,
            -0.23069223761558533,
            -0.19003251194953918,
            -0.35828927159309387,
            0.6001647710800171,
            0.04524984583258629,
            0.3147781193256378,
            -0.1217796802520752,
            -0.23528163135051727,
            0.3725537657737732,
            1.0029507875442505,
            -0.2118864506483078,
            -0.46963557600975037,
            0.5261676907539368,
            -0.2976723313331604,
            -0.4184817969799042,
            -0.23592057824134827,
            -0.498054176568985,
            -0.013476547785103321,
            0.34080174565315247,
            -0.4956623911857605,
            -0.1783061921596527,
            -0.460214763879776,
            0.20242594182491302,
            -0.27021509408950806,
            -0.4139852523803711,
            0.7058585286140442,
            0.7551032304763794,
            0.7062650322914124,
            0.2898252010345459,
            0.19941763579845428,
            -0.5285040140151978,
            -0.5511741638183594,
            0.23232555389404297,
            -0.3067457675933838,
            0.06894902884960175,
            0.34587550163269043,
            -0.07756538689136505,
            0.029249096289277077,
            -0.450901061296463,
            -0.39742884039878845,
            -0.13573461771011353,
            -0.20130819082260132,
            -0.5578247904777527,
            0.5597105026245117,
            -0.3240634500980377,
            -0.20047061145305634,
            -0.3683289885520935,
            0.4018247127532959,
            -0.1695559024810791,
            0.12104056775569916,
            -0.34154191613197327,
            0.3147585093975067,
            -0.6224352717399597,
            -0.10690747946500778,
            -0.8701809644699097,
            -0.6716633439064026,
            0.9500329494476318,
            0.49587780237197876,
            4.8902764320373535,
            2.3905718326568604,
            -0.016994116827845573,
            0.12217669188976288,
            0.18312758207321167,
            -0.12654104828834534,
            -0.3413403630256653,
            -0.030484555289149284,
            0.28605616092681885,
            0.5010119676589966,
            0.2445235401391983,
            0.49665120244026184,
            0.00020139524713158607,
            0.6525887846946716,
            -0.16785834729671478,
            0.20533590018749237,
            0.34805914759635925,
            -0.15939192473888397,
            -0.7888137698173523,
            -0.12948819994926453,
            -0.6180593371391296,
            -0.11214876919984818,
            -1.3337059020996094,
            1.0155560970306396,
            1.1315624713897705,
            0.1077081486582756,
            -0.9299179911613464,
            -0.2875441014766693,
            -0.5572562217712402,
            0.29796528816223145,
            -0.44750291109085083,
            -0.06461023539304733,
            -0.08559894561767578,
            1.7200748920440674,
            0.6514973640441895,
            0.19001197814941406,
            -1.0564337968826294,
            -0.7616052627563477,
            -0.494934618473053,
            0.4642649292945862,
            0.37128570675849915,
            0.2678781747817993,
            0.07846175879240036,
            0.4153723418712616,
            -0.1347605437040329,
            -0.35613951086997986,
            0.8189433813095093,
            -0.35378918051719666,
            0.05276031792163849,
            -0.07885457575321198,
            0.06418787688016891,
            -0.14005357027053833,
            -0.4196733236312866,
            -0.36316123604774475,
            0.8190885186195374,
            -0.5330501794815063,
            -0.24625445902347565,
            0.1718439757823944,
            0.3724716901779175,
            -1.0250740051269531,
            0.0945485457777977,
            -0.38658106327056885,
            1.4894905090332031,
            0.4043493866920471,
            0.7087827324867249,
            -0.12002813071012497,
            -0.5020262598991394,
            -0.7384033799171448,
            -0.08042258024215698,
            0.17567579448223114,
            0.3824397921562195,
            0.049465976655483246,
            0.10913689434528351,
            0.05434965342283249,
            -0.025102980434894562,
            0.399549663066864,
            0.6072510480880737,
            0.15642665326595306,
            -0.14378812909126282,
            0.2843899130821228,
            -0.34238675236701965,
            -1.0540542602539062,
            0.09008530527353287,
            0.5041829347610474,
            0.4711626470088959,
            -0.14843010902404785,
            0.9986279606819153,
            -0.15345261991024017
        ],
        "bias": [
            -0.12164994329214096,
            -0.31512534618377686,
            0.12104719132184982,
            -0.07770028710365295,
            0.3251488208770752,
            -0.05209304019808769,
            0.04863172397017479,
            0.337333619594574,
            0.610511302947998,
            -0.5107527375221252,
            0.32267871499061584,
            0.04616628959774971,
            -0.20010553300380707,
            0.022138608619570732,
            -0.45439663529396057,
            -0.4526236355304718,
            -0.2857864201068878,
            0.025540301576256752,
            -0.1881961077451706,
            -0.2889007329940796,
            0.37483739852905273,
            0.3118093013763428
        ]
    }
}