{
    "value": {
        "hidden_layer_size": 30,
        "hidden_layer_count": 2,
        "weights": [
            -0.09604766964912415,
            0.25015321373939514,
            0.05401494354009628,
            0.4239644706249237,
            0.22995583713054657,
            -0.17031489312648773,
            0.6159269213676453,
            0.2274182140827179,
            0.07882294803857803,
            -0.578946590423584,
            -0.3475372791290283,
            -0.9658103585243225,
            -0.5730445384979248,
            0.44331178069114685,
            -0.6181511878967285,
            1.290547490119934,
            -0.9502683281898499,
            -0.06422743201255798,
            -0.4219328463077545,
            0.13999365270137787,
            0.025030093267560005,
            0.22442375123500824,
            -0.13173526525497437,
            -0.7081875205039978,
            0.6361710429191589,
            0.6307171583175659,
            0.8244621753692627,
            -0.4508640766143799,
            -0.2881845533847809,
            -0.05685822665691376,
            0.15680445730686188,
            0.19588637351989746,
            -1.1605525016784668,
            -0.02996835485100746,
            -0.22679416835308075,
            -0.5160276293754578,
            0.15659549832344055,
            -0.01630987972021103,
            -0.19728229939937592,
            0.832634449005127,
            -1.2711440324783325,
            -0.1670384705066681,
            0.3496219515800476,
            0.12745386362075806,
            -0.2953132390975952,
            -0.09807167947292328,
            0.4588971436023712,
            -0.30533966422080994,
            0.8634051084518433,
            0.11852961778640747,
            0.30858585238456726,
            0.033303070813417435,
            -0.11291756480932236,
            -0.07906969636678696,
            0.13799938559532166,
            -0.712810218334198,
            -0.4688131809234619,
            -0.6364884376525879,
            -0.32748523354530334,
            1.127618670463562,
            0.3206648528575897,
            0.5378250479698181,
            -0.02585645578801632,
            -0.1845799833536148,
            -1.9059728384017944,
            1.0326288938522339,
            0.2485346496105194,
            0.06837229430675507,
            0.41689714789390564,
            -0.41207778453826904,
            0.2161630392074585,
            -0.5969609022140503,
            -1.2564657926559448,
            -1.5127917528152466,
            -0.8058563470840454,
            0.16047422587871552,
            0.012788143940269947,
            1.505551815032959,
            1.6956703662872314,
            0.15367469191551208,
            0.72563636302948,
            -0.4896886944770813,
            0.39792802929878235,
            0.245524600148201,
            -0.3957602083683014,
            0.47288987040519714,
            0.2995656430721283,
            0.39735108613967896,
            0.3231686055660248,
            -0.38462740182876587,
            -1.0801607370376587,
            1.5102745294570923,
            -0.47048714756965637,
            -0.6941218376159668,
            -0.04357616975903511,
            0.07706664502620697,
            0.1690073162317276,
            -0.1639278680086136,
            -0.18478071689605713,
            -0.08367182314395905,
            -0.22102059423923492,
            0.07102738320827484,
            -0.3152233362197876,
            -0.0770173892378807,
            -0.3610137104988098,
            -0.759599506855011,
            0.07289812713861465,
            -0.6030058860778809,
            0.18316802382469177,
            -0.3926001191139221,
            0.3745661973953247,
            -0.39791595935821533,
            0.04629340395331383,
            0.5912756323814392,
            0.2891479730606079,
            0.8448418378829956,
            0.07966488599777222,
            -0.5480203032493591,
            0.28452152013778687,
            -0.272335022687912,
            0.4092830717563629,
            -0.4273112118244171,
            0.4188508093357086,
            0.18981219828128815,
            -0.5716908574104309,
            -0.23198847472667694,
            -0.13857226073741913,
            -0.09510331600904465,
            -0.9661668539047241,
            0.6165335178375244,
            0.20195850729942322,
            0.47213679552078247,
            -0.14137694239616394,
            1.3183106184005737,
            0.5874885320663452,
            1.947554588317871,
            1.7688088417053223,
            0.8032187223434448,
            -0.11309956014156342,
            -2.120798110961914,
            -1.391605019569397,
            -1.5892583131790161,
            0.3239205777645111,
            1.5848541259765625,
            -0.022730041295289993,
            -0.5777146816253662,
            0.04007556289434433,
            0.20599916577339172,
            -0.6049067378044128,
            -1.05405855178833,
            0.32162442803382874,
            -0.5101892352104187,
            -0.6284325122833252,
            -0.6924847960472107,
            -0.8613083958625793,
            -0.2646118104457855,
            -0.6987984776496887,
            -0.4280955493450165,
            0.19557951390743256,
            -0.6143409013748169,
            -0.2572166323661804,
            0.11921675503253937,
            0.10604897886514664,
            0.13758358359336853,
            -0.19124740362167358,
            0.03180708736181259,
            -0.1926133632659912,
            0.2601745128631592,
            -0.2515392005443573,
            -0.30087706446647644,
            -0.8669120073318481,
            0.5843691825866699,
            -0.5239951014518738,
            -0.656023383140564,
            0.1833348423242569,
            -0.2520543932914734,
            0.23292919993400574,
            -0.2577696740627289,
            0.16267679631710052,
            0.448790967464447,
            -0.22153057157993317,
            0.15948718786239624,
            -0.02937537059187889,
            -0.3376558721065521,
            -0.5902613997459412,
            0.17890706658363342,
            -0.9862789511680603,
            -0.7982591986656189,
            0.20757746696472168,
            -0.22322580218315125,
            -0.28759270906448364,
            -0.23284833133220673,
            1.7059812545776367,
            0.12209627777338028,
            -0.30518263578414917,
            0.2668411135673523,
            0.25421276688575745,
            0.7584361433982849,
            -0.9163534641265869,
            -0.07944563776254654,
            -0.06275466084480286,
            0.6334618330001831,
            0.07435165345668793,
            -0.32605916261672974,
            -0.32134097814559937,
            -0.3154360353946686,
            -0.46746087074279785,
            -0.09736964106559753,
            0.12124644964933395,
            -0.2136431783437729,
            -0.3158854842185974,
            0.04484010860323906,
            0.8558371067047119,
            0.058927021920681,
            0.05144621804356575,
            -0.5952761173248291,
            0.4041386544704437,
            -0.30028268694877625,
            -0.11170244216918945,
            -0.3548021912574768,
            -0.9287725687026978,
            0.11210350692272186,
            0.42527711391448975,
            -0.21758736670017242,
            -4.121191501617432,
            0.5523359775543213,
            0.4043024182319641,
            0.17153123021125793,
            0.2926640808582306,
            -0.215062215924263,
            0.07466618716716766,
            0.03914554417133331,
            -0.12111711502075195,
            -0.12586815655231476,
            -1.784772515296936,
            0.12433378398418427,
            -0.08397067338228226,
            -0.16224844753742218,
            0.04752026125788689,
            0.11694828420877457,
            0.07374688982963562,
            0.5007275938987732,
            0.42451876401901245,
            0.17064706981182098,
            1.120341420173645,
            -0.5144568085670471,
            -0.1219964474439621,
            0.592936098575592,
            0.45693811774253845,
            -0.4769965410232544,
            -0.9863851070404053,
            0.9084601998329163,
            -0.15812118351459503,
            -0.11089729517698288,
            0.47659197449684143,
            0.020196842029690742,
            -2.5790088176727295,
            0.05695477873086929,
            -0.5810078382492065,
            -0.09705418348312378,
            0.6772757768630981,
            -0.06558635085821152,
            -0.073428675532341,
            -0.5153045058250427,
            -0.2586846947669983,
            0.3085486590862274,
            0.2688802182674408,
            0.04349337890744209,
            0.12336840480566025,
            0.21883977949619293,
            0.27693262696266174,
            -0.3622300922870636,
            -7.348093509674072,
            2.148776054382324,
            -0.25733494758605957,
            0.37243354320526123,
            0.8378097414970398,
            0.8146867752075195,
            0.1589559018611908,
            -0.11053106188774109,
            0.25499486923217773,
            0.8166994452476501,
            1.1208906173706055,
            -0.7885440587997437,
            -0.26639842987060547,
            -0.023989122360944748,
            0.08894693106412888,
            0.513755738735199,
            2.3625543117523193,
            -0.19810141623020172,
            0.5570914149284363,
            0.6853711605072021,
            -0.2588944733142853,
            0.7156116366386414,
            -0.4673105776309967,
            0.11366890370845795,
            0.5298740267753601,
            -0.02183484472334385,
            0.3729495704174042,
            -0.34461677074432373,
            -0.6616503596305847,
            0.03229767456650734,
            -0.15596827864646912,
            -0.5685524344444275,
            2.54498028755188,
            -0.41266101598739624,
            -0.10624609887599945,
            0.8103676438331604,
            0.28800466656684875,
            0.3418430984020233,
            0.16789565980434418,
            0.049278076738119125,
            -0.2510409355163574,
            -0.3491957187652588,
            -0.11624324321746826,
            -0.5736889839172363,
            0.603324830532074,
            0.33890506625175476,
            0.09255138784646988,
            1.3497505187988281,
            1.2373801469802856,
            -0.03539097681641579,
            0.9251410961151123,
            0.021074511110782623,
            -0.02030855603516102,
            -0.13206356763839722,
            1.2983801364898682,
            0.01296621561050415,
            -0.23099735379219055,
            -0.27979570627212524,
            -0.8725338578224182,
            -0.6399247646331787,
            -0.2918301820755005,
            -0.4087633192539215,
            1.155961036682129,
            1.3927240371704102,
            6.234488010406494,
            -0.9054006338119507,
            0.06813965737819672,
            -0.6046947836875916,
            -0.2514320909976959,
            0.3468177616596222,
            0.04216950759291649,
            0.2227349579334259,
            -0.22854484617710114,
            -0.2058706283569336,
            -0.23770368099212646,
            -0.9631546139717102,
            -0.18778154253959656,
            -0.1217551976442337,
            -0.2365792840719223,
            0.7295815348625183,
            -0.10239776968955994,
            0.2895605266094208,
            0.7473852634429932,
            -0.26503488421440125,
            0.1945744752883911,
            -0.2107202261686325,
            -0.22237414121627808,
            -0.10968010127544403,
            -1.2567178010940552,
            -0.14558252692222595,
            0.06596161425113678,
            -1.5289874076843262,
            -0.28536370396614075,
            1.006752371788025,
            0.6031479835510254,
            0.05468931794166565,
            -1.3665189743041992,
            -0.33786049485206604,
            -0.3597402572631836,
            -0.042331524193286896,
            -0.3114277422428131,
            0.6926729679107666,
            -0.48498010635375977,
            0.8560324907302856,
            -0.09669385105371475,
            -0.43466421961784363,
            -0.7703487277030945,
            -1.0016058683395386,
            -0.23492470383644104,
            0.2166081666946411,
            -0.1257067769765854,
            0.36759525537490845,
            0.21407079696655273,
            -0.7239341735839844,
            -0.01529182493686676,
            0.3252638578414917,
            0.37392494082450867,
            -0.6188479065895081,
            -0.29388168454170227,
            0.060117531567811966,
            0.07025487720966339,
            0.2238834947347641,
            0.25009670853614807,
            -0.435128778219223,
            -0.10250811278820038,
            -0.2933195233345032,
            -0.05971507728099823,
            0.23175837099552155,
            3.2071356773376465,
            -0.799750030040741,
            -0.8177883625030518,
            -0.035967301577329636,
            -0.28549325466156006,
            -0.6355376839637756,
            0.15966111421585083,
            -0.08347967267036438,
            0.38047948479652405,
            -0.4652712345123291,
            -0.27074047923088074,
            0.1599360555410385,
            -0.08658641576766968,
            -0.23424075543880463,
            -0.07206492125988007,
            -0.32076552510261536,
            -0.34483081102371216,
            0.43697771430015564,
            -0.20061752200126648,
            -0.1010797917842865,
            0.23482194542884827,
            0.4446764588356018,
            0.20680783689022064,
            -0.48904290795326233,
            -0.30796128511428833,
            -0.3925867974758148,
            -0.042115792632102966,
            -1.1539268493652344,
            -0.06172286346554756,
            -0.28011977672576904,
            -0.20525892078876495,
            0.45839881896972656,
            1.0816650390625,
            0.008122903294861317,
            0.4012700617313385,
            0.8685416579246521,
            -0.1996910721063614,
            0.5405702590942383,
            -0.285705029964447,
            -0.31561899185180664,
            -0.4246552288532257,
            -0.5490893721580505,
            -0.9889597296714783,
            -0.544264018535614,
            0.04192209616303444,
            -0.1262030005455017,
            -0.5585061311721802,
            -0.6596723794937134,
            1.0600966215133667,
            -1.0327773094177246,
            0.004578454419970512,
            -0.4674445390701294,
            0.268600195646286,
            0.2996689975261688,
            -0.4443669319152832,
            -0.27728408575057983,
            -1.6157468557357788,
            -1.77325439453125,
            -2.067866563796997,
            -0.9021030068397522,
            0.2240106165409088,
            1.4367735385894775,
            2.316328525543213,
            3.223769187927246,
            0.33286601305007935,
            -0.05821313336491585,
            -0.10156518965959549,
            0.18963304162025452,
            0.23153506219387054,
            0.4007297456264496,
            -0.17911826074123383,
            0.09036966413259506,
            0.010263008065521717,
            -0.37883731722831726,
            -0.390537291765213,
            -0.6533145904541016,
            -0.020882805809378624,
            -0.5629790425300598,
            -0.07460376620292664,
            0.20851829648017883,
            -0.238599494099617,
            0.11495289206504822,
            -0.01258133351802826,
            0.7688543796539307,
            0.23078733682632446,
            0.13969048857688904,
            0.31814488768577576,
            -0.308757483959198,
            -0.4218462407588959,
            -0.2039654552936554,
            -0.01724141836166382,
            -0.24697861075401306,
            0.00926949828863144,
            0.4285008907318115,
            -0.19591519236564636,
            -0.1322919726371765,
            -0.11264260858297348,
            -0.12130914628505707,
            -0.46676599979400635,
            0.04971918836236,
            -0.6528862714767456,
            -0.15748582780361176,
            -0.5776189565658569,
            -0.13370294868946075,
            -0.2733926773071289,
            0.24339663982391357,
            -0.04992639645934105,
            -0.057629674673080444,
            0.19886155426502228,
            -0.47852081060409546,
            -0.024740522727370262,
            0.5256186127662659,
            0.15016096830368042,
            -0.8074862957000732,
            0.967860221862793,
            -0.3568327724933624,
            -0.19932079315185547,
            -0.4202905595302582,
            0.6003589034080505,
            -0.4225994944572449,
            -0.6849998831748962,
            -0.12994711101055145,
            0.19573524594306946,
            -0.209508016705513,
            0.7874671220779419,
            -0.8321298956871033,
            0.7209843993186951,
            0.46360743045806885,
            0.08600159734487534,
            -0.019093379378318787,
            -0.4886417090892792,
            -0.7595568895339966,
            -0.8630550503730774,
            0.12997639179229736,
            -0.13499975204467773,
            -0.46451079845428467,
            0.00038140008109621704,
            0.18257609009742737,
            -0.3587929308414459,
            -0.14431962370872498,
            -0.28629302978515625,
            0.08543973416090012,
            -0.25353142619132996,
            -0.2514253854751587,
            -0.9807702898979187,
            -0.35816842317581177,
            0.3026094138622284,
            0.54648756980896,
            -0.15113531053066254,
            -1.3072642087936401,
            -0.4212212860584259,
            -0.3943193256855011,
            0.6530856490135193,
            0.6366544365882874,
            -0.39693745970726013,
            -0.09660372138023376,
            0.31585171818733215,
            0.07050441950559616,
            0.8065963387489319,
            0.2626020908355713,
            0.5118773579597473,
            0.2557451128959656,
            -0.5289098620414734,
            -0.06692670285701752,
            -0.13487190008163452,
            -0.28710511326789856,
            -0.08541902154684067,
            -0.7241803407669067,
            1.0101443529129028,
            0.0794970691204071,
            0.03106030635535717,
            -0.3230328857898712,
            0.18695373833179474,
            0.22563107311725616,
            -0.013973458670079708,
            0.5163209438323975,
            -0.401550829410553,
            0.1540968120098114,
            0.6121543645858765,
            -0.40695056319236755,
            -0.21395696699619293,
            0.08585930615663528,
            0.09323622286319733,
            0.07607900351285934,
            0.33939921855926514,
            -0.9274203181266785,
            0.20268632471561432,
            0.13548050820827484,
            0.425706148147583,
            0.01040439773350954,
            -0.09645350277423859,
            0.35670047998428345,
            -0.11581945419311523,
            0.4783805012702942,
            0.47468236088752747,
            0.7620831727981567,
            0.12907002866268158,
            -0.005324658006429672,
            -0.23993870615959167,
            -0.1443261355161667,
            0.3298138976097107,
            0.12230076640844345,
            0.09820369631052017,
            -0.09826681762933731,
            0.16125360131263733,
            0.024005737155675888,
            -0.34148651361465454,
            -0.7166716456413269,
            0.9450365304946899,
            -0.38245442509651184,
            -0.25158432126045227,
            -0.269666850566864,
            -0.19748009741306305,
            -0.19919487833976746,
            -0.10412267595529556,
            -0.4689050316810608,
            0.7384932041168213,
            0.7117286920547485,
            -0.20006076991558075,
            0.8768129348754883,
            -0.07735510915517807,
            0.43385177850723267,
            -0.6675311326980591,
            -0.012880394235253334,
            0.1565287858247757,
            0.07652395963668823,
            -0.021704576909542084,
            0.3980391323566437,
            0.8472408056259155,
            -0.20780134201049805,
            -0.07722403854131699,
            -0.15680228173732758,
            0.1314866840839386,
            -0.09952842444181442,
            0.7247334718704224,
            -0.3171752095222473,
            0.20649558305740356,
            -0.30258986353874207,
            0.749443769454956,
            -0.03400024399161339,
            0.13945792615413666,
            -0.17322541773319244,
            0.15115487575531006,
            0.21314629912376404,
            0.7811363339424133,
            -0.18744182586669922,
            0.23855970799922943,
            0.5463753938674927,
            0.316976398229599,
            0.23075564205646515,
            -0.43251052498817444,
            -0.6669598817825317,
            -0.4003431499004364,
            0.6502044200897217,
            -0.1895686388015747,
            -0.785345733165741,
            0.1433037370443344,
            0.8780601024627686,
            -0.11347866803407669,
            0.13565793633460999,
            -0.27958086133003235,
            0.011493072845041752,
            -0.149113267660141,
            -0.22598759829998016,
            1.0262854099273682,
            -0.33080336451530457,
            0.042284589260816574,
            -0.1916220337152481,
            -0.8633788824081421,
            0.009849808178842068,
            0.1459706425666809,
            -0.04077276587486267,
            0.03394074738025665,
            -0.3198998272418976,
            -0.0591730996966362,
            -0.3586271405220032,
            -0.13418519496917725,
            0.13258890807628632,
            -0.33867716789245605,
            -0.10775995999574661,
            -0.3436667025089264,
            -0.1311093270778656,
            -0.311861127614975,
            -0.07693210989236832,
            -0.09195668995380402,
            0.17457528412342072,
            -0.38089126348495483,
            -0.1524370014667511,
            -0.5220407247543335,
            -0.28414657711982727,
            0.5549836158752441,
            0.08973827213048935,
            -0.08449547737836838,
            0.18138618767261505,
            -0.23528242111206055,
            -0.5356820225715637,
            -0.28470754623413086,
            0.02147073484957218,
            0.15882152318954468,
            -0.276814728975296,
            -0.5626590251922607,
            -0.45137834548950195,
            -0.22379657626152039,
            -0.115213543176651,
            -0.016269953921437263,
            0.06686438620090485,
            -0.07225748151540756,
            -0.004515752196311951,
            0.01000085100531578,
            -0.02896682173013687,
            -0.2115829735994339,
            -0.10426568239927292,
            0.4026176631450653,
            -0.10063375532627106,
            -0.06547772884368896,
            0.3335700035095215,
            -0.3745729923248291,
            -0.17891566455364227,
            -0.09607109427452087,
            0.010117286816239357,
            -0.42550569772720337,
            -0.09184254705905914,
            0.15740926563739777,
            0.02268126793205738,
            -0.178371399641037,
            0.11574779450893402,
            0.3441970646381378,
            0.2695121765136719,
            -0.5270108580589294,
            -0.30040374398231506,
            0.14992424845695496,
            -0.1323624849319458,
            -0.00729166017845273,
            -0.37914684414863586,
            0.04795476794242859,
            0.16108903288841248,
            -0.5884107947349548,
            0.3454837203025818,
            -0.20099271833896637,
            -0.34421437978744507,
            0.017482686787843704,
            -0.17603394389152527,
            -0.2215946763753891,
            0.1552315652370453,
            0.2517549991607666,
            0.08353343605995178,
            -0.18765608966350555,
            0.12272906303405762,
            0.20526297390460968,
            0.1523243486881256,
            -0.2733939290046692,
            0.3802236020565033,
            -0.5013645887374878,
            -0.29169636964797974,
            -1.0285700559616089,
            -0.526853621006012,
            -0.09932282567024231,
            -0.17851363122463226,
            0.6670029163360596,
            -0.6207194924354553,
            -0.2918909192085266,
            -0.5224277973175049,
            -0.13742594420909882,
            -0.014079881832003593,
            -0.9921201467514038,
            -0.20120444893836975,
            -0.0817117691040039,
            0.6662154197692871,
            -0.07655815780162811,
            0.44691845774650574,
            0.3546965420246124,
            0.4423334300518036,
            -0.6388885974884033,
            -0.7187908887863159,
            -0.15612533688545227,
            -0.6439186930656433,
            -0.7887750864028931,
            -0.12592990696430206,
            1.0481107234954834,
            -0.2920350432395935,
            -0.2707572281360626,
            0.17373999953269958,
            -0.03110385686159134,
            0.2122027575969696,
            0.33235597610473633,
            0.4392828047275543,
            -0.31995660066604614,
            -0.27646711468696594,
            0.049594245851039886,
            -0.6016384363174438,
            0.29354116320610046,
            -0.12258972972631454,
            -0.2697847783565521,
            -0.3208630084991455,
            0.21234512329101562,
            0.252866268157959,
            -0.04771553725004196,
            -0.45123082399368286,
            -0.21000957489013672,
            0.3523938059806824,
            -0.15036515891551971,
            -0.25230616331100464,
            -0.3164542019367218,
            -0.6936193704605103,
            -0.09696845710277557,
            -0.35798248648643494,
            -0.2576088607311249,
            -0.2560659348964691,
            0.2250545769929886,
            -0.2958728075027466,
            -0.2028694599866867,
            -0.39757296442985535,
            0.10631454735994339,
            0.1459113508462906,
            -0.5597571134567261,
            0.15746363997459412,
            -0.19202011823654175,
            -0.29192373156547546,
            -0.4084237813949585,
            -0.25998735427856445,
            -0.27974754571914673,
            0.09751950204372406,
            -0.7134789228439331,
            -0.2647623121738434,
            0.17566540837287903,
            -0.37035512924194336,
            -0.17180585861206055,
            0.29176464676856995,
            0.4179973304271698,
            0.3055553734302521,
            -0.18174701929092407,
            -0.24568326771259308,
            0.06929493695497513,
            -0.36301863193511963,
            -0.019165007397532463,
            -0.07828553020954132,
            -0.29746460914611816,
            -0.05888606607913971,
            -0.19531002640724182,
            0.00270468695089221,
            0.5996531248092651,
            -0.4124886095523834,
            0.25021249055862427,
            0.1308853179216385,
            0.06607392430305481,
            0.1455259919166565,
            0.21479001641273499,
            0.022240759804844856,
            -0.13230444490909576,
            -0.1009775698184967,
            -0.14120997488498688,
            -0.065135158598423,
            -0.26769784092903137,
            0.5274820923805237,
            0.33069178462028503,
            -0.3009735345840454,
            0.12258398532867432,
            0.16571536660194397,
            -0.04927292466163635,
            0.5824621915817261,
            -0.22096435725688934,
            0.20943009853363037,
            -0.4278196096420288,
            -0.07928000390529633,
            -0.37928506731987,
            0.5248139500617981,
            0.10869462043046951,
            -0.11907904595136642,
            -0.2482629269361496,
            -0.136943981051445,
            -0.29581138491630554,
            0.4020906686782837,
            0.04942068085074425,
            -0.02795148454606533,
            -0.09797804057598114,
            -0.23390629887580872,
            0.12108831107616425,
            0.08282016217708588,
            0.09654542058706284,
            -0.0708366334438324,
            -0.26726827025413513,
            0.1571112722158432,
            0.6976359486579895,
            0.07686049491167068,
            -0.06144730746746063,
            0.08236455172300339,
            0.3448430895805359,
            0.7242510318756104,
            0.055522069334983826,
            -0.08222627639770508,
            0.5717036128044128,
            0.41501137614250183,
            -0.6725264191627502,
            -0.08453123271465302,
            -0.2591703236103058,
            -0.045563869178295135,
            -0.17897145450115204,
            0.030210530385375023,
            0.8165817260742188,
            0.17544834315776825,
            -0.4022926390171051,
            0.2777683138847351,
            -0.04931476339697838,
            -0.20004265010356903,
            0.21141451597213745,
            0.08207519352436066,
            -0.2038913369178772,
            -0.3334457576274872,
            0.05683399364352226,
            -0.26112839579582214,
            0.16856035590171814,
            -0.37035292387008667,
            0.13952533900737762,
            0.05905376374721527,
            0.33764469623565674,
            -0.3827434480190277,
            0.01713620126247406,
            -0.3710426092147827,
            0.04099612683057785,
            0.10257448256015778,
            -0.43506142497062683,
            0.07794544100761414,
            0.3960377871990204,
            0.1769714206457138,
            -0.12687303125858307,
            -0.04540945589542389,
            0.2686362564563751,
            -0.411883682012558,
            -0.3380451798439026,
            0.18723446130752563,
            -0.15594184398651123,
            -0.2912648022174835,
            -0.18352550268173218,
            -0.22127623856067657,
            -0.2724892199039459,
            0.17321401834487915,
            0.10058240592479706,
            -0.583168625831604,
            -0.03457050770521164,
            1.063402533531189,
            0.40072518587112427,
            0.49845579266548157,
            0.24851875007152557,
            0.46557772159576416,
            0.04433650150895119,
            -0.5913423895835876,
            -0.006239228416234255,
            -0.4333389401435852,
            -0.4281390607357025,
            0.17740169167518616,
            -0.29396477341651917,
            -0.23271778225898743,
            0.3069322109222412,
            0.11573077738285065,
            0.05253835394978523,
            -0.4010164141654968,
            0.4589375853538513,
            0.7007439136505127,
            -0.029184935614466667,
            0.1506962925195694,
            0.18493995070457458,
            -0.15052540600299835,
            -0.7079384326934814,
            0.19210956990718842,
            -0.9858217835426331,
            0.6750797629356384,
            0.3212486207485199,
            -0.14455008506774902,
            -0.37529414892196655,
            -0.24560785293579102,
            0.010097255930304527,
            0.6999931335449219,
            0.41591280698776245,
            0.3429403007030487,
            -0.401111364364624,
            0.023755105212330818,
            -0.11870346963405609,
            0.4084937572479248,
            -0.18428100645542145,
            0.537405252456665,
            0.01772058941423893,
            0.5828996896743774,
            -0.8958929181098938,
            0.6459622383117676,
            0.3460450768470764,
            0.565686821937561,
            0.20601986348628998,
            0.12124893814325333,
            0.43338674306869507,
            0.317624568939209,
            0.21805112063884735,
            -0.4191023111343384,
            0.45524537563323975,
            -0.5133304595947266,
            0.2724345922470093,
            -0.14599543809890747,
            -0.2589779496192932,
            0.07425295561552048,
            0.29452747106552124,
            -0.018831482157111168,
            0.12274284660816193,
            0.021620286628603935,
            0.0660790428519249,
            0.3281656503677368,
            -1.2971290349960327,
            0.23911519348621368,
            -0.12033213675022125,
            -1.0225112438201904,
            0.06467483192682266,
            0.29762744903564453,
            0.06033928319811821,
            -0.7728738784790039,
            0.7115584015846252,
            -0.20300042629241943,
            -0.14803774654865265,
            -0.6702706217765808,
            0.024418972432613373,
            0.10694383084774017,
            -0.3338317573070526,
            -0.23896309733390808,
            0.17604024708271027,
            0.14654392004013062,
            -0.0836411789059639,
            0.011509655974805355,
            0.45445820689201355,
            -0.24575917422771454,
            0.13747677206993103,
            -0.26191389560699463,
            -0.3571869134902954,
            0.386731892824173,
            0.2728578746318817,
            -0.026170795783400536,
            -0.5377494692802429,
            -0.16387967765331268,
            0.24926070868968964,
            -0.09001731872558594,
            0.19618572294712067,
            -0.07027485966682434,
            -0.06808430701494217,
            0.12842467427253723,
            0.05232926830649376,
            0.05298225209116936,
            -0.10467169433832169,
            -0.42005014419555664,
            -0.408471018075943,
            -0.14469245076179504,
            -0.04777700826525688,
            0.01796327531337738,
            0.2577402889728546,
            0.33074864745140076,
            -0.13326425850391388,
            -0.1323702186346054,
            0.3203107714653015,
            0.5204804539680481,
            0.3459617793560028,
            0.8002191781997681,
            0.03753924369812012,
            -0.09465785324573517,
            0.1787460744380951,
            -0.059272199869155884,
            0.10009133815765381,
            -0.5954800844192505,
            0.27748191356658936,
            -0.16792209446430206,
            -0.1673620194196701,
            0.24548117816448212,
            -0.31681355834007263,
            -0.35710394382476807,
            0.21159105002880096,
            -0.027540605515241623,
            0.6329288482666016,
            -0.7461503148078918,
            -0.3427641689777374,
            -0.72756427526474,
            -0.20473434031009674,
            -0.5387351512908936,
            -0.6468825936317444,
            -0.5551227927207947,
            0.010089035145938396,
            -0.17800207436084747,
            0.07167187333106995,
            -0.507539689540863,
            -0.29872557520866394,
            -0.4621433615684509,
            -0.6344058513641357,
            -0.1743841916322708,
            0.11645364761352539,
            -0.028903039172291756,
            -0.10276693850755692,
            -0.058542609214782715,
            -0.5684453845024109,
            -0.22455774247646332,
            -0.084914930164814,
            0.025731950998306274,
            -0.2926018536090851,
            -0.12475089728832245,
            0.2869150936603546,
            -0.3094630241394043,
            -0.29244691133499146,
            0.04406178370118141,
            -0.6341067552566528,
            -0.4422529935836792,
            0.28907325863838196,
            0.2573651075363159,
            -0.36769744753837585,
            -0.25867003202438354,
            -0.2440979927778244,
            0.28448933362960815,
            -0.059953395277261734,
            0.37828317284584045,
            0.007501466199755669,
            -0.21897445619106293,
            0.16535596549510956,
            0.29855403304100037,
            0.2280673086643219,
            -0.1913386881351471,
            -0.34168124198913574,
            0.2545965611934662,
            -0.2022567242383957,
            -0.5032979846000671,
            0.2009430080652237,
            -0.008445522747933865,
            -0.013300884515047073,
            -0.2530038058757782,
            -0.2592476010322571,
            -0.22569772601127625,
            -0.10320468991994858,
            -0.07400720566511154,
            0.16410495340824127,
            0.09762810170650482,
            -0.06246286258101463,
            -0.09063400328159332,
            -0.4317580461502075,
            -0.260055810213089,
            -0.06355490535497665,
            0.06128115952014923,
            -0.20474368333816528,
            -0.4543529450893402,
            0.31173422932624817,
            -0.13399411737918854,
            0.7074793577194214,
            0.13306733965873718,
            0.41323214769363403,
            0.40859919786453247,
            0.33820292353630066,
            0.11153633892536163,
            -0.4342709183692932,
            0.1902100145816803,
            0.7106558680534363,
            0.09609199315309525,
            -0.19404342770576477,
            -0.4084000587463379,
            -0.6033442616462708,
            -0.0435672365128994,
            -0.6251322627067566,
            -0.43885308504104614,
            -0.2280244678258896,
            -0.11496841907501221,
            -0.12945415079593658,
            0.36984726786613464,
            -0.7936105728149414,
            0.2658396065235138,
            0.18885014951229095,
            0.3078295588493347,
            0.03929395601153374,
            0.23828794062137604,
            0.3802059590816498,
            -0.39952898025512695,
            0.23255197703838348,
            -0.18434232473373413,
            -0.9651641249656677,
            0.6643760800361633,
            0.04166107252240181,
            -0.19486384093761444,
            -0.7265796065330505,
            -0.3075855076313019,
            -0.5258486866950989,
            0.09769435226917267,
            -1.2765142917633057,
            0.025177806615829468,
            0.057589296251535416,
            -0.370393842458725,
            0.20285212993621826,
            -0.10364793986082077,
            -0.12800893187522888,
            -0.07075398415327072,
            -0.3811199367046356,
            0.12756012380123138,
            -0.46594172716140747,
            0.19496814906597137,
            -0.16374914348125458,
            -0.0769370049238205,
            -0.14897768199443817,
            0.11128160357475281,
            -0.18112505972385406,
            0.08288374543190002,
            -0.6323026418685913,
            -0.04602768272161484,
            -0.4654453694820404,
            -0.24388651549816132,
            0.266774445772171,
            -0.23056985437870026,
            0.4226304292678833,
            -0.16925737261772156,
            0.897304892539978,
            -0.6760738492012024,
            -0.057156916707754135,
            -0.26454809308052063,
            0.18168050050735474,
            -0.2022572159767151,
            -0.13161401450634003,
            -0.2801336348056793,
            -0.28044137358665466,
            -0.30146098136901855,
            -0.8502934575080872,
            -0.5202872157096863,
            0.0479697585105896,
            0.6461390852928162,
            -0.15781307220458984,
            0.38257429003715515,
            0.07431641966104507,
            0.06730958819389343,
            -0.32536807656288147,
            -0.4053029716014862,
            -0.43543046712875366,
            0.10241078585386276,
            -0.8611182570457458,
            -0.10646183043718338,
            0.7751807570457458,
            -0.1002332866191864,
            -0.2861790955066681,
            0.4575129449367523,
            -0.3152860105037689,
            0.062337033450603485,
            -1.0623338222503662,
            0.3986012637615204,
            -0.46829286217689514,
            -0.05609116330742836,
            -1.2340754270553589,
            -0.12934815883636475,
            0.4861621856689453,
            0.1056240051984787,
            -0.017135491594672203,
            -0.04997992888092995,
            0.32924163341522217,
            -0.47042885422706604,
            -0.047432154417037964,
            0.42705628275871277,
            0.15545721352100372,
            -0.18108540773391724,
            -0.4243942201137543,
            -0.495738685131073,
            0.24802379310131073,
            -0.06028766557574272,
            0.26842400431632996,
            -0.5428215265274048,
            -0.42053455114364624,
            -0.42077386379241943,
            0.25599780678749084,
            -0.15722113847732544,
            -0.23943759500980377,
            0.11683409661054611,
            -0.046847257763147354,
            -0.2894647419452667,
            -0.5179639458656311,
            -0.1873890608549118,
            -0.23456928133964539,
            -0.03297654911875725,
            -0.12258968502283096,
            -0.48024922609329224,
            -0.022557849064469337,
            -0.04569544270634651,
            0.7218818664550781,
            0.22405008971691132,
            -0.27416783571243286,
            0.38824689388275146,
            -0.12772111594676971,
            -0.058056727051734924,
            0.28502607345581055,
            0.1825013905763626,
            0.1440921425819397,
            0.02933996357023716,
            -0.5543738603591919,
            -0.4212588369846344,
            0.21341465413570404,
            0.20714673399925232,
            0.0056569236330688,
            -0.5988416075706482,
            0.7155645489692688,
            -0.024372542276978493,
            -0.06486212462186813,
            0.1822875738143921,
            0.5757343173027039,
            -0.18764615058898926,
            0.052381012588739395,
            0.07157605141401291,
            -0.09766446799039841,
            0.017567861825227737,
            0.21030202507972717,
            0.5178973078727722,
            0.23168110847473145,
            -0.2626556158065796,
            -0.008432348258793354,
            -0.20434434711933136,
            -0.058578185737133026,
            -0.12307880073785782,
            0.11891891062259674,
            -0.10908009856939316,
            -0.07754620164632797,
            -0.006183064077049494,
            -0.3928244113922119,
            -0.22582654654979706,
            -0.06653980910778046,
            -0.277430921792984,
            -0.0432807058095932,
            -0.09989959746599197,
            -0.08827459067106247,
            -0.05607854202389717,
            0.03569530323147774,
            0.1327788233757019,
            -0.6762693524360657,
            -0.3758243918418884,
            0.07559216767549515,
            -0.5682396292686462,
            -0.3346997797489166,
            -0.5326541066169739,
            0.3124958276748657,
            -0.5604260563850403,
            -0.4145670533180237,
            -0.35590511560440063,
            -0.16661027073860168,
            -0.8735982775688171,
            0.26251330971717834,
            0.22371239960193634,
            -0.12167470902204514,
            0.16797512769699097,
            0.24435941874980927,
            0.06178960204124451,
            0.1898525208234787,
            0.4304146468639374,
            -0.33058521151542664,
            0.03234056383371353,
            -0.32928723096847534,
            0.03644552826881409,
            -0.04448068514466286,
            -0.1110236868262291,
            -0.17216527462005615,
            -0.21812520921230316,
            -0.7531682252883911,
            0.05817994475364685,
            -0.43818265199661255,
            -0.3099541962146759,
            -0.1356639266014099,
            -0.09892856329679489,
            -0.17857781052589417,
            -0.08774754405021667,
            -0.36079660058021545,
            -0.12437956035137177,
            -0.0012163083301857114,
            0.17987701296806335,
            -0.10927894711494446,
            -0.15627674758434296,
            -0.32468166947364807,
            0.3444253206253052,
            -0.11861028522253036,
            0.3567773699760437,
            0.02261870726943016,
            -0.8017755150794983,
            0.19216181337833405,
            -0.21667934954166412,
            -0.38696378469467163,
            -0.20367668569087982,
            -0.09510306268930435,
            0.07466109097003937,
            -0.10482396930456161,
            0.8828320503234863,
            -0.1517329066991806,
            0.10717909783124924,
            -0.10125044733285904,
            -0.20768961310386658,
            0.42510589957237244,
            -1.1465977430343628,
            -1.2242372035980225,
            -0.520443856716156,
            -0.4681830406188965,
            -0.5960162281990051,
            -0.6883765459060669,
            0.21684390306472778,
            0.26737359166145325,
            -1.3495105504989624,
            0.6104609966278076,
            0.2970329225063324,
            -0.20687805116176605,
            -0.31159043312072754,
            -0.3820401728153229,
            -0.9051987528800964,
            -0.6651211977005005,
            0.9273830652236938,
            -0.3748787045478821,
            0.6960453987121582,
            0.4515729248523712,
            0.41578227281570435,
            0.5697539448738098,
            0.6113481521606445,
            -0.677598237991333,
            0.7496247887611389,
            -0.6060248017311096,
            0.47515395283699036,
            0.48015719652175903,
            -0.5048112869262695
        ],
        "bias": [
            0.1688464879989624,
            -0.558809757232666,
            -0.21615174412727356,
            0.003746587783098221,
            -0.309221088886261,
            0.243266761302948,
            -0.3162875771522522,
            -0.11259898543357849,
            -1.686337947845459,
            0.3645534813404083,
            0.3323409855365753,
            -0.14570459723472595,
            -0.7573309540748596,
            0.022410385310649872,
            0.5409970879554749,
            -0.6075056791305542,
            -1.345471739768982,
            -1.9933832883834839,
            -0.7565916180610657,
            -1.7524900436401367,
            -0.4005128741264343,
            0.15518994629383087,
            0.2915780544281006,
            0.08087383210659027,
            -0.3342485725879669,
            -0.27631714940071106,
            0.07544532418251038,
            -0.5042174458503723,
            -1.8353954553604126,
            -0.16537943482398987,
            -0.3422759175300598,
            -0.34879830479621887,
            -0.6768214702606201,
            -0.2120250165462494,
            -0.45926162600517273,
            -0.7891875505447388,
            -0.22512952983379364,
            -0.19548699259757996,
            -0.3234328627586365,
            -0.44751930236816406,
            -0.5806751847267151,
            -0.04884602501988411,
            -0.2775072157382965,
            -0.6726417541503906,
            -0.14561274647712708,
            -0.10717938840389252,
            -1.2353780269622803,
            1.2186757326126099,
            -0.20220696926116943,
            -0.08923638612031937,
            0.6953798532485962,
            -0.5207934975624084,
            -0.363954097032547,
            0.7637582421302795,
            -0.255290150642395,
            0.22371965646743774,
            -0.39928534626960754,
            -0.22385278344154358,
            0.4896337389945984,
            -0.19418266415596008,
            -2.876624822616577
        ]
    },
    "policy": {
        "hidden_layer_size": 30,
        "hidden_layer_count": 2,
        "weights": [
            -0.008530386723577976,
            0.18974578380584717,
            -0.33810850977897644,
            0.004701865836977959,
            0.06662251055240631,
            0.24670204520225525,
            -0.005871097557246685,
            0.21408304572105408,
            0.21168839931488037,
            -0.0777452290058136,
            0.3124275505542755,
            0.4159969687461853,
            -0.1035979613661766,
            0.5876125693321228,
            0.367012619972229,
            -0.0870743915438652,
            0.22983941435813904,
            0.568037748336792,
            0.45951423048973083,
            0.27526089549064636,
            -0.28090882301330566,
            0.6220462918281555,
            0.28905847668647766,
            -0.3538804054260254,
            -0.5617051720619202,
            0.8895315527915955,
            0.0005514296935871243,
            -0.05558574199676514,
            -0.3234938979148865,
            -0.08529183268547058,
            -0.4471835792064667,
            0.22097650170326233,
            0.5800343155860901,
            -0.013269217684864998,
            -0.2887718379497528,
            0.3540540039539337,
            0.7688475847244263,
            -0.34696459770202637,
            0.31216463446617126,
            0.2844043970108032,
            -0.3125395178794861,
            0.14237478375434875,
            -0.2850497364997864,
            0.05985255539417267,
            0.1777249127626419,
            0.10601229965686798,
            0.20137006044387817,
            -0.1662893146276474,
            -0.04823104664683342,
            -0.045686740428209305,
            -0.35780394077301025,
            -0.29478949308395386,
            0.19070935249328613,
            -0.030482683330774307,
            -0.0992317870259285,
            0.460470974445343,
            -0.43489333987236023,
            -0.00436900369822979,
            -0.4239589273929596,
            0.5344159007072449,
            -0.3351918160915375,
            -0.16202731430530548,
            -0.07821803539991379,
            0.1506829708814621,
            1.2343286275863647,
            0.5933729410171509,
            0.17468851804733276,
            -0.6924293637275696,
            0.07135970890522003,
            -0.22405262291431427,
            0.8847127556800842,
            0.035228874534368515,
            0.11803915351629257,
            0.01842845417559147,
            0.4510672092437744,
            -0.005558003671467304,
            0.44836264848709106,
            0.26355770230293274,
            0.551075279712677,
            -0.47740909457206726,
            -0.23061072826385498,
            -0.08593413233757019,
            -0.04654186964035034,
            -0.4333009123802185,
            -0.06438104063272476,
            0.7860241532325745,
            -0.5133819580078125,
            -0.2696838974952698,
            -0.4563175439834595,
            -0.024724150076508522,
            -0.28573688864707947,
            -0.03655165061354637,
            -0.4149807393550873,
            -0.11188728362321854,
            0.526263952255249,
            0.1434498280286789,
            0.5132080316543579,
            0.5285906791687012,
            0.3721725046634674,
            -0.037515006959438324,
            -0.32980719208717346,
            0.013349172659218311,
            -0.18260568380355835,
            -0.37064415216445923,
            0.16787569224834442,
            0.8677433133125305,
            -0.0057123079895973206,
            0.4296843409538269,
            -0.5717971920967102,
            -0.1285163015127182,
            -0.29910072684288025,
            0.3979920446872711,
            -0.36464765667915344,
            0.2715541124343872,
            0.6596221327781677,
            0.1407240480184555,
            -0.2985430359840393,
            0.9355002045631409,
            0.14137202501296997,
            0.04874017834663391,
            0.3184784948825836,
            0.07900558412075043,
            0.33076080679893494,
            0.4075913429260254,
            0.24582098424434662,
            0.0612838976085186,
            0.09054169058799744,
            0.41362789273262024,
            0.16455182433128357,
            0.5915338397026062,
            0.24642843008041382,
            0.3232342600822449,
            0.31388527154922485,
            -0.09549302607774734,
            -0.06705677509307861,
            0.10102895647287369,
            -0.367156982421875,
            -0.8178793787956238,
            -0.5532437562942505,
            -0.10052228718996048,
            0.678760290145874,
            -0.09933190047740936,
            0.09705481678247452,
            -0.49036142230033875,
            -0.4633750915527344,
            -0.28632286190986633,
            0.3960275948047638,
            -0.14588415622711182,
            -0.5863484144210815,
            -0.39021337032318115,
            -0.356221467256546,
            0.10658996552228928,
            -0.03816773369908333,
            0.20100818574428558,
            0.18494781851768494,
            0.2043173909187317,
            -0.015063434839248657,
            -0.12121815234422684,
            -0.5262501835823059,
            -0.32583820819854736,
            0.7238396406173706,
            -0.25025126338005066,
            0.043934449553489685,
            -0.2763094902038574,
            -0.7188979983329773,
            0.31690704822540283,
            0.10539155453443527,
            0.31217360496520996,
            -0.08342724293470383,
            0.20428064465522766,
            0.22502760589122772,
            0.22223588824272156,
            0.09034737199544907,
            0.22923409938812256,
            0.050058044493198395,
            0.23264643549919128,
            -0.6732594966888428,
            -0.47965702414512634,
            -0.26365697383880615,
            -0.002403739606961608,
            0.06312756985425949,
            0.11557699739933014,
            -0.8148566484451294,
            -0.663565993309021,
            0.4964929223060608,
            -0.6226139068603516,
            0.2549154758453369,
            -0.020523790270090103,
            0.10691457986831665,
            0.07070836424827576,
            -0.2477729320526123,
            -0.15526443719863892,
            -0.4290195107460022,
            -0.6344885230064392,
            -0.043942976742982864,
            0.08445452898740768,
            -0.373160719871521,
            0.18409255146980286,
            -0.31843310594558716,
            0.29449760913848877,
            -0.24735327064990997,
            -0.6388982534408569,
            -0.2026004195213318,
            -0.27596110105514526,
            0.27714383602142334,
            -0.16368260979652405,
            -0.3031933009624481,
            -0.2692292034626007,
            -0.29636481404304504,
            -0.06600001454353333,
            -0.33737650513648987,
            0.5510971546173096,
            -0.3094205856323242,
            0.3329143822193146,
            0.4375234544277191,
            0.47034695744514465,
            0.30375370383262634,
            -0.2945711314678192,
            0.5829170346260071,
            0.6442521214485168,
            0.3742702007293701,
            -0.41161030530929565,
            0.2976222038269043,
            -0.21658247709274292,
            -0.6488980054855347,
            -0.5708062052726746,
            0.2762557566165924,
            -0.7403191328048706,
            0.17207448184490204,
            -0.4369902014732361,
            0.050593338906764984,
            0.038800399750471115,
            -0.030040541663765907,
            0.6553502082824707,
            -0.2697521150112152,
            -0.397798627614975,
            -0.29334479570388794,
            -0.03129058703780174,
            0.7158074975013733,
            -0.06292900443077087,
            0.06996128708124161,
            0.18050672113895416,
            -0.30775928497314453,
            -0.41149020195007324,
            0.28970587253570557,
            0.26463913917541504,
            0.1606346219778061,
            -0.5451850891113281,
            0.4118688404560089,
            0.780588686466217,
            -0.3509814143180847,
            0.07748140394687653,
            0.09151528030633926,
            -0.5047011971473694,
            -0.4848870038986206,
            0.037091512233018875,
            -0.8237214684486389,
            0.11151312291622162,
            -0.15059351921081543,
            0.09281135350465775,
            0.34200572967529297,
            -0.37135136127471924,
            0.1231183186173439,
            0.45610761642456055,
            0.2875107526779175,
            -0.2681054472923279,
            -0.034685347229242325,
            0.24918390810489655,
            0.29715171456336975,
            -0.42142319679260254,
            -0.4118601381778717,
            0.6018944978713989,
            -0.17376984655857086,
            -0.2089870572090149,
            0.21958373486995697,
            0.07622743397951126,
            -0.43180060386657715,
            -0.46218183636665344,
            -0.08810770511627197,
            0.1867677867412567,
            0.5746991634368896,
            0.8295431733131409,
            -0.06747524440288544,
            0.21010954678058624,
            0.4382285177707672,
            0.2463209331035614,
            0.19355933368206024,
            0.3276514708995819,
            -0.38465458154678345,
            0.34377655386924744,
            -0.217844620347023,
            -0.24249009788036346,
            -0.5054968595504761,
            -0.46951618790626526,
            -0.489047110080719,
            0.42056748270988464,
            -0.13842594623565674,
            -0.34133678674697876,
            0.27386194467544556,
            0.27009519934654236,
            0.6441938877105713,
            0.12655383348464966,
            0.17343081533908844,
            -0.27677157521247864,
            0.24289511144161224,
            -0.04023641720414162,
            -0.45985427498817444,
            -0.051400668919086456,
            -0.030256405472755432,
            0.10547637939453125,
            0.3763865828514099,
            -0.014458032324910164,
            0.04945945739746094,
            -0.11355851590633392,
            -0.2748362720012665,
            -0.2530159056186676,
            -0.5410268306732178,
            -0.04981641471385956,
            -0.23394502699375153,
            0.24505306780338287,
            -0.49400511384010315,
            -0.2829250991344452,
            0.10010503232479095,
            -0.2838582694530487,
            -0.20040710270404816,
            0.08531337231397629,
            -0.02521141991019249,
            -0.117818184196949,
            0.3703433871269226,
            0.6092714071273804,
            -0.6308867931365967,
            -0.30802300572395325,
            0.37999823689460754,
            -0.5839158296585083,
            -0.109800785779953,
            -0.36534544825553894,
            -0.13921836018562317,
            0.31643351912498474,
            -0.5569106340408325,
            -0.20734111964702606,
            -0.6049485206604004,
            0.2770204544067383,
            0.596183180809021,
            0.6594947576522827,
            0.804406464099884,
            -0.026967408135533333,
            0.09154151380062103,
            -0.21564677357673645,
            -0.39520642161369324,
            -0.22056974470615387,
            -0.2722054719924927,
            0.15763306617736816,
            0.051649708300828934,
            -0.826873242855072,
            -0.18633289635181427,
            -0.12134489417076111,
            0.4914931356906891,
            0.031616512686014175,
            0.052462026476860046,
            0.5542541742324829,
            -0.2593912184238434,
            0.09471640735864639,
            -0.340728759765625,
            0.5131404399871826,
            0.39837324619293213,
            -0.12021307647228241,
            -0.28790000081062317,
            0.11929813027381897,
            -0.40236765146255493,
            -0.4949571490287781,
            -0.0602773055434227,
            -0.21371813118457794,
            0.36890050768852234,
            -0.1262231469154358,
            0.6712267994880676,
            0.22569382190704346,
            -0.09186746180057526,
            -0.26567158102989197,
            -0.4288223385810852,
            0.45362532138824463,
            0.7641100287437439,
            0.053381819278001785,
            -0.28393790125846863,
            -0.08171604573726654,
            0.32423269748687744,
            0.04830962419509888,
            -0.19929257035255432,
            0.03589387983083725,
            -0.2451627254486084,
            -0.36526235938072205,
            -0.30876126885414124,
            -0.5099133253097534,
            -0.015471321530640125,
            -0.046081241220235825,
            0.10177459567785263,
            0.217544823884964,
            0.2263207882642746,
            0.12460239231586456,
            0.21607351303100586,
            -0.308447927236557,
            -0.0688028633594513,
            -0.2483646273612976,
            0.16999974846839905,
            -0.36121031641960144,
            0.1282486617565155,
            -0.13699163496494293,
            0.6328384280204773,
            -0.23894236981868744,
            0.07068958133459091,
            0.4113800525665283,
            0.3009188175201416,
            0.4327167570590973,
            0.061602022498846054,
            -0.31608250737190247,
            0.26748988032341003,
            -0.2788625657558441,
            -0.05222576856613159,
            0.24735215306282043,
            -0.285760760307312,
            0.3283703327178955,
            0.6036359667778015,
            0.05271197855472565,
            -0.1490558534860611,
            0.10077548772096634,
            0.30349186062812805,
            0.3249320685863495,
            -0.04503989592194557,
            0.2163102626800537,
            -0.20528119802474976,
            0.4527834355831146,
            -0.1597212702035904,
            -0.3059142529964447,
            -0.5085317492485046,
            -0.48404228687286377,
            -0.5819947123527527,
            0.022268950939178467,
            -0.6604569554328918,
            -0.3577383756637573,
            0.06866951286792755,
            0.44112253189086914,
            0.06784145534038544,
            -0.17820079624652863,
            0.2669556736946106,
            -0.29303473234176636,
            0.3752405345439911,
            0.33848193287849426,
            -0.12563861906528473,
            -0.20713619887828827,
            -0.8069674372673035,
            0.14942853152751923,
            0.08164262026548386,
            0.45937734842300415,
            -0.49108490347862244,
            0.3273169696331024,
            -0.06271389126777649,
            -0.3175137937068939,
            -0.03388024866580963,
            0.26359426975250244,
            -0.41132262349128723,
            -0.14957962930202484,
            0.41375574469566345,
            0.7250062227249146,
            0.6049918532371521,
            -0.5291708707809448,
            -0.12813787162303925,
            0.3989947736263275,
            -0.3635849356651306,
            0.191334530711174,
            0.21659372746944427,
            0.22855007648468018,
            0.47410154342651367,
            -0.23856942355632782,
            0.4149402678012848,
            -0.17354604601860046,
            0.20551958680152893,
            -0.33110469579696655,
            0.5912661552429199,
            -0.5479094982147217,
            0.31459560990333557,
            -0.17045807838439941,
            -0.2564413249492645,
            -0.28332215547561646,
            -0.14492860436439514,
            0.11272244155406952,
            0.37115782499313354,
            0.3665199875831604,
            -0.6264312863349915,
            -0.0017438209615647793,
            -0.03954898193478584,
            -0.12391340732574463,
            -0.25525689125061035,
            0.1662939190864563,
            0.2502190172672272,
            0.04589510336518288,
            -0.12401609122753143,
            -0.47608673572540283,
            0.11947817355394363,
            0.22871741652488708,
            -0.1313917338848114,
            -0.06413648277521133,
            -0.14326952397823334,
            0.3166062831878662,
            -0.01206268835812807,
            -0.3564126789569855,
            -0.41111990809440613,
            0.3898327648639679,
            0.3935747444629669,
            0.04389731213450432,
            -0.12048757821321487,
            -0.1755896806716919,
            -0.29346969723701477,
            -0.15488237142562866,
            -0.033248502761125565,
            -0.20092995464801788,
            0.11315209418535233,
            -0.12043331563472748,
            0.028990205377340317,
            -0.06253186613321304,
            0.22669820487499237,
            -0.18487359583377838,
            -0.35354891419410706,
            -0.35187196731567383,
            0.19259841740131378,
            -0.7243101000785828,
            -0.6192423105239868,
            0.18102839589118958,
            -0.19001619517803192,
            -0.1913953423500061,
            -0.19087037444114685,
            -0.1344631314277649,
            -0.37886855006217957,
            -0.2142707258462906,
            -0.09545961767435074,
            0.5282614827156067,
            -0.24590422213077545,
            0.2551417946815491,
            -0.07172359526157379,
            -0.12639139592647552,
            0.39457470178604126,
            0.234353169798851,
            0.2578990161418915,
            0.024488110095262527,
            -0.3284498453140259,
            0.14583373069763184,
            -0.5149886608123779,
            0.2102288454771042,
            -0.4932604730129242,
            0.41166868805885315,
            -0.6027503609657288,
            0.2583182156085968,
            -0.040196742862463,
            0.14561863243579865,
            -0.1079389825463295,
            0.24765677750110626,
            0.2147064059972763,
            -0.07444712519645691,
            0.0024420353583991528,
            0.32339295744895935,
            0.022135712206363678,
            -0.3653634488582611,
            0.40993672609329224,
            -0.3826107680797577,
            -0.11109321564435959,
            0.43942540884017944,
            0.009851527400314808,
            0.009094576351344585,
            -0.11813189834356308,
            -0.32089775800704956,
            0.41017186641693115,
            0.3597184419631958,
            -0.057489149272441864,
            0.31494274735450745,
            -0.1516083925962448,
            -0.08412355929613113,
            0.2147660255432129,
            0.04266573488712311,
            -0.15035921335220337,
            -0.4188701808452606,
            -0.1963411271572113,
            -0.23930339515209198,
            -0.08068108558654785,
            -0.3648335933685303,
            0.09396064281463623,
            -0.09596610069274902,
            0.4320569932460785,
            -0.07701925188302994,
            0.05659628286957741,
            0.6829052567481995,
            0.08708373457193375,
            -0.38093796372413635,
            -0.00551224360242486,
            -0.07095575332641602,
            -0.03786471113562584,
            -0.1700611561536789,
            0.1998850703239441,
            -0.22565647959709167,
            -0.27298370003700256,
            0.06419681012630463,
            0.3965323269367218,
            -0.3180354833602905,
            0.21332025527954102,
            0.1527559459209442,
            0.23190483450889587,
            -0.08658891171216965,
            0.42818689346313477,
            -0.2172044962644577,
            0.2124418318271637,
            0.004439100157469511,
            -0.24943572282791138,
            -0.13640068471431732,
            0.025555981323122978,
            -0.22736544907093048,
            -0.31942877173423767,
            0.12222138047218323,
            -0.9169632792472839,
            0.09134965389966965,
            0.025159629061818123,
            0.27042222023010254,
            -0.5946254134178162,
            0.3398181200027466,
            -0.03374927118420601,
            0.05669578164815903,
            -0.09224411845207214,
            -0.3957308232784271,
            -0.38935187458992004,
            0.4232877492904663,
            0.042212001979351044,
            -0.04486791789531708,
            -0.14824624359607697,
            -0.11658816784620285,
            -0.29266440868377686,
            0.5437175035476685,
            0.16231444478034973,
            -0.1937188059091568,
            0.18570412695407867,
            -0.5072207450866699,
            0.21822744607925415,
            -0.11983911693096161,
            0.3525540828704834,
            -0.13188758492469788,
            0.24200740456581116,
            0.3211207687854767,
            0.32895606756210327,
            0.02377450279891491,
            -0.275577187538147,
            -0.03127073496580124,
            0.0047010756097733974,
            0.3790065050125122,
            -0.03297485411167145,
            0.1228276938199997,
            -0.4015871286392212,
            -0.2325390875339508,
            -0.43510502576828003,
            0.27960020303726196,
            0.584430456161499,
            -0.5000911951065063,
            0.5319100022315979,
            -0.3952944874763489,
            0.02225123532116413,
            0.009559574536979198,
            -0.015860294923186302,
            -0.26470082998275757,
            -0.08694541454315186,
            0.2826234698295593,
            0.1119147390127182,
            -0.030539419502019882,
            0.13492988049983978,
            -0.15168780088424683,
            -0.06823913007974625,
            0.09418119490146637,
            -0.43341028690338135,
            0.13746243715286255,
            0.027383560314774513,
            0.037528544664382935,
            -0.03184506297111511,
            0.09875643998384476,
            -0.26864996552467346,
            0.174770787358284,
            -0.29592275619506836,
            -0.08501880615949631,
            -0.3118242919445038,
            -0.3108774423599243,
            -0.03272418677806854,
            -0.073666512966156,
            -0.24620574712753296,
            -0.01896044984459877,
            0.0726446807384491,
            -0.14314547181129456,
            -0.5624843835830688,
            -0.22128067910671234,
            0.1601703017950058,
            0.1388154923915863,
            0.3026306629180908,
            -0.30114349722862244,
            0.550781786441803,
            0.846645176410675,
            0.3860446810722351,
            -0.013416311703622341,
            0.08412054181098938,
            0.20898033678531647,
            0.11073442548513412,
            0.5548068881034851,
            -0.02808373235166073,
            -0.3191719949245453,
            0.1994248330593109,
            -0.2925920784473419,
            -0.08009934425354004,
            -0.23358099162578583,
            0.35386911034584045,
            0.03399784862995148,
            -0.058067772537469864,
            0.07630801200866699,
            0.24288277328014374,
            -0.07651223987340927,
            -0.06439055502414703,
            -0.41802680492401123,
            0.17276835441589355,
            -0.19274304807186127,
            0.22951889038085938,
            0.22195932269096375,
            0.2700671851634979,
            -0.0678420290350914,
            0.1598050892353058,
            -0.4483049809932709,
            -0.43679895997047424,
            -0.1566479206085205,
            -0.19249923527240753,
            -0.08305913209915161,
            0.06611213833093643,
            0.4634110927581787,
            -0.5242288112640381,
            -0.30714914202690125,
            0.2591102719306946,
            0.20907378196716309,
            0.3757335841655731,
            -0.3007062077522278,
            0.5541251301765442,
            -0.15523943305015564,
            -0.09916981309652328,
            0.3935889005661011,
            -0.08531849086284637,
            0.4229445457458496,
            -0.1559685319662094,
            0.0024432227946817875,
            0.12151194363832474,
            0.23881781101226807,
            0.09263020008802414,
            0.5779480338096619,
            0.29233217239379883,
            0.10625194013118744,
            0.34352174401283264,
            0.10118480026721954,
            -0.09201780706644058,
            0.34562259912490845,
            0.5220956802368164,
            0.025286702439188957,
            0.05330990254878998,
            0.11829575896263123,
            -0.22508276998996735,
            -0.618979275226593,
            0.10941020399332047,
            0.02543492428958416,
            -0.26555752754211426,
            0.05932866036891937,
            -0.009811819531023502,
            0.2315916121006012,
            0.15572336316108704,
            0.09049346297979355,
            -0.000806236348580569,
            -0.09062018990516663,
            0.1713821142911911,
            -0.2832556962966919,
            -0.02977093867957592,
            0.11232458800077438,
            0.31934854388237,
            -0.46052470803260803,
            -0.03726914897561073,
            0.5191816687583923,
            0.08244552463293076,
            -0.09150683879852295,
            -0.0016550078289583325,
            0.298472136259079,
            0.12791673839092255,
            0.06163771450519562,
            -0.41922804713249207,
            -0.39636293053627014,
            0.13962113857269287,
            0.24071820080280304,
            0.37995514273643494,
            0.465568482875824,
            -0.06699264049530029,
            0.06272634863853455,
            0.04881961643695831,
            -0.13640691339969635,
            0.3419091999530792,
            0.10477761924266815,
            0.0764438733458519,
            -0.014203972183167934,
            0.3794296979904175,
            0.3704219460487366,
            0.5017739534378052,
            -0.22531260550022125,
            -0.6290639638900757,
            0.5275502800941467,
            -0.10104132443666458,
            -0.2754577398300171,
            0.18599508702754974,
            0.5877588391304016,
            -0.4537903964519501,
            0.4367090165615082,
            -0.08099345862865448,
            0.15255479514598846,
            -0.14604175090789795,
            -0.19254329800605774,
            -0.2744233012199402,
            0.2778393626213074,
            0.2940737307071686,
            0.09872566908597946,
            -0.32181909680366516,
            0.11060799658298492,
            -0.08513994514942169,
            0.2589069604873657,
            0.2728046476840973,
            0.0016921283677220345,
            -0.008077986538410187,
            0.2525017559528351,
            0.1854851096868515,
            -0.22067846357822418,
            0.24336431920528412,
            0.21673321723937988,
            -0.5144855380058289,
            -0.13929560780525208,
            -0.14390456676483154,
            -0.09706506878137589,
            0.1986248940229416,
            0.2265658676624298,
            -0.13265229761600494,
            -0.3322909474372864,
            -0.08869925141334534,
            -0.06747591495513916,
            0.07074533402919769,
            0.08347596228122711,
            -0.4405593276023865,
            -0.11465245485305786,
            -0.12364531308412552,
            0.4724528193473816,
            0.10275496542453766,
            -0.04776773601770401,
            0.3236764669418335,
            0.0417744517326355,
            0.12207408994436264,
            -0.24653360247612,
            -0.1513005644083023,
            0.09957627952098846,
            0.1436653584241867,
            -0.032962437719106674,
            0.07528673857450485,
            0.37680065631866455,
            0.42934006452560425,
            0.024223869666457176,
            -0.300688236951828,
            0.640047013759613,
            -0.28883659839630127,
            -0.0747022032737732,
            0.012686899863183498,
            0.09551794826984406,
            -0.10882352292537689,
            0.14312130212783813,
            0.27293601632118225,
            0.2259257584810257,
            0.5247304439544678,
            0.6272512078285217,
            -0.10253500938415527,
            -0.22291500866413116,
            0.4092828631401062,
            0.09055829793214798,
            0.45573940873146057,
            -0.22951841354370117,
            0.2176038920879364,
            0.261488676071167,
            0.2383616417646408,
            0.2165421098470688,
            -0.1761171966791153,
            0.2880650758743286,
            -0.30692216753959656,
            -0.18795143067836761,
            0.21479599177837372,
            0.6578677892684937,
            0.4087963104248047,
            -0.21127283573150635,
            -0.1521858125925064,
            0.07900433987379074,
            0.29763415455818176,
            -0.0586979053914547,
            0.1784561276435852,
            0.39664793014526367,
            0.11287301033735275,
            -0.06223343685269356,
            0.17075909674167633,
            -0.032773442566394806,
            -0.2382039725780487,
            -0.17783097922801971,
            0.15134797990322113,
            0.10758983343839645,
            -0.3725697696208954,
            -0.14793242514133453,
            -0.023331506177783012,
            0.23591279983520508,
            -0.25903937220573425,
            0.02598557434976101,
            0.039484575390815735,
            0.2778227925300598,
            -0.1923445761203766,
            -0.010516919195652008,
            -0.46842557191848755,
            0.2313651442527771,
            0.11907325685024261,
            -0.2947697341442108,
            -0.008311117999255657,
            -0.49788665771484375,
            -0.5591408610343933,
            -0.040110278874635696,
            0.002290186006575823,
            0.20194639265537262,
            -0.40613287687301636,
            -0.1306953728199005,
            -0.06821923702955246,
            0.4444397985935211,
            -0.4442794919013977,
            -0.3331255316734314,
            -0.2883988320827484,
            -0.3146440088748932,
            -0.20508283376693726,
            0.015679769217967987,
            -0.000696465780492872,
            -0.3744208812713623,
            0.2063458114862442,
            -0.08018808811903,
            -0.027268555015325546,
            -0.18629439175128937,
            0.12689343094825745,
            0.35047647356987,
            0.004870594013482332,
            0.06550729274749756,
            -0.15062874555587769,
            -0.4121986925601959,
            -0.3531336188316345,
            -0.20437203347682953,
            -0.2381831854581833,
            -0.3641811013221741,
            0.2384348213672638,
            0.0697489008307457,
            -0.250553697347641,
            0.1641809344291687,
            -0.10986708849668503,
            0.06306816637516022,
            0.13506664335727692,
            0.364702969789505,
            -0.09968999028205872,
            -0.030274391174316406,
            -0.0006706690764985979,
            0.18148672580718994,
            0.25121158361434937,
            0.7273544073104858,
            -0.574146032333374,
            0.22381636500358582,
            -0.2926119565963745,
            -0.2437666654586792,
            0.0070563615299761295,
            -0.010288874618709087,
            0.3970871567726135,
            -0.12216510623693466,
            0.12522050738334656,
            -0.4397087097167969,
            -0.006337656173855066,
            -0.5927021503448486,
            0.15006187558174133,
            0.27535203099250793,
            -0.2859288156032562,
            -0.029080606997013092,
            0.3976217210292816,
            0.02415565401315689,
            0.10733825713396072,
            -0.09516417235136032,
            0.6993064880371094,
            0.039018675684928894,
            0.13143467903137207,
            0.20509688556194305,
            -0.07762511819601059,
            0.44803327322006226,
            -0.48645660281181335,
            0.19747047126293182,
            -0.029903925955295563,
            0.06597056239843369,
            0.1528143584728241,
            -0.20160715281963348,
            -0.08242407441139221,
            -0.39305222034454346,
            -0.34371718764305115,
            0.02069850079715252,
            0.0813722014427185,
            0.17826378345489502,
            0.9428431987762451,
            0.11867917329072952,
            0.23427709937095642,
            0.033285774290561676,
            0.010986903682351112,
            0.005496875382959843,
            -0.3238734304904938,
            -0.1800047606229782,
            -0.04628957062959671,
            -0.522324800491333,
            -0.09709694981575012,
            -0.04200497642159462,
            0.3590517044067383,
            0.05922317877411842,
            0.0771944597363472,
            -0.38447967171669006,
            -0.21261633932590485,
            0.2828986942768097,
            0.33315545320510864,
            0.17424780130386353,
            0.13805313408374786,
            -0.006325867958366871,
            -0.14386647939682007,
            -0.30352523922920227,
            -0.20442363619804382,
            -0.25767627358436584,
            -0.2772418260574341,
            -0.11137975752353668,
            0.6386207938194275,
            0.29754742980003357,
            0.0460640974342823,
            -0.10105573385953903,
            -0.007219660561531782,
            0.23127855360507965,
            -0.16516974568367004,
            0.17029014229774475,
            -0.12414334714412689,
            0.0037779349368065596,
            0.14741989970207214,
            0.002641565864905715,
            -0.051496561616659164,
            -0.2199479639530182,
            -0.157514289021492,
            -0.11221668869256973,
            0.20412366092205048,
            -0.10785049200057983,
            -0.06359770148992538,
            -0.2269957810640335,
            0.017543451860547066,
            -0.21090205013751984,
            0.07587117701768875,
            -0.09574882686138153,
            0.07260336726903915,
            0.24105900526046753,
            -0.15357917547225952,
            0.30042555928230286,
            0.32528936862945557,
            -0.36782020330429077,
            0.3974914848804474,
            -0.21180187165737152,
            -0.09297490119934082,
            0.5192230939865112,
            0.017150072380900383,
            -0.15269526839256287,
            0.17751754820346832,
            0.035305414348840714,
            0.04269774258136749,
            0.09752525389194489,
            0.13007527589797974,
            -0.021643448621034622,
            -0.10002343356609344,
            -0.6220622658729553,
            -0.05971742793917656,
            -0.21806123852729797,
            -0.18054351210594177,
            -0.3889685273170471,
            -0.04851537570357323,
            0.1776367574930191,
            -0.46520736813545227,
            -0.0687861517071724,
            0.0571739487349987,
            0.29909929633140564,
            -0.2559461295604706,
            -0.07839716225862503,
            0.2386258989572525,
            0.27484044432640076,
            -0.3771398067474365,
            -0.20507614314556122,
            0.16932515799999237,
            0.04365872964262962,
            -0.08165832608938217,
            -0.12083924561738968,
            0.26629310846328735,
            0.14798840880393982,
            0.43431398272514343,
            0.18512077629566193,
            0.6741816401481628,
            -0.08586828410625458,
            -0.15183337032794952,
            0.29677969217300415,
            0.04968646168708801,
            0.1610458493232727,
            0.29720109701156616,
            -0.11717833578586578,
            -0.21341678500175476,
            0.23419757187366486,
            -0.06481581181287766,
            0.08771849423646927,
            -0.365028440952301,
            -0.042477600276470184,
            -0.011041857302188873,
            -0.3544635474681854,
            -0.48767444491386414,
            0.3400854170322418,
            -0.004646996036171913,
            0.3715091645717621,
            0.10371175408363342,
            0.41726723313331604,
            0.26024380326271057,
            0.1973671019077301,
            -0.06926599889993668,
            0.12238994985818863,
            0.056019388139247894,
            0.2547960579395294,
            0.2202155739068985,
            0.11013032495975494,
            -0.054914429783821106,
            0.06370651721954346,
            0.2543829381465912,
            -0.3883795440196991,
            0.4081189036369324,
            -0.02965058758854866,
            -0.05468492582440376,
            0.1669287532567978,
            0.300847589969635,
            0.24037809669971466,
            0.4587356746196747,
            -0.14619910717010498,
            -0.23795591294765472,
            -0.23241208493709564,
            -0.00792439840734005,
            -0.3699006736278534,
            -0.110216423869133,
            -0.3607647120952606,
            0.30344247817993164,
            0.24435025453567505,
            -0.24227216839790344,
            -0.2393065094947815,
            -0.08452648669481277,
            0.25466927886009216,
            -0.012087280862033367,
            -0.3149503767490387,
            -0.40105634927749634,
            -0.4352956712245941,
            0.12431442737579346,
            0.10913149267435074,
            -0.46426519751548767,
            0.08644010126590729,
            0.3196830451488495,
            -0.4034317135810852,
            -0.1625807285308838,
            -0.010854248888790607,
            -0.15619367361068726,
            -0.09753472357988358,
            0.34829410910606384,
            0.04181322827935219,
            -0.0030328724533319473,
            0.2492508590221405,
            0.07128436863422394,
            -0.11206132173538208,
            -0.11700549721717834,
            -0.20302169024944305,
            0.09764701873064041,
            0.40616095066070557,
            -0.34159719944000244,
            0.44606101512908936,
            -0.07451096922159195,
            -0.34126925468444824,
            -0.000768862955737859,
            -0.15787582099437714,
            -0.023899756371974945,
            -0.19204270839691162,
            0.17210868000984192,
            -0.17575885355472565,
            0.15015825629234314,
            0.25321632623672485,
            -0.08326984941959381,
            0.0038117908407002687,
            -0.09029489755630493,
            0.0861145630478859,
            0.07492565363645554,
            -0.11253667622804642,
            -0.09820348024368286,
            0.3800866901874542,
            -0.20708823204040527,
            0.06915771961212158,
            0.4786999821662903,
            0.3747251033782959,
            0.4396354854106903,
            0.019448479637503624,
            0.008124603889882565,
            -0.011538773775100708,
            -0.1721482276916504,
            0.15346553921699524,
            0.3093014359474182,
            -0.3638341724872589,
            0.11225830018520355,
            -0.16395044326782227,
            -0.09726912528276443,
            0.41166090965270996,
            -0.036273084580898285,
            0.07544232904911041,
            0.4108697175979614,
            0.04035816341638565,
            0.4465864598751068,
            -0.08176510035991669,
            -0.2563135027885437,
            -0.04693557694554329,
            -0.3505253493785858,
            0.06641502678394318,
            0.036718353629112244,
            -0.15725597739219666,
            -0.16246233880519867,
            0.17267312109470367,
            0.17811737954616547,
            0.08808358013629913,
            -0.3217012584209442,
            -0.02490299753844738,
            -0.562401294708252,
            -0.25770506262779236,
            -0.023938922211527824,
            0.3052712678909302,
            -0.15153679251670837,
            -0.22756779193878174,
            0.008663063868880272,
            -0.03562166169285774,
            -0.27525314688682556,
            0.367262601852417,
            0.2926439046859741,
            0.10223658382892609,
            -0.123666912317276,
            0.03212049603462219,
            0.2785262167453766,
            -0.31055325269699097,
            0.05980263650417328,
            -0.5085780620574951,
            -0.18142682313919067,
            0.496589332818985,
            0.1286662518978119,
            0.09311312437057495,
            0.1031213328242302,
            0.15424486994743347,
            -0.17855191230773926,
            0.3944644629955292,
            -0.18633581697940826,
            0.10314024239778519,
            0.5039523839950562,
            -0.052465472370386124,
            -0.30373215675354004,
            0.4216357469558716,
            0.1128583699464798,
            -0.039833709597587585,
            0.09437408298254013,
            0.23000988364219666,
            0.46702873706817627,
            -0.20483778417110443,
            -0.0032651489600539207,
            -0.21936331689357758,
            -0.0684383362531662,
            -0.39234688878059387,
            0.24560190737247467,
            -0.06746650487184525,
            -0.185201495885849,
            -0.5967087745666504,
            0.26209816336631775,
            0.003733250079676509,
            0.03626202046871185,
            -0.4891004264354706,
            0.0020958525128662586,
            -0.2883822023868561,
            -0.03720082342624664,
            -0.06942909210920334,
            -0.05302748456597328,
            0.22271129488945007,
            -0.30756625533103943,
            -0.19452513754367828,
            0.04008994624018669,
            -0.3563968539237976,
            0.2524888217449188,
            0.1948298066854477,
            -0.17221255600452423,
            0.009851760230958462,
            -0.2897864282131195,
            0.12397324293851852,
            -0.1633857637643814,
            0.13877679407596588,
            -0.04167235270142555,
            -0.16941873729228973,
            -0.4748947024345398,
            0.24995647370815277,
            -0.2899741530418396,
            0.09354095906019211,
            0.47710296511650085,
            0.31166398525238037,
            -0.08598846942186356,
            0.2646852433681488,
            -0.20163197815418243,
            0.2822417914867401,
            -0.2336554378271103,
            0.15174385905265808,
            -0.1723204106092453,
            -0.0030599015299230814,
            0.39103737473487854,
            -0.05654755234718323,
            0.09960462152957916,
            -0.04825083538889885,
            -0.1536935269832611,
            -0.3753117322921753,
            0.21512983739376068,
            0.4480453133583069,
            -0.23815523087978363,
            0.44853460788726807,
            0.16557051241397858,
            -0.2881675362586975,
            0.3158285319805145,
            -0.3653310537338257,
            0.03110763058066368,
            -0.21864192187786102,
            0.27492624521255493,
            0.06304571032524109,
            -0.13311521708965302,
            -0.5168013572692871,
            -0.20503291487693787,
            0.15402759611606598,
            0.002115211682394147,
            0.07683291286230087,
            -0.25766634941101074,
            0.268713116645813,
            -0.06800701469182968,
            0.15382200479507446,
            -0.07375722378492355,
            0.005615564063191414,
            0.5209406614303589,
            -0.044781316071748734,
            -0.07166843861341476,
            0.2274206131696701,
            -0.37470975518226624,
            0.3788014352321625,
            0.277191162109375,
            0.31518375873565674,
            0.229211688041687,
            0.427567720413208,
            0.8199014663696289,
            0.1692267209291458,
            -0.048248205333948135,
            0.2342039942741394,
            -0.8783331513404846,
            0.27070528268814087,
            0.42450475692749023,
            -0.10433068871498108,
            -0.1526518166065216,
            -0.14633409678936005,
            -0.13236044347286224,
            -0.6170575618743896,
            0.11174789816141129,
            0.44211822748184204,
            0.1491161584854126,
            0.14547716081142426,
            0.20580008625984192,
            -0.1057635098695755,
            -0.32989302277565,
            -0.26392069458961487,
            0.1914963275194168,
            -0.051867902278900146,
            0.3417169153690338,
            -0.31497931480407715,
            -0.27259668707847595,
            -0.29067283868789673,
            0.04102034494280815,
            0.003715361235663295,
            -0.8297273516654968,
            -0.32292038202285767,
            0.4718283414840698,
            0.5338815450668335,
            0.06728019565343857,
            0.3340222239494324,
            -0.7727160453796387,
            0.2731543183326721,
            -0.7439438700675964,
            -0.45047232508659363,
            -0.5587201118469238,
            0.2755233347415924,
            0.005625903606414795,
            -0.09264270961284637,
            0.20772907137870789,
            -0.18959014117717743,
            0.2982707917690277,
            0.1161545142531395,
            -0.4255124032497406,
            -0.4318404793739319,
            -0.04909186065196991,
            -0.27695080637931824,
            -0.4535520672798157,
            -0.40609902143478394,
            0.07149553298950195,
            -0.2930295765399933,
            -0.06097313016653061,
            0.5631749629974365,
            -0.5308281779289246,
            0.33506977558135986,
            0.17122869193553925,
            0.11404753476381302,
            -0.1972132921218872,
            -0.3569202423095703,
            -0.010228583589196205,
            -0.04798471927642822,
            0.07205314189195633,
            0.2096315175294876,
            0.11005832999944687,
            -0.0850067138671875,
            -0.4294160306453705,
            0.6603268384933472,
            -0.36697760224342346,
            -0.04878905415534973,
            0.20219025015830994,
            0.22744373977184296,
            -0.2931644916534424,
            0.05862090736627579,
            0.10562323033809662,
            0.13668879866600037,
            -0.1884068250656128,
            0.3326551914215088,
            -0.1906128227710724,
            0.04792197793722153,
            0.33732491731643677,
            -0.0023333728313446045,
            -0.11556938290596008,
            0.3247891962528229,
            -0.30155330896377563,
            -0.46931666135787964,
            0.04667173698544502,
            -0.677996039390564,
            0.18268181383609772,
            0.0123579241335392,
            -0.19431564211845398,
            -0.03448126092553139,
            -0.10935699939727783,
            -0.25336551666259766,
            0.17734314501285553,
            -0.00132463569752872,
            -0.6854233741760254,
            -0.920555591583252,
            -0.11950098723173141,
            -0.106693796813488,
            -0.13222932815551758,
            0.12446542829275131,
            0.0736776664853096,
            -0.12872324883937836,
            -0.24915656447410583,
            -0.1059318482875824,
            -0.38046348094940186,
            -0.5240364074707031,
            -0.11541277915239334,
            0.15190164744853973,
            -0.013638264499604702,
            -0.01797153241932392,
            -0.06398741155862808,
            -0.03897583857178688,
            -0.3198196291923523,
            0.3445414900779724,
            -0.17972113192081451,
            -0.35050079226493835,
            -0.014775420539081097,
            0.34427234530448914,
            0.3281289041042328,
            -0.15613286197185516,
            0.460249125957489,
            -0.1452857404947281,
            0.550552248954773,
            -0.23872624337673187,
            0.06209699437022209,
            0.0675555169582367,
            0.28836002945899963,
            0.17156463861465454,
            -0.06870948523283005,
            -0.1804879754781723,
            0.015180815011262894,
            -0.14412939548492432,
            0.014423736371099949,
            0.02003760263323784,
            0.1172231063246727,
            0.16172803938388824,
            -0.1488974541425705,
            0.37142232060432434,
            0.2634124755859375,
            0.37012091279029846,
            -0.1482129991054535,
            -0.24912166595458984
        ],
        "bias": [
            0.02750488556921482,
            0.0023697614669799805,
            -0.0035771653056144714,
            0.0025692880153656006,
            0.03175327926874161,
            0.025801291689276695,
            0.014170529320836067,
            0.007678640075027943,
            -0.038644853979349136,
            0.07029958069324493,
            0.05512809753417969,
            0.045950748026371,
            -0.019007310271263123,
            -0.00768562126904726,
            0.29363417625427246,
            0.0009888230124488473,
            0.09553967416286469,
            0.1925111711025238,
            0.11474531143903732,
            -0.004126640968024731,
            -0.033217091113328934,
            0.10797811299562454,
            -0.028702540323138237,
            -0.024927910417318344,
            0.09083162248134613,
            0.018562927842140198,
            -0.006136741954833269,
            -0.01741568185389042,
            0.22804246842861176,
            0.04684380069375038,
            0.020798334851861,
            -0.004187250044196844,
            0.1066473200917244,
            0.07133074849843979,
            -0.00867681484669447,
            0.03935858607292175,
            -0.0004697465046774596,
