{
    "value": {
        "hidden_layer_size": 18,
        "hidden_layer_count": 1,
        "weights": [
            -1.8769460916519165,
            -1.481345534324646,
            -0.3775920569896698,
            0.13263538479804993,
            0.2946836054325104,
            1.2862653732299805,
            -0.011091024614870548,
            0.009567484259605408,
            0.04600312188267708,
            -0.7104314565658569,
            -0.001206226646900177,
            -0.32415294647216797,
            -0.46759942173957825,
            0.6362975835800171,
            1.359649658203125,
            0.2742754817008972,
            2.210441827774048,
            0.8543983101844788,
            -0.3569790720939636,
            -0.21656891703605652,
            0.05843586102128029,
            0.061567191034555435,
            -0.047199975699186325,
            0.1597660481929779,
            -0.17909859120845795,
            -0.09717432409524918,
            -0.6824475526809692,
            0.1723785400390625,
            0.601952850818634,
            0.1872398406267166,
            -0.0937577486038208,
            -0.8620659112930298,
            -2.8539531230926514,
            0.8485490083694458,
            0.35371893644332886,
            0.0005892776534892619,
            -0.12133897840976715,
            0.3442906141281128,
            0.11413099616765976,
            0.09229367971420288,
            0.021069690585136414,
            -0.1217648983001709,
            0.28269335627555847,
            -0.1346472203731537,
            -0.08399824053049088,
            -0.4064980447292328,
            -0.06583461910486221,
            -0.11331511288881302,
            2.045976161956787,
            -1.027623176574707,
            0.5874261856079102,
            -0.2754873037338257,
            -0.5634775757789612,
            1.3641815185546875,
            -0.4297005236148834,
            -0.049874767661094666,
            -0.0536346435546875,
            0.20269304513931274,
            0.16215358674526215,
            -0.2717462480068207,
            -0.40786245465278625,
            0.29378753900527954,
            -0.29454490542411804,
            0.016949858516454697,
            -0.6115387082099915,
            -0.38897791504859924,
            0.12199638038873672,
            0.05582999438047409,
            -1.109086036682129,
            -1.5434768199920654,
            -1.0041544437408447,
            -0.055434755980968475,
            0.0550389438867569,
            -0.21386197209358215,
            -0.6139878034591675,
            0.022231627255678177,
            0.14238829910755157,
            -0.25496044754981995,
            -0.030993901193141937,
            0.5154330134391785,
            2.2402358055114746,
            2.1280510425567627,
            -0.4688674807548523,
            0.5576332807540894,
            0.08549190312623978,
            1.3412559032440186,
            0.13640643656253815,
            -0.5335468649864197,
            0.37193596363067627,
            -0.3564505875110626,
            0.42149361968040466,
            0.5895989537239075,
            -0.3291020095348358,
            -0.24194715917110443,
            0.39495402574539185,
            -0.4328501522541046,
            -1.6037893295288086,
            -0.3177374005317688,
            -0.040120288729667664,
            0.06156016141176224,
            -0.8995850086212158,
            0.18976986408233643,
            -0.5407314300537109,
            -0.5515621304512024,
            -0.11925935000181198,
            -0.02102336846292019,
            -0.23209713399410248,
            -0.4762243628501892,
            -0.09507445991039276,
            0.19277535378932953,
            0.007164435926824808,
            -0.3159080743789673,
            0.8775337934494019,
            1.0990827083587646,
            -0.20967230200767517,
            -0.6277204751968384,
            -0.6507996320724487,
            -1.4229518175125122,
            0.08793441951274872,
            -0.10916364938020706,
            0.042021848261356354,
            0.023309018462896347,
            -0.10866180807352066,
            -0.1397143006324768,
            0.07754042744636536,
            0.6859081983566284,
            0.04666382074356079,
            -0.2954094111919403,
            -1.3703150749206543,
            -0.6611490845680237,
            -0.3413321077823639,
            -0.02999499998986721,
            1.3676317930221558,
            -0.14861641824245453,
            -0.032234661281108856,
            -0.19515645503997803,
            -0.42978790402412415,
            -0.06632964313030243,
            -0.2597503960132599,
            -0.29719120264053345,
            -0.4372710585594177,
            0.022396961227059364,
            0.14200958609580994,
            -0.6626167893409729,
            -3.7893762588500977,
            0.5265493392944336,
            0.5153000950813293,
            0.03559117764234543,
            -0.2305416315793991,
            0.29447972774505615,
            -0.2427987903356552,
            0.015300777740776539,
            -0.13323894143104553,
            0.15821892023086548,
            0.09018616378307343,
            0.34350496530532837,
            -0.007616584654897451,
            -0.12691150605678558,
            0.07395534962415695,
            -0.07713770866394043,
            4.13414192199707,
            1.7597088813781738,
            -0.08212586492300034,
            -0.5246332287788391,
            0.20778629183769226,
            0.07492382079362869,
            -0.09156789630651474,
            -0.09200582653284073,
            -0.18347103893756866,
            0.17450156807899475,
            0.06383561342954636,
            0.283022403717041,
            0.028862714767456055,
            0.1217421218752861,
            -0.14607851207256317,
            -0.030823776498436928,
            -0.09688304364681244,
            -0.9873975515365601,
            -0.03371351212263107,
            0.4298829436302185,
            -1.0720263719558716,
            0.09605182707309723,
            -0.8162827491760254,
            -0.09499482065439224,
            0.7266783118247986,
            -0.33153077960014343,
            0.1859932541847229,
            0.6629359126091003,
            -0.17776447534561157,
            -0.2598230540752411,
            -0.20665353536605835,
            -0.047623008489608765,
            -0.2105240672826767,
            -1.7439303398132324,
            -0.25000596046447754,
            0.28372853994369507,
            -0.18216046690940857,
            -0.07379967719316483,
            -0.39246422052383423,
            -0.5994235277175903,
            0.06095244735479355,
            -1.121822476387024,
            -0.5100045204162598,
            0.1820874810218811,
            0.5447293519973755,
            0.399407297372818,
            0.7737945318222046,
            -0.16652825474739075,
            0.45018452405929565,
            -1.135256052017212,
            -0.33491531014442444,
            0.004401329439133406,
            -1.0404596328735352,
            -0.7025349140167236,
            -0.11086834967136383,
            -0.5855877995491028,
            0.04941781982779503,
            -0.15187132358551025,
            -0.3019648790359497,
            0.07713271677494049,
            -0.43174436688423157,
            -0.08958760648965836,
            0.09684766083955765,
            -0.36609983444213867,
            0.37379026412963867,
            -0.23480254411697388,
            -0.32294169068336487,
            -0.04293763265013695,
            -0.8678680062294006,
            -0.001146025606431067,
            0.041589654982089996,
            -0.30105161666870117,
            0.10790573060512543,
            -0.6370086669921875,
            -1.2109814882278442,
            -0.5301267504692078,
            -0.803002655506134,
            0.4835934340953827,
            0.39964666962623596,
            0.3680453896522522,
            -0.36326879262924194,
            -0.7179076671600342,
            -0.7490370869636536,
            -0.05855128914117813,
            -0.4153415560722351,
            0.31594592332839966,
            0.045288458466529846,
            0.07006897032260895,
            0.11322418600320816,
            -0.9802623391151428,
            -0.07143420726060867,
            -0.5268775224685669,
            0.4025469422340393,
            0.014381279237568378,
            1.5590909719467163,
            0.4208069145679474,
            2.396946668624878,
            2.2701339721679688,
            0.19051188230514526,
            -0.525297999382019,
            -0.03272038698196411,
            -0.12812907993793488,
            0.06024820730090141,
            -0.17415162920951843,
            0.020944766700267792,
            0.08373471349477768,
            0.18825049698352814,
            -0.009575891308486462,
            -0.5653812289237976,
            -0.1657654345035553,
            -0.06837436556816101,
            0.26314419507980347,
            -0.25148072838783264,
            0.2878432273864746,
            0.34296658635139465,
            0.5635327696800232,
            0.9219096899032593,
            -0.8025620579719543,
            -0.19723452627658844,
            -0.40301117300987244,
            -0.2528138756752014,
            -0.09188403189182281,
            -0.4739471673965454,
            -0.26908397674560547,
            -0.31427204608917236,
            -0.2078721970319748,
            0.6826737523078918,
            1.3949916362762451,
            -0.20673687756061554,
            -0.6106398105621338,
            -1.1075423955917358,
            -0.5412830114364624,
            -0.13508856296539307,
            0.1518612802028656,
            -0.2147396355867386,
            -0.1447022408246994,
            -0.17070947587490082,
            0.8562641143798828,
            0.8976772427558899,
            0.15786424279212952,
            0.5752894878387451,
            -0.17824701964855194,
            0.3218809962272644,
            -0.3633458912372589,
            -0.9794079661369324,
            -0.397468239068985
        ],
        "bias": [
            -0.06409480422735214,
            0.012532209046185017,
            -0.28617697954177856,
            0.36554884910583496,
            -0.16364945471286774,
            -0.2247156947851181,
            0.058433350175619125,
            -0.5161256790161133,
            0.12886998057365417,
            -0.3402848541736603,
            -0.10540652275085449,
            -0.5325779914855957,
            -0.5920445919036865,
            -0.9969948530197144,
            -0.4854092001914978,
            0.3355654776096344,
            -0.45693239569664,
            -0.16127356886863708,
            -0.3409186601638794
        ]
    },
    "policy": {
        "hidden_layer_size": 18,
        "hidden_layer_count": 1,
        "weights": [
            1.191865086555481,
            1.2634984254837036,
            0.33394894003868103,
            -0.3588436245918274,
            1.1680467128753662,
            -0.5950071811676025,
            -0.3811151087284088,
            -0.14068998396396637,
            1.1315999031066895,
            0.41534194350242615,
            -0.25931310653686523,
            -0.3022478520870209,
            0.43054789304733276,
            0.5490933060646057,
            -0.31661325693130493,
            0.4481494724750519,
            0.204022616147995,
            -1.2976523637771606,
            0.09071257710456848,
            -0.30721789598464966,
            0.01993739977478981,
            -0.2897844910621643,
            -0.18563228845596313,
            0.5512039065361023,
            -0.0022844322957098484,
            -0.1667136698961258,
            -0.2659890055656433,
            -0.9692137837409973,
            0.11911739408969879,
            -0.15339778363704681,
            -0.43801525235176086,
            0.4739031493663788,
            0.010241284035146236,
            -1.1886719465255737,
            -0.095791295170784,
            -0.20090524852275848,
            0.6081977486610413,
            -0.8825194239616394,
            -0.5003803968429565,
            -0.09958343952894211,
            -0.6756216883659363,
            -1.136112093925476,
            -1.0705265998840332,
            -0.19963857531547546,
            0.09582602232694626,
            -0.2588355541229248,
            0.617588460445404,
            0.13121762871742249,
            1.010766863822937,
            -0.140217125415802,
            -0.23618625104427338,
            -0.37812867760658264,
            -0.98519366979599,
            0.8283362984657288,
            0.6079080700874329,
            -1.0918891429901123,
            -0.1260237693786621,
            -0.5586379766464233,
            -0.2765648365020752,
            1.0111700296401978,
            0.4134576916694641,
            0.6206279993057251,
            0.3765084445476532,
            1.0031400918960571,
            -0.8334522843360901,
            -2.047712802886963,
            0.2821463942527771,
            -0.03837289288640022,
            0.7874658107757568,
            -0.06897374242544174,
            0.5637829899787903,
            -0.6656917929649353,
            -0.14545245468616486,
            -0.4154769480228424,
            -0.5056965947151184,
            0.08782042562961578,
            0.07007987797260284,
            0.6804389357566833,
            0.7169419527053833,
            0.25563108921051025,
            0.7873548865318298,
            0.5203803181648254,
            0.6572036147117615,
            -0.5568991899490356,
            1.221907615661621,
            0.6624653935432434,
            -0.28222352266311646,
            -0.41339537501335144,
            -0.3825683891773224,
            -0.5797887444496155,
            -0.7427102327346802,
            0.26424163579940796,
            0.584548830986023,
            -0.13400757312774658,
            -0.9906753301620483,
            0.130742147564888,
            -2.06235671043396,
            -0.8693057894706726,
            -0.24968187510967255,
            -0.3517918586730957,
            -0.8700867295265198,
            -0.23644840717315674,
            0.4735248386859894,
            0.5501075387001038,
            0.2772400379180908,
            -0.052702438086271286,
            0.3400418758392334,
            0.020947739481925964,
            -0.3933596909046173,
            -0.016199026256799698,
            -0.8634148240089417,
            -0.41480106115341187,
            -2.6661221981048584,
            -1.0996004343032837,
            -0.25009453296661377,
            -0.20066072046756744,
            -1.0564405918121338,
            0.36846375465393066,
            -0.012811178341507912,
            0.4052840769290924,
            -0.048170603811740875,
            0.4785154461860657,
            0.46776726841926575,
            -0.10410840064287186,
            -0.3370482325553894,
            0.4494926333427429,
            0.14533664286136627,
            -1.2085360288619995,
            1.2010380029678345,
            1.0821620225906372,
            0.043432191014289856,
            -0.46374866366386414,
            1.7865931987762451,
            -0.050489641726017,
            -0.4397401213645935,
            0.28064417839050293,
            -0.11938583850860596,
            0.17480841279029846,
            0.4993284344673157,
            0.013668600469827652,
            0.7108012437820435,
            0.2808065116405487,
            0.12370800226926804,
            0.44397804141044617,
            0.11758453398942947,
            0.6877197027206421,
            0.2118254005908966,
            -0.2289256453514099,
            -0.0011204441543668509,
            -0.14289590716362,
            -0.217839315533638,
            0.03189432993531227,
            -0.06482173502445221,
            -0.10594600439071655,
            0.04960047826170921,
            -0.24266722798347473,
            0.0856388509273529,
            0.19794684648513794,
            -0.5375788807868958,
            0.23595286905765533,
            -0.12475897371768951,
            -0.48429763317108154,
            -0.28278031945228577,
            -0.19781804084777832,
            -0.13568292558193207,
            0.14456704258918762,
            -0.08221925050020218,
            0.07936888933181763,
            0.21921774744987488,
            -0.18022587895393372,
            -0.5042067170143127,
            0.05229329317808151,
            -1.4626548290252686,
            -0.0708627924323082,
            -0.2890481948852539,
            -0.24153083562850952,
            -1.869019865989685,
            0.3040597140789032,
            0.4339900314807892,
            -0.252102255821228,
            -0.6972614526748657,
            -0.3793930411338806,
            0.17747308313846588,
            0.2595396041870117,
            -0.3205268085002899,
            0.7424736022949219,
            -0.10470139235258102,
            -0.5223207473754883,
            0.331966370344162,
            0.44390249252319336,
            -0.06720612198114395,
            -0.8024446964263916,
            -2.0469114780426025,
            -1.3839689493179321,
            -0.3124995529651642,
            0.324558287858963,
            -0.19348448514938354,
            0.05347594991326332,
            0.34134602546691895,
            0.27148425579071045,
            0.33414608240127563,
            -0.28606894612312317,
            -0.2598867118358612,
            0.1641237437725067,
            -0.7453204393386841,
            0.4319639801979065,
            -0.40272748470306396,
            0.5378856658935547,
            -1.9015206098556519,
            -0.38362088799476624,
            -0.2807377576828003,
            -0.4305228590965271,
            -1.0372302532196045,
            0.3236393928527832,
            0.41908907890319824,
            -0.11105382442474365,
            0.34776532649993896,
            0.30415791273117065,
            0.3322572410106659,
            -0.4143922030925751,
            -0.428391695022583,
            0.22370781004428864,
            -0.39503809809684753,
            -0.5665341019630432,
            1.3756426572799683,
            0.9758067727088928,
            0.1048610657453537,
            -0.21757808327674866,
            0.7516140937805176,
            -0.5198463201522827,
            -1.2198371887207031,
            -0.29094305634498596,
            0.5665741562843323,
            -1.0214452743530273,
            -0.06240396201610565,
            -0.5467028617858887,
            -0.008289209567010403,
            0.38011956214904785,
            -0.15910637378692627,
            0.2374337613582611,
            1.32627272605896,
            0.8135563135147095,
            -0.748180091381073,
            -0.07312077283859253,
            1.3594235181808472,
            -1.0524874925613403,
            0.04469527676701546,
            -0.26836103200912476,
            -0.18206097185611725,
            0.3425637185573578,
            -0.15723896026611328,
            0.06866198033094406,
            0.3375759720802307,
            0.32574528455734253,
            0.01491378154605627,
            0.3820437788963318,
            -0.41253334283828735,
            -0.8623049259185791,
            0.4819163382053375,
            0.014127081260085106,
            1.0373945236206055,
            -0.2851758897304535,
            -0.3691323399543762,
            -0.5293740034103394,
            0.3041054606437683,
            -1.0070291757583618,
            -0.39355024695396423,
            -0.13508054614067078,
            -0.917621910572052,
            0.21343432366847992,
            -0.1271202564239502,
            0.32919842004776,
            0.41308149695396423,
            -2.020643472671509,
            -0.3598002791404724,
            -0.0816720575094223,
            0.10502032935619354,
            -0.3648010194301605,
            0.13883377611637115,
            -0.4359506368637085,
            -0.49538788199424744,
            0.068451888859272,
            0.5847759246826172,
            0.20579293370246887,
            0.011459813453257084,
            -0.4591202139854431,
            0.52406245470047,
            0.8179069757461548,
            0.721224844455719,
            0.05245959386229515,
            0.46427974104881287,
            0.0417582206428051,
            0.0048357462510466576,
            -0.17088565230369568,
            -0.6891265511512756,
            -1.1845935583114624,
            0.8666565418243408,
            0.07180041819810867,
            -0.007543474435806274,
            -0.6935895681381226,
            -0.3885696232318878,
            -0.2439209669828415,
            0.4359152615070343,
            0.4614866375923157,
            -0.1176903247833252,
            -0.35990607738494873,
            -0.4142574071884155,
            0.11062487959861755,
            0.24670101702213287,
            0.8165593147277832,
            1.0058071613311768,
            -0.2937465310096741,
            0.14587664604187012,
            0.14106662571430206,
            -0.6950253844261169,
            -0.12962737679481506,
            -0.1054079607129097,
            -0.0009540033061057329,
            0.7474355101585388,
            0.3960312306880951,
            -0.19046445190906525,
            -0.36551007628440857,
            -0.15192846953868866,
            0.24120937287807465,
            -0.6511175036430359,
            -0.02896776981651783,
            -0.9973335266113281,
            -0.6946510672569275,
            -0.4741925597190857,
            -0.4513870179653168,
            -0.10797972232103348,
            0.2238817662000656,
            -0.7364143133163452,
            0.6319178938865662,
            0.08050180971622467,
            0.047842271625995636,
            -0.14184658229351044,
            0.03233107924461365,
            -0.29760897159576416,
            -0.9969503879547119,
            -0.41995686292648315,
            -0.9099686145782471,
            0.04136735945940018,
            0.9244917631149292,
            -0.27492237091064453,
            -0.5604848861694336,
            0.20828388631343842,
            -0.13628289103507996,
            0.5013951063156128,
            0.010398723185062408,
            0.10754942893981934,
            -0.029017306864261627,
            1.2414556741714478,
            -0.80644291639328,
            0.048608433455228806,
            0.33135563135147095,
            -0.14388903975486755,
            0.27976012229919434,
            0.6179510354995728,
            0.08071213215589523
        ],
        "bias": [
            -0.06605485826730728,
            -0.7081393003463745,
            0.13940107822418213,
            0.5762766003608704,
            -0.08162403106689453,
            -0.2710114121437073,
            0.19285938143730164,
            0.17662660777568817,
            0.18024617433547974,
            -1.1196624040603638,
            -0.3644457757472992,
            -0.07620823383331299,
            0.07943137735128403,
            0.003107673255726695,
            0.1600198745727539,
            0.19845157861709595,
            -0.3106878697872162,
            -0.550561249256134,
            0.1206977590918541,
            0.2819984555244446,
            -0.20557339489459991,
            0.14956572651863098
        ]
    }
}