{
    "value": {
        "hidden_layer_size": 18,
        "hidden_layer_count": 1,
        "weights": [
            -1.717342495918274,
            -2.0689563751220703,
            -0.28727659583091736,
            0.4042882025241852,
            0.21116015315055847,
            1.3083841800689697,
            -0.0012034771498292685,
            -0.016027100384235382,
            0.005197834223508835,
            -0.7534858584403992,
            -0.05603712797164917,
            -0.38001349568367004,
            -0.5283688306808472,
            0.5806212425231934,
            1.3122985363006592,
            0.22048074007034302,
            2.1526236534118652,
            0.8007921576499939,
            -0.3002115488052368,
            -0.3290467858314514,
            0.17277054488658905,
            -0.10364698618650436,
            0.0363016352057457,
            0.13518273830413818,
            -0.21910616755485535,
            -0.1348775178194046,
            -0.729152262210846,
            0.14522862434387207,
            0.5765541195869446,
            0.203938826918602,
            -0.009443098679184914,
            -0.7812539339065552,
            -2.729814291000366,
            0.8888097405433655,
            0.7197760343551636,
            0.10623311996459961,
            -0.08121968805789948,
            0.13637617230415344,
            0.12011712789535522,
            0.06074043735861778,
            -0.004900183528661728,
            -0.13152800500392914,
            0.2766011655330658,
            -0.19847843050956726,
            -0.1380968689918518,
            -0.42275092005729675,
            -0.07531042397022247,
            -0.13410219550132751,
            2.002739429473877,
            -1.6187280416488647,
            0.6418818831443787,
            -0.19542600214481354,
            -0.43382757902145386,
            1.4922611713409424,
            -0.2530994117259979,
            -0.07796596735715866,
            -0.09581101685762405,
            0.16628144681453705,
            0.1343153864145279,
            -0.31847694516181946,
            -0.4504086971282959,
            0.2737383544445038,
            -0.2885890305042267,
            0.00937923789024353,
            -0.6090063452720642,
            -0.5919229388237,
            0.1424686312675476,
            0.12653902173042297,
            -1.0727461576461792,
            -1.4026280641555786,
            -0.9221299290657043,
            -0.08883313089609146,
            0.02172320894896984,
            -0.22280560433864594,
            -0.6334294080734253,
            -0.01151367463171482,
            0.10792624950408936,
            -0.2759711742401123,
            -0.04241683706641197,
            0.4899623692035675,
            2.3394815921783447,
            2.046635627746582,
            -0.499626487493515,
            0.6132975816726685,
            0.13543793559074402,
            1.338258147239685,
            0.07831808924674988,
            -0.518200159072876,
            0.40329599380493164,
            -0.32428064942359924,
            0.47072315216064453,
            0.6472487449645996,
            -0.28294989466667175,
            -0.21284593641757965,
            0.4099740982055664,
            -0.44860702753067017,
            -1.5244783163070679,
            -0.3412729799747467,
            0.042671140283346176,
            0.24096514284610748,
            -0.9191951751708984,
            0.08117257058620453,
            -0.41191673278808594,
            -0.5500192046165466,
            -0.102959543466568,
            0.01655014418065548,
            -0.21349216997623444,
            -0.4861510992050171,
            -0.10734427720308304,
            0.18592184782028198,
            0.005576740019023418,
            -0.2900722622871399,
            0.8400118350982666,
            1.06279718875885,
            -0.23533059656620026,
            -0.9518073201179504,
            -0.6055358648300171,
            -1.3309179544448853,
            0.14096783101558685,
            -0.10381896048784256,
            0.06260232627391815,
            0.05392388626933098,
            -0.10663426667451859,
            -0.14335602521896362,
            0.07222989946603775,
            0.6856554746627808,
            0.0634426474571228,
            -0.25529900193214417,
            -0.9846776127815247,
            -0.8863623738288879,
            -0.15859651565551758,
            -0.11327791213989258,
            1.3273115158081055,
            -0.18436965346336365,
            0.04947691410779953,
            -0.14207689464092255,
            -0.3763832449913025,
            -0.09881727397441864,
            -0.3933471143245697,
            -0.41936609148979187,
            -0.5251765847206116,
            -0.04494590312242508,
            0.08980181813240051,
            -0.6972479224205017,
            -3.8222386837005615,
            0.5371396541595459,
            0.3849318325519562,
            0.04585062339901924,
            -0.28419944643974304,
            0.41497695446014404,
            -0.15525339543819427,
            0.05717097222805023,
            -0.11138437688350677,
            0.16720132529735565,
            0.08703816682100296,
            0.35195285081863403,
            -0.002536483807489276,
            -0.140065997838974,
            0.043890755623579025,
            -0.14132454991340637,
            4.170827865600586,
            1.7357348203659058,
            -0.165657177567482,
            -0.27966704964637756,
            0.2137182205915451,
            -0.011408394202589989,
            -0.2308628112077713,
            -0.15073689818382263,
            -0.22265489399433136,
            0.16400465369224548,
            0.093770332634449,
            0.3183576464653015,
            0.047474730759859085,
            0.11468379944562912,
            -0.18825984001159668,
            -0.063812755048275,
            -0.08897099643945694,
            -0.6914280652999878,
            -0.014824661426246166,
            0.38720253109931946,
            -1.1649935245513916,
            -0.06513277441263199,
            -0.8156598806381226,
            -0.03696860745549202,
            0.7871711254119873,
            -0.2723507285118103,
            0.23802800476551056,
            0.7293277978897095,
            -0.1259700506925583,
            -0.24182133376598358,
            -0.22172316908836365,
            -0.07453188300132751,
            -0.3863944113254547,
            -1.445671558380127,
            -0.33405405282974243,
            0.080143503844738,
            -0.06430276483297348,
            -0.2614162266254425,
            -0.5009362101554871,
            -0.6166185140609741,
            0.0004367439541965723,
            -1.2462892532348633,
            -0.5765588283538818,
            0.14880315959453583,
            0.48707115650177,
            0.3205120265483856,
            0.6655305624008179,
            -0.2670285403728485,
            0.4065040349960327,
            -1.3458819389343262,
            -0.3304885923862457,
            -0.015595681965351105,
            -1.160773515701294,
            -0.7120384573936462,
            -0.07336971163749695,
            -0.6912746429443359,
            0.008986741304397583,
            -0.0408879779279232,
            -0.2331574410200119,
            0.1519695222377777,
            -0.3297356367111206,
            0.016576990485191345,
            0.22046680748462677,
            -0.2360706776380539,
            0.11065910756587982,
            -0.20639482140541077,
            -0.5627517700195312,
            -0.30677688121795654,
            -0.9538620710372925,
            -0.0001696213148534298,
            0.006495877169072628,
            -0.33983445167541504,
            0.112705759704113,
            -0.6203464269638062,
            -1.2110764980316162,
            -0.46944642066955566,
            -0.7821263670921326,
            0.47051897644996643,
            0.32807794213294983,
            0.31742334365844727,
            -0.28533700108528137,
            -1.2204205989837646,
            -0.7605845332145691,
            -0.051692403852939606,
            -0.44159844517707825,
            0.416671484708786,
            0.09172027558088303,
            -0.0008092822972685099,
            0.03978034108877182,
            -1.0567704439163208,
            -0.16135866940021515,
            -0.6178197264671326,
            0.30821195244789124,
            -0.07283773273229599,
            1.4788488149642944,
            0.34723424911499023,
            2.285818099975586,
            2.383082628250122,
            0.27673476934432983,
            -0.696413516998291,
            0.021456677466630936,
            -0.0469241701066494,
            0.13069584965705872,
            -0.178240567445755,
            0.03820285573601723,
            0.109171561896801,
            0.21642781794071198,
            -0.0127110555768013,
            -0.5427458882331848,
            -0.1426534354686737,
            -0.027516180649399757,
            0.2998867928981781,
            -0.24626752734184265,
            0.10997894406318665,
            0.6009142994880676,
            0.4368862509727478,
            0.8799110054969788,
            -0.5360832214355469,
            -0.14122150838375092,
            -0.4130765497684479,
            -0.2838156819343567,
            -0.12892656028270721,
            -0.5296711325645447,
            -0.3201625645160675,
            -0.37235763669013977,
            -0.2624489963054657,
            0.6369756460189819,
            1.3380963802337646,
            -0.2664692997932434,
            -0.5671285390853882,
            -1.0655169486999512,
            -0.6223498582839966,
            -0.10103750973939896,
            0.2049301266670227,
            -0.19642409682273865,
            -0.16047480702400208,
            -0.18091458082199097,
            0.9134398698806763,
            0.9433017373085022,
            0.24245280027389526,
            0.6161077618598938,
            -0.4107120633125305,
            0.3306518793106079,
            -0.3676764667034149,
            -1.0011640787124634,
            -0.4018315076828003
        ],
        "bias": [
            -0.1408531218767166,
            -0.019847745075821877,
            -0.3105715215206146,
            0.3027200996875763,
            -0.20992031693458557,
            -0.16833366453647614,
            0.06867540627717972,
            -0.5270852446556091,
            0.07359114289283752,
            -0.32124659419059753,
            -0.057428304105997086,
            -0.45301613211631775,
            -0.6461133360862732,
            -0.8834002017974854,
            -0.49971678853034973,
            0.22174163162708282,
            -0.4166772663593292,
            -0.22815559804439545,
            -0.25490453839302063
        ]
    },
    "policy": {
        "hidden_layer_size": 18,
        "hidden_layer_count": 1,
        "weights": [
            1.0537043809890747,
            1.2293205261230469,
            0.4418482184410095,
            -0.38509342074394226,
            1.0300078392028809,
            -0.6930788159370422,
            -0.5640833973884583,
            -0.18664292991161346,
            1.0403199195861816,
            0.328757107257843,
            -0.3235008716583252,
            -0.3702693283557892,
            0.34696996212005615,
            0.45358550548553467,
            -0.4169309139251709,
            0.319719523191452,
            0.27825185656547546,
            -1.3368536233901978,
            0.07223478704690933,
            -0.3309074640274048,
            0.0959756001830101,
            -0.19993479549884796,
            -0.21941818296909332,
            0.5754847526550293,
            0.007724473252892494,
            -0.20059216022491455,
            -0.28112414479255676,
            -0.934281587600708,
            0.09506155550479889,
            -0.14031141996383667,
            -0.3548242449760437,
            0.5324955582618713,
            0.1625952124595642,
            -1.2896955013275146,
            -0.00046552313142456114,
            -0.113030806183815,
            0.588445782661438,
            -0.8250596523284912,
            -0.4862193763256073,
            -0.1820267289876938,
            -0.7573158740997314,
            -1.135303258895874,
            -0.9356955885887146,
            -0.057382263243198395,
            0.1709764003753662,
            -0.1704072803258896,
            0.7416501641273499,
            0.25290536880493164,
            1.0895469188690186,
            -0.07478813081979752,
            -0.17840370535850525,
            -0.362567663192749,
            -1.0114936828613281,
            0.823902428150177,
            0.5473986864089966,
            -1.1413264274597168,
            -0.1700475662946701,
            -0.6222374439239502,
            -0.2876947224140167,
            1.0109405517578125,
            0.42478176951408386,
            0.6274468302726746,
            0.38255390524864197,
            1.0122323036193848,
            -0.9210507273674011,
            -1.9393635988235474,
            0.30508679151535034,
            0.012627989985048771,
            0.6979098320007324,
            -0.007465614937245846,
            0.45736411213874817,
            -0.6870747804641724,
            -0.23097161948680878,
            -0.5380929708480835,
            -0.5395456552505493,
            0.06125219538807869,
            0.0535924918949604,
            0.6544438004493713,
            0.7050396203994751,
            0.27831998467445374,
            0.7047825455665588,
            0.5668748617172241,
            0.5533792972564697,
            -0.5294095277786255,
            1.2768863439559937,
            0.5749920606613159,
            -0.3307000398635864,
            -0.3396095335483551,
            -0.31471577286720276,
            -0.554351270198822,
            -0.7559506893157959,
            0.2450757622718811,
            0.569047749042511,
            -0.1799958348274231,
            -1.1360315084457397,
            -0.016343511641025543,
            -1.9517523050308228,
            -0.6923417448997498,
            -0.32721391320228577,
            -0.29593369364738464,
            -0.9343467950820923,
            -0.12048587948083878,
            0.5644118785858154,
            0.5583736896514893,
            0.32784533500671387,
            -0.01038825511932373,
            0.36335307359695435,
            0.05436339229345322,
            -0.38419443368911743,
            -0.011650051921606064,
            -0.8772578835487366,
            -0.36982256174087524,
            -2.5911591053009033,
            -0.9279224872589111,
            -0.2664688527584076,
            -0.1552647054195404,
            -1.159117579460144,
            0.4872964322566986,
            -0.010344414971768856,
            0.36689335107803345,
            -0.028237035498023033,
            0.5199612379074097,
            0.4673609733581543,
            -0.10291557759046555,
            -0.35468554496765137,
            0.43948477506637573,
            0.1249438226222992,
            -1.1345731019973755,
            1.0729011297225952,
            1.0093255043029785,
            0.1318512111902237,
            -0.43645307421684265,
            1.6929683685302734,
            -0.1147114560008049,
            -0.5858269929885864,
            0.2895245850086212,
            -0.14532190561294556,
            0.1595817655324936,
            0.49409154057502747,
            -0.033035583794116974,
            0.6260237693786621,
            0.195670023560524,
            0.05647002160549164,
            0.34332984685897827,
            0.07937518507242203,
            0.7259414196014404,
            0.18030314147472382,
            -0.1910848319530487,
            0.03711152821779251,
            -0.10499570518732071,
            -0.217839315533638,
            -0.006363837514072657,
            -0.1030799001455307,
            -0.14420415461063385,
            0.011342311277985573,
            -0.28092536330223083,
            0.047380685806274414,
            0.15968868136405945,
            -0.5758370757102966,
            0.19769470393657684,
            -0.19753572344779968,
            -0.25733843445777893,
            -0.31375524401664734,
            -0.3064768612384796,
            -0.2221992164850235,
            0.04157569631934166,
            -0.10234956443309784,
            0.14176779985427856,
            0.3347587585449219,
            -0.05815718695521355,
            -0.3552205264568329,
            0.30523914098739624,
            -1.274784803390503,
            -0.0022622232791036367,
            -0.38929450511932373,
            -0.362862765789032,
            -1.8321318626403809,
            0.3777589201927185,
            0.33255037665367126,
            -0.16777460277080536,
            -0.8325180411338806,
            -0.21635808050632477,
            0.27553513646125793,
            0.174687460064888,
            -0.34980565309524536,
            0.7145175337791443,
            -0.14652034640312195,
            -0.5467303395271301,
            0.3191209137439728,
            0.4160628914833069,
            -0.10164347290992737,
            -0.7626538276672363,
            -1.9964543581008911,
            -1.3649870157241821,
            -0.2966477870941162,
            0.33825674653053284,
            -0.2007955014705658,
            0.0708242878317833,
            0.4042282700538635,
            0.31217363476753235,
            0.3991154432296753,
            -0.21915896236896515,
            -0.1997106522321701,
            0.1769227385520935,
            -0.7343275547027588,
            0.44678783416748047,
            -0.36932680010795593,
            0.5880944132804871,
            -1.8398188352584839,
            -0.38464030623435974,
            -0.22149387001991272,
            -0.3641372621059418,
            -1.1249905824661255,
            0.32783496379852295,
            0.4071767330169678,
            -0.13956142961978912,
            0.3589448034763336,
            0.3123250901699066,
            0.34049391746520996,
            -0.4089885652065277,
            -0.42737650871276855,
            0.2606358230113983,
            -0.32491257786750793,
            -0.44218239188194275,
            1.3158936500549316,
            0.8955643773078918,
            0.30358007550239563,
            -0.19267389178276062,
            0.6630254983901978,
            -0.47991231083869934,
            -1.06466543674469,
            -0.2694202661514282,
            0.4870777428150177,
            -1.1077325344085693,
            -0.08726304769515991,
            -0.5454525947570801,
            -0.07639458775520325,
            0.29840657114982605,
            -0.20948480069637299,
            0.18492820858955383,
            1.1839959621429443,
            0.7038506865501404,
            -0.771052896976471,
            0.009306016378104687,
            1.1439480781555176,
            -1.0988765954971313,
            -0.09562930464744568,
            -0.40461379289627075,
            -0.38219040632247925,
            0.17891398072242737,
            -0.3187353312969208,
            -0.08813580125570297,
            0.14569337666034698,
            0.1530662328004837,
            -0.11688638478517532,
            0.23382094502449036,
            -0.5097421407699585,
            -0.7852734923362732,
            0.4084271490573883,
            -0.09360899031162262,
            1.0907965898513794,
            -0.4869236648082733,
            -0.4185454845428467,
            -0.5227550268173218,
            0.3273402750492096,
            -0.9790782928466797,
            -0.43295052647590637,
            -0.13268408179283142,
            -0.892449676990509,
            0.2153770625591278,
            -0.1617313176393509,
            0.30013424158096313,
            0.4895722270011902,
            -1.8319518566131592,
            -0.4156815707683563,
            -0.1169981136918068,
            0.07456673681735992,
            -0.38770654797554016,
            0.2500467896461487,
            -0.39679691195487976,
            -0.36146464943885803,
            0.1837523728609085,
            0.6804517507553101,
            0.32065021991729736,
            0.1329491287469864,
            -0.33553120493888855,
            0.6358561515808105,
            0.9516425132751465,
            0.570928692817688,
            0.07105943560600281,
            0.4828605055809021,
            -0.06590165942907333,
            -0.00392649881541729,
            -0.19908399879932404,
            -0.6748157143592834,
            -1.1461490392684937,
            0.7458605170249939,
            0.03332826867699623,
            -0.038215044885873795,
            -0.6685625314712524,
            -0.34110480546951294,
            -0.30338922142982483,
            0.38945311307907104,
            0.2697106897830963,
            -0.18884244561195374,
            -0.36740773916244507,
            -0.4516150951385498,
            0.21923868358135223,
            0.321026086807251,
            0.9106530547142029,
            0.9971215128898621,
            -0.26733094453811646,
            0.1109205111861229,
            0.11016657948493958,
            -0.7275617718696594,
            -0.09119445085525513,
            -0.09418001025915146,
            -0.050494711846113205,
            0.7898427248001099,
            0.352806955575943,
            -0.1340324729681015,
            -0.37908050417900085,
            -0.15719909965991974,
            0.2524811923503876,
            -0.5746851563453674,
            -0.1131717711687088,
            -0.9423083066940308,
            -0.59958815574646,
            -0.3612794578075409,
            -0.4517206847667694,
            -0.09621605277061462,
            0.22632600367069244,
            -0.6859040856361389,
            0.6701978445053101,
            0.11688294261693954,
            0.02942453883588314,
            -0.1829567402601242,
            0.07235556095838547,
            -0.19368219375610352,
            -0.8549744486808777,
            -0.3397682309150696,
            -0.8256664276123047,
            0.014220823533833027,
            0.8420288562774658,
            -0.33823588490486145,
            -0.5495366454124451,
            0.16450372338294983,
            -0.2640344798564911,
            0.5011464953422546,
            0.01873616687953472,
            0.08598742634057999,
            0.008631186559796333,
            1.098272442817688,
            -0.801811158657074,
            0.08823782205581665,
            0.2523235082626343,
            -0.20117348432540894,
            0.2314830720424652,
            0.538279116153717,
            0.12828554213047028
        ],
        "bias": [
            -0.15030938386917114,
            -0.6980767250061035,
            0.2356235384941101,
            0.5819680094718933,
            -0.09864422678947449,
            -0.26285356283187866,
            0.24130740761756897,
            0.2192024141550064,
            0.10218219459056854,
            -1.081404209136963,
            -0.436227411031723,
            -0.07293421775102615,
            0.09305568039417267,
            0.02727726474404335,
            0.10580901056528091,
            0.029390690848231316,
            -0.30099260807037354,
            -0.43083229660987854,
            0.024670585989952087,
            0.23968788981437683,
            -0.16725721955299377,
            0.17519457638263702
        ]
    }
}