{
    "value": {
        "hidden_layer_size": 30,
        "hidden_layer_count": 2,
        "weights": [
            0.19428792595863342,
            0.40886250138282776,
            0.11444634199142456,
            0.4245848059654236,
            0.4642603397369385,
            -0.05412633717060089,
            0.35847917199134827,
            0.5445677638053894,
            0.26064562797546387,
            -0.43589821457862854,
            -0.16719941794872284,
            -0.780291736125946,
            -0.3465331494808197,
            0.6087600588798523,
            -0.41610631346702576,
            1.4981199502944946,
            -0.8750158548355103,
            -0.15199999511241913,
            -0.41553521156311035,
            0.138775035738945,
            0.07437342405319214,
            0.277813583612442,
            -0.09224890172481537,
            -0.6274678111076355,
            0.5274605751037598,
            0.5660138130187988,
            0.7672104239463806,
            -0.5284046530723572,
            -0.34570935368537903,
            -0.10906420648097992,
            0.10530048608779907,
            0.1309538036584854,
            -1.1681015491485596,
            -0.0712319165468216,
            -0.22297893464565277,
            -0.5165584683418274,
            0.11041703820228577,
            0.05597180500626564,
            -0.25497403740882874,
            0.8914339542388916,
            -1.1965481042861938,
            -0.20058020949363708,
            0.32055267691612244,
            0.0981530025601387,
            -0.3166356384754181,
            -0.15699079632759094,
            0.4172150194644928,
            -0.34019961953163147,
            0.5302990674972534,
            -0.6143768429756165,
            0.3057733178138733,
            0.032880812883377075,
            -0.4818638861179352,
            -0.16007490456104279,
            0.0806979164481163,
            -0.9631230235099792,
            -0.42262354493141174,
            -0.7975466847419739,
            -0.5588082671165466,
            0.976417601108551,
            0.16116036474704742,
            0.3133435845375061,
            -0.14759226143360138,
            -0.0026640351861715317,
            -1.823907732963562,
            0.7587570548057556,
            0.24946436285972595,
            0.06838257610797882,
            0.502357542514801,
            -0.3145599663257599,
            0.15065115690231323,
            -0.2695477604866028,
            -1.000557541847229,
            -1.7218023538589478,
            -1.069318413734436,
            0.0270058736205101,
            -0.2667836844921112,
            1.1556028127670288,
            1.352935791015625,
            -0.12661880254745483,
            0.7887400388717651,
            -0.42488792538642883,
            0.41406986117362976,
            0.2453925907611847,
            -0.10422077775001526,
            0.33793967962265015,
            0.29930418729782104,
            0.3892885148525238,
            0.2928830087184906,
            -0.41915249824523926,
            -1.1185897588729858,
            1.4894217252731323,
            -0.489163339138031,
            -0.7426181435585022,
            -0.14293184876441956,
            -0.09238868951797485,
            0.13152164220809937,
            -0.19697648286819458,
            -0.18477779626846313,
            -0.08366086333990097,
            -0.28135958313941956,
            0.10913436114788055,
            -0.3275887370109558,
            0.07889582216739655,
            -0.2174946814775467,
            -0.6146189570426941,
            0.011171506717801094,
            -0.7377220392227173,
            0.09436234086751938,
            -0.3982546031475067,
            0.3563123643398285,
            -0.4316891133785248,
            0.10817637294530869,
            0.6698917150497437,
            0.3105371594429016,
            0.8481535315513611,
            0.06711578369140625,
            -0.5092429518699646,
            0.2044329047203064,
            -0.364132821559906,
            0.40592294931411743,
            -0.4730018079280853,
            0.44688424468040466,
            0.22570554912090302,
            -0.5389426946640015,
            -0.23133914172649384,
            -0.1104564517736435,
            -0.07442575693130493,
            -0.8492236137390137,
            0.5508633852005005,
            0.1971791833639145,
            0.47237807512283325,
            -0.006508610211312771,
            1.2980847358703613,
            0.5810218453407288,
            1.7865768671035767,
            1.613704800605774,
            0.6544206738471985,
            -0.2495597004890442,
            -2.2395591735839844,
            -1.4869149923324585,
            -1.6925803422927856,
            0.23280224204063416,
            1.520422339439392,
            -0.079328253865242,
            -0.6728090047836304,
            0.04071930795907974,
            0.20611733198165894,
            -0.7365707159042358,
            -0.9984242916107178,
            0.30966150760650635,
            -0.3357389271259308,
            -0.38364332914352417,
            -0.5797637701034546,
            -0.8701285123825073,
            -0.36078929901123047,
            -0.7660484313964844,
            -0.48623526096343994,
            0.15339815616607666,
            -0.6239511966705322,
            -0.2353958785533905,
            0.05490260571241379,
            0.11075788736343384,
            0.13843074440956116,
            -0.10839871317148209,
            0.05031773820519447,
            -0.19934815168380737,
            0.18091443181037903,
            -0.32150542736053467,
            -0.37160950899124146,
            -0.9010744094848633,
            0.5971064567565918,
            -0.5189480781555176,
            -0.6770119667053223,
            0.14606760442256927,
            -0.31903234124183655,
            0.21352490782737732,
            -0.3088504374027252,
            0.16270047426223755,
            0.44877466559410095,
            -0.29813578724861145,
            0.20893242955207825,
            -0.027407772839069366,
            -0.2912406027317047,
            -0.551175594329834,
            0.19861090183258057,
            -0.9399160742759705,
            -0.7971029877662659,
            0.22269980609416962,
            -0.15569017827510834,
            -0.24018895626068115,
            -0.21335144340991974,
            1.6812516450881958,
            0.12428499013185501,
            -0.3008192777633667,
            0.26375722885131836,
            0.275448739528656,
            0.760574221611023,
            -0.9163534641265869,
            -0.08682582527399063,
            -0.0750751718878746,
            0.611574113368988,
            0.06059810519218445,
            -0.3310185670852661,
            -0.3277369439601898,
            -0.3259807527065277,
            -0.4910989999771118,
            -0.13136567175388336,
            -0.059319306164979935,
            -0.5901393294334412,
            -0.32673346996307373,
            0.0435803160071373,
            0.5753645896911621,
            0.04625581204891205,
            0.003075485583394766,
            -0.973029375076294,
            0.6506844162940979,
            -0.17770445346832275,
            0.056504253298044205,
            -0.14330698549747467,
            -0.7377991676330566,
            0.2576383948326111,
            0.53560870885849,
            0.006411833688616753,
            -4.080477714538574,
            0.5227026343345642,
            0.4074385166168213,
            0.17349930107593536,
            0.16057373583316803,
            -0.06411729007959366,
            0.07964713126420975,
            -0.12212561070919037,
            -0.2009209543466568,
            -0.09615873545408249,
            -1.7595869302749634,
            -0.07966069132089615,
            -0.15900535881519318,
            -0.1005486398935318,
            0.09938894957304001,
            0.15389738976955414,
            0.025447487831115723,
            0.47911542654037476,
            0.4355641305446625,
            0.1696111112833023,
            1.0852793455123901,
            -0.5865190029144287,
            -0.12823058664798737,
            0.6783787608146667,
            0.5424131155014038,
            -0.4131995141506195,
            -0.9312462210655212,
            1.0321688652038574,
            -0.03322385996580124,
            0.022275686264038086,
            0.6119957566261292,
            0.11213414371013641,
            -2.5695106983184814,
            0.06377286463975906,
            -0.5791281461715698,
            -0.09720488637685776,
            0.6491554975509644,
            -0.032868657261133194,
            -0.0777793899178505,
            -0.47933974862098694,
            -0.1501118242740631,
            0.27548158168792725,
            0.23966549336910248,
            0.011168019846081734,
            0.0892702117562294,
            0.18293344974517822,
            0.24745742976665497,
            -0.3541133403778076,
            -7.3152008056640625,
            2.27315616607666,
            -0.25420665740966797,
            0.37276872992515564,
            0.5539403557777405,
            0.8395227789878845,
            0.13585354387760162,
            -0.03539173677563667,
            0.3106693923473358,
            0.9195042848587036,
            1.2803676128387451,
            -0.6403149962425232,
            -0.12627755105495453,
            0.1077059879899025,
            0.20717477798461914,
            0.5609877705574036,
            2.3312008380889893,
            -0.19241078197956085,
            0.5759781002998352,
            0.6817035675048828,
            -0.25142520666122437,
            0.7182086706161499,
            -0.468552827835083,
            0.10086271911859512,
            0.5105212926864624,
            -0.04153674095869064,
            0.3534376621246338,
            -0.3579263687133789,
            -0.675547182559967,
            0.01264285296201706,
            -0.1931290328502655,
            -0.6186014413833618,
            2.6326026916503906,
            -0.3234785497188568,
            -0.10308879613876343,
            0.8105974197387695,
            0.23730601370334625,
            0.23266036808490753,
            0.04397670179605484,
            -0.7480364441871643,
            -0.046505700796842575,
            -0.3011433780193329,
            -0.06392578780651093,
            -0.38462167978286743,
            0.6922397017478943,
            0.39439019560813904,
            0.13463501632213593,
            1.4155079126358032,
            1.0957540273666382,
            -0.04607292264699936,
            0.9456228017807007,
            0.01861088164150715,
            -0.012018694542348385,
            -0.006257712375372648,
            1.2246838808059692,
            0.10463584959506989,
            -0.26572054624557495,
            -0.4378959834575653,
            -0.9937678575515747,
            -0.8954249620437622,
            -0.5242162346839905,
            -0.5366175770759583,
            1.000523567199707,
            1.1870368719100952,
            6.055716514587402,
            -0.965431272983551,
            0.08833448588848114,
            -0.608432948589325,
            -0.212762713432312,
            0.3693087100982666,
            0.008435945957899094,
            -0.10674379020929337,
            -0.44567710161209106,
            -0.38411200046539307,
            -0.4344223141670227,
            -1.2527809143066406,
            -0.449138879776001,
            -0.40223902463912964,
            -0.5221170783042908,
            0.4452754259109497,
            -0.2925509512424469,
            0.01882188394665718,
            0.7241806387901306,
            -0.266050785779953,
            0.04586779326200485,
            -0.27283743023872375,
            -0.28643107414245605,
            -0.4533725380897522,
            -0.8511859774589539,
            -0.09771202504634857,
            0.05831668898463249,
            -1.378093957901001,
            -0.18042127788066864,
            0.9289484024047852,
            0.5199275016784668,
            0.06491776555776596,
            -1.3303956985473633,
            -0.41759055852890015,
            -0.3594611883163452,
            -0.041648562997579575,
            -0.4038030207157135,
            0.7630966305732727,
            -0.5021555423736572,
            0.8987635374069214,
            -0.055083710700273514,
            -0.4013277590274811,
            -0.7550239562988281,
            -1.1016066074371338,
            -0.20287194848060608,
            0.25942158699035645,
            -0.0674968734383583,
            0.4031275808811188,
            0.20254704356193542,
            -0.7223673462867737,
            -0.012892158702015877,
            0.32527613639831543,
            0.3713243901729584,
            -0.6087148785591125,
            -0.29258993268013,
            0.06131494790315628,
            0.06581833958625793,
            0.21583132445812225,
            0.24215029180049896,
            -0.44291505217552185,
            -0.12277782708406448,
            -0.32527005672454834,
            -0.09315839409828186,
            0.19770336151123047,
            3.101806640625,
            -0.7889951467514038,
            -0.8240911960601807,
            -0.036799151450395584,
            -0.2955966591835022,
            -0.5495662093162537,
            0.14880360662937164,
            -0.2345612496137619,
            0.2909270226955414,
            -0.5868406295776367,
            -0.4018622934818268,
            -0.0009527844376862049,
            -0.27039605379104614,
            -0.43514978885650635,
            -0.2701655626296997,
            -0.48263150453567505,
            -0.2787730097770691,
            0.5815764665603638,
            -0.19986575841903687,
            -0.10108689963817596,
            0.2369541972875595,
            0.3854087293148041,
            0.20033936202526093,
            -0.45325741171836853,
            -0.1504727303981781,
            -0.4618050158023834,
            -0.02585344947874546,
            -1.091753363609314,
            0.03994065523147583,
            -0.283293217420578,
            -0.20130181312561035,
            0.4354766607284546,
            1.0723848342895508,
            0.003494641510769725,
            0.4013255834579468,
            0.8685033321380615,
            -0.2554914951324463,
            0.5877606868743896,
            -0.27884742617607117,
            -0.22089612483978271,
            -0.3497909605503082,
            -0.47198450565338135,
            -0.9153727889060974,
            -0.5444350242614746,
            0.027464091777801514,
            -0.06017553061246872,
            -0.49927783012390137,
            -0.6176532506942749,
            0.947699785232544,
            -0.9986476302146912,
            0.005186497699469328,
            -0.46744251251220703,
            0.19815555214881897,
            0.34160828590393066,
            -0.4957410991191864,
            -0.03980933129787445,
            -1.4615437984466553,
            -1.7306523323059082,
            -2.2593002319335938,
            -1.1581798791885376,
            -0.07209639251232147,
            1.221516728401184,
            2.079378843307495,
            2.970133066177368,
            0.33182382583618164,
            -0.05660190060734749,
            -0.10156518965959549,
            0.18963304162025452,
            0.20758847892284393,
            0.4130525588989258,
            -0.1830991804599762,
            0.11300472915172577,
            0.027294054627418518,
            -0.36130547523498535,
            -0.3711303770542145,
            -0.7246578931808472,
            -0.032694555819034576,
            -0.5218313932418823,
            -0.03986329957842827,
            0.23468907177448273,
            -0.2632743716239929,
            0.14935651421546936,
            -0.013260528445243835,
            0.9139717817306519,
            0.28623631596565247,
            0.1668587177991867,
            0.30317097902297974,
            -0.34040579199790955,
            -0.4218462407588959,
            -0.15130794048309326,
            0.023744357749819756,
            -0.2637156844139099,
            0.010121031664311886,
            0.5271693468093872,
            -0.18076211214065552,
            -0.09825800359249115,
            -0.11403737217187881,
            -0.08799289911985397,
            -0.46650007367134094,
            0.06253428757190704,
            -0.667599081993103,
            -0.1461804062128067,
            -0.5550506711006165,
            -0.1710507869720459,
            -0.27318450808525085,
            0.27267712354660034,
            -0.03125077858567238,
            -0.05377477407455444,
            0.2797930836677551,
            -0.4973803162574768,
            -0.07404515892267227,
            0.48554229736328125,
            0.13278064131736755,
            -0.8547983765602112,
            0.8636142611503601,
            -0.3822115361690521,
            -0.20311829447746277,
            -0.42514076828956604,
            0.491045206785202,
            -0.44287651777267456,
            -0.7054369449615479,
            -0.1418302357196808,
            0.18741120398044586,
            -0.19567716121673584,
            0.6044913530349731,
            -0.8405046463012695,
            0.6925504207611084,
            0.16405488550662994,
            0.0742751881480217,
            -0.018942037597298622,
            -0.504740297794342,
            -0.7716789245605469,
            -0.9114453792572021,
            0.04668248072266579,
            -0.1381811797618866,
            -0.46637290716171265,
            -0.02086086943745613,
            0.17810378968715668,
            -0.3738180994987488,
            -0.15947410464286804,
            -0.27627572417259216,
            -0.0010033042635768652,
            -0.2535988390445709,
            -0.22762422263622284,
            -0.9343929290771484,
            -0.3775174021720886,
            0.3049951195716858,
            0.5922114849090576,
            -0.16873668134212494,
            -1.30704665184021,
            -0.4246887266635895,
            -0.378755122423172,
            0.6471115946769714,
            0.700764536857605,
            -0.368571400642395,
            -0.06998138129711151,
            0.3158157765865326,
            0.0022183889523148537,
            0.7865769267082214,
            0.36087554693222046,
            0.5143437385559082,
            0.17452861368656158,
            -0.37408870458602905,
            -0.04989532753825188,
            -0.13491517305374146,
            -0.3344367742538452,
            -0.06575880944728851,
            -0.7183884382247925,
            1.0756067037582397,
            0.0840790718793869,
            0.008089344017207623,
            -0.3540262281894684,
            0.18954135477542877,
            0.13522587716579437,
            -0.05217502638697624,
            0.5249446034431458,
            -0.4107166826725006,
            0.15219026803970337,
            0.5776935815811157,
            -0.43709906935691833,
            -0.23139150440692902,
            0.06956467032432556,
            0.09230237454175949,
            0.0895378589630127,
            0.2779468894004822,
            -0.9400635957717896,
            0.19108127057552338,
            0.01851237751543522,
            0.4113062918186188,
            -0.01267253141850233,
            -0.11688168346881866,
            0.24229414761066437,
            -0.13344566524028778,
            0.45157620310783386,
            0.47374969720840454,
            0.7357881665229797,
            0.11799988150596619,
            -0.019458914175629616,
            -0.26461663842201233,
            -0.1510404497385025,
            0.33149346709251404,
            0.08200006186962128,
            0.09485730528831482,
            -0.21934904158115387,
            0.043436482548713684,
            -0.02505030855536461,
            -0.34390565752983093,
            -0.7091361284255981,
            0.9251262545585632,
            -0.41066774725914,
            -0.2677830457687378,
            -0.279778391122818,
            -0.20097480714321136,
            -0.1843073070049286,
            -0.19816553592681885,
            -0.4958713948726654,
            0.7299139499664307,
            0.5305190682411194,
            -0.20897120237350464,
            0.8808918595314026,
            -0.062290895730257034,
            0.3860388994216919,
            -0.678213894367218,
            0.0007930633728392422,
            0.15503908693790436,
            0.040458254516124725,
            -0.030338788405060768,
            0.3904891908168793,
            0.7888336777687073,
            -0.19972604513168335,
            -0.12481114268302917,
            -0.17779558897018433,
            0.12723082304000854,
            -0.18819226324558258,
            0.5865482687950134,
            -0.3482706844806671,
            0.15903884172439575,
            -0.3113155663013458,
            0.7243202924728394,
            -0.17334741353988647,
            0.08529136329889297,
            -0.2555732727050781,
            0.1444035768508911,
            0.19807513058185577,
            0.6204184293746948,
            -0.19816474616527557,
            0.22663776576519012,
            0.37140753865242004,
            0.3051373362541199,
            0.22293424606323242,
            -0.45183613896369934,
            -0.7049766778945923,
            -0.49159419536590576,
            0.5752081274986267,
            -0.19088530540466309,
            -0.8006905913352966,
            0.0708903819322586,
            0.7902555465698242,
            -0.21875102818012238,
            0.10086464881896973,
            -0.28103384375572205,
            -0.004023612476885319,
            -0.1663149893283844,
            -0.2723565995693207,
            0.9415372610092163,
            -0.33095356822013855,
            0.04480721056461334,
            -0.18946990370750427,
            -0.8633788824081421,
            0.02348688244819641,
            0.14611655473709106,
            -0.041203878819942474,
            0.03394074738025665,
            -0.3217303156852722,
            -0.1207047775387764,
            -0.3568355143070221,
            -0.1469520628452301,
            0.024036617949604988,
            -0.33867716789245605,
            -0.1075390949845314,
            -0.34254711866378784,
            -0.1310761719942093,
            -0.3662126958370209,
            -0.07359153777360916,
            -0.09195668995380402,
            0.17461518943309784,
            -0.39560842514038086,
            -0.1524370014667511,
            -0.5172032713890076,
            -0.28414657711982727,
            0.5528271198272705,
            0.05289629474282265,
            -0.08319524675607681,
            0.1397319734096527,
            -0.23401522636413574,
            -0.5362526178359985,
            -0.2842797040939331,
            0.014503787271678448,
            0.16066360473632812,
            -0.2863601744174957,
            -0.5626482367515564,
            -0.4547022879123688,
            -0.22339342534542084,
            -0.12023046612739563,
            -0.009757443331182003,
            0.051371026784181595,
            -0.07080110162496567,
            0.005793916527181864,
            0.010550694540143013,
            -0.04363800957798958,
            -0.20751044154167175,
            -0.09582334011793137,
            0.3937326967716217,
            -0.10035382956266403,
            -0.0652865618467331,
            0.3377458155155182,
            -0.37484365701675415,
            -0.17891566455364227,
            -0.10351249575614929,
            0.010192988440394402,
            -0.4098629951477051,
            -0.05524270981550217,
            0.15974397957324982,
            0.07835772633552551,
            -0.15805719792842865,
            0.1498289704322815,
            0.3427131175994873,
            0.2722833454608917,
            -0.523546576499939,
            -0.31063133478164673,
            0.15093357861042023,
            -0.1359052062034607,
            -0.0071526202373206615,
            -0.3970887064933777,
            0.07752739638090134,
            0.1610434502363205,
            -0.5794260501861572,
            0.4626796841621399,
            -0.20088987052440643,
            -0.3454096019268036,
            0.012953430414199829,
            -0.17646892368793488,
            -0.22253358364105225,
            0.21402597427368164,
            0.2508161664009094,
            0.0819263830780983,
            -0.18527157604694366,
            0.12014897912740707,
            0.1807897686958313,
            0.1523243486881256,
            -0.2968544065952301,
            0.2995142936706543,
            -0.5044599175453186,
            -0.3309944272041321,
            -1.0326321125030518,
            -0.5597096085548401,
            -0.10012409090995789,
            -0.18237218260765076,
            0.6480093598365784,
            -0.6220735907554626,
            -0.2933705151081085,
            -0.5235732793807983,
            -0.14472463726997375,
            -0.03718825429677963,
            -1.0398023128509521,
            -0.19900938868522644,
            -0.07968253642320633,
            0.4457072913646698,
            -0.11039852350950241,
            0.4124360978603363,
            0.34076669812202454,
            0.2729286253452301,
            -0.6187209486961365,
            -0.7574501037597656,
            -0.15808917582035065,
            -0.7031892538070679,
            -0.7907034754753113,
            -0.126936674118042,
            1.0245705842971802,
            -0.29322922229766846,
            -0.2968316376209259,
            0.13521744310855865,
            -0.029425298795104027,
            0.41221678256988525,
            0.5221811532974243,
            0.4543478786945343,
            -0.3392367362976074,
            -0.2892630696296692,
            0.05487315356731415,
            -0.4926500618457794,
            0.3651132881641388,
            -0.11771956831216812,
            -0.2679859697818756,
            -0.31794771552085876,
            0.27246585488319397,
            0.2604719400405884,
            -0.0481448657810688,
            -0.45264726877212524,
            -0.2134193778038025,
            0.24597257375717163,
            -0.17148266732692719,
            -0.2122616469860077,
            -0.25406521558761597,
            -0.7522571682929993,
            -0.09682011604309082,
            -0.33087512850761414,
            -0.2149239182472229,
            -0.24694305658340454,
            0.3764224350452423,
            -0.3150946795940399,
            -0.19568100571632385,
            -0.3652692437171936,
            0.10834196954965591,
            0.23629902303218842,
            -0.47044989466667175,
            0.1753559112548828,
            -0.1920246183872223,
            -0.2960701286792755,
            -0.40609413385391235,
            -0.2663445472717285,
            -0.26349690556526184,
            0.09186398237943649,
            -0.7138176560401917,
            -0.22812002897262573,
            0.21175123751163483,
            -0.3892126679420471,
            -0.1618291735649109,
            0.393945574760437,
            0.41894620656967163,
            0.27966204285621643,
            -0.1615298092365265,
            -0.1667695790529251,
            0.11105004698038101,
            -0.3725953698158264,
            -0.018157465383410454,
            -0.057896580547094345,
            -0.289980411529541,
            -0.05888606607913971,
            -0.148561030626297,
            0.00270468695089221,
            0.5816333889961243,
            -0.4346012771129608,
            0.24740047752857208,
            0.11141878366470337,
            0.06350578367710114,
            0.13257768750190735,
            0.20230403542518616,
            0.02659725770354271,
            -0.13689488172531128,
            -0.13819758594036102,
            -0.15473534166812897,
            -0.08545935899019241,
            -0.2664574682712555,
            0.5112435817718506,
            0.29151996970176697,
            -0.29471108317375183,
            0.11848468333482742,
            0.12448214739561081,
            -0.05065767839550972,
            0.6067205667495728,
            -0.2303902804851532,
            0.1648281365633011,
            -0.41672414541244507,
            -0.08777683973312378,
            -0.37923941016197205,
            0.506350576877594,
            0.09208226948976517,
            -0.14052245020866394,
            -0.25613224506378174,
            -0.1474159210920334,
            -0.3075177073478699,
            0.3903989791870117,
            0.05151069909334183,
            -0.09069257974624634,
            -0.14187775552272797,
            -0.26760509610176086,
            0.11534757167100906,
            0.07587872445583344,
            0.08500615507364273,
            -0.1196596547961235,
            -0.29423290491104126,
            0.1324704885482788,
            0.6951497197151184,
            0.09266109764575958,
            -0.14422470331192017,
            0.05690085515379906,
            0.33885371685028076,
            0.6155027151107788,
            0.05151737108826637,
            -0.09913532435894012,
            0.5666244626045227,
            0.3764047920703888,
            -0.6668910980224609,
            -0.0752161294221878,
            -0.25982218980789185,
            -0.0745982974767685,
            -0.19887898862361908,
            0.006500099785625935,
            0.8257302045822144,
            0.1701192855834961,
            -0.4059610962867737,
            0.25461962819099426,
            -0.054687194526195526,
            -0.26894915103912354,
            0.1288563311100006,
            0.162357896566391,
            -0.2046205699443817,
            -0.3320947289466858,
            0.03262988105416298,
            -0.26955685019493103,
            0.15247204899787903,
            -0.37493574619293213,
            0.13797035813331604,
            0.05614563822746277,
            0.3182654082775116,
            -0.3809794783592224,
            0.012858623638749123,
            -0.414379745721817,
            0.034388843923807144,
            0.11701475083827972,
            -0.4384387135505676,
            0.05983426794409752,
            0.33701926469802856,
            0.20162972807884216,
            -0.1271311193704605,
            -0.047822244465351105,
            0.2557932138442993,
            -0.4135221242904663,
            -0.39288249611854553,
            0.1844826340675354,
            -0.1852864921092987,
            -0.357513427734375,
            -0.1813374012708664,
            -0.3494971990585327,
            -0.36791351437568665,
            0.219604954123497,
            0.04369375482201576,
            -0.5922301411628723,
            -0.06405682861804962,
            0.8743243217468262,
            0.2928884029388428,
            0.39104655385017395,
            0.24914658069610596,
            0.39125412702560425,
            -0.09661146253347397,
            -0.6054636240005493,
            -0.006839821580797434,
            -0.4662252366542816,
            -0.4361568093299866,
            0.19328589737415314,
            -0.3112199902534485,
            -0.22927604615688324,
            0.22231914103031158,
            0.13500256836414337,
            0.052078332751989365,
            -0.42609721422195435,
            0.384255588054657,
            0.5812907218933105,
            -0.10765767097473145,
            0.10471485555171967,
            0.11375905573368073,
            -0.13424994051456451,
            -0.6949478387832642,
            0.183814138174057,
            -0.9999886751174927,
            0.6238345503807068,
            0.2861331105232239,
            -0.14015953242778778,
            -0.3978699743747711,
            -0.3510361909866333,
            -0.03018820844590664,
            0.6408984065055847,
            0.4191585183143616,
            0.3590196669101715,
            -0.37189534306526184,
            0.009503296576440334,
            -0.11711960285902023,
            0.5472185611724854,
            -0.19290639460086823,
            0.5393896102905273,
            -0.041353508830070496,
            0.43323519825935364,
            -0.9163936972618103,
            0.6009404063224792,
            0.34599190950393677,
            0.516879677772522,
            0.15562787652015686,
            0.06208297982811928,
            0.3575979769229889,
            0.2837812006473541,
            -0.06666907668113708,
            -0.34848761558532715,
            0.4212953746318817,
            -0.020317822694778442,
            0.434481143951416,
            -0.0834728553891182,
            -0.3239012658596039,
            -0.04322089999914169,
            0.34658336639404297,
            0.020226947963237762,
            0.2992880344390869,
            -0.08650476485490799,
            0.06407041102647781,
            0.4674933850765228,
            -1.2212283611297607,
            0.19844572246074677,
            -0.12543919682502747,
            -1.130670189857483,
            0.0753798559308052,
            0.09191133826971054,
            -0.1256335824728012,
            -0.6176807284355164,
            0.49028658866882324,
            -0.5870805978775024,
            -0.15139342844486237,
            -0.5922426581382751,
            0.002370369154959917,
            0.06470279395580292,
            -0.26630115509033203,
            -0.3229433298110962,
            0.14951923489570618,
            0.14912937581539154,
            -0.08566897362470627,
            -0.05969091132283211,
            0.34573081135749817,
            -0.2707791328430176,
            0.10470525175333023,
            -0.27884435653686523,
            -0.34909987449645996,
            0.29786160588264465,
            0.2286103516817093,
            -0.08643872290849686,
            -0.5390453338623047,
            -0.17181247472763062,
            0.1656438112258911,
            -0.09929060935974121,
            0.19128799438476562,
            -0.103556789457798,
            -0.0718468651175499,
            0.059722501784563065,
            0.02336091734468937,
            -0.028127454221248627,
            -0.1944013088941574,
            -0.4330523908138275,
            -0.408534437417984,
            -0.18116022646427155,
            -0.11227934062480927,
            -0.04976487532258034,
            0.1653800755739212,
            0.3058546483516693,
            -0.1503530740737915,
            -0.27266359329223633,
            0.312250554561615,
            0.303781658411026,
            0.15620720386505127,
            0.7707376480102539,
            0.0014793387381359935,
            -0.07255181670188904,
            0.19348998367786407,
            -0.20092147588729858,
            0.0899599939584732,
            -0.6252270340919495,
            0.27588018774986267,
            -0.16169854998588562,
            -0.2214682251214981,
            0.22053004801273346,
            -0.3169189393520355,
            -0.34368836879730225,
            0.20258274674415588,
            -0.041239768266677856,
            0.6483951210975647,
            -0.612260639667511,
            -0.4147728979587555,
            -0.7841119170188904,
            -0.2048301249742508,
            -0.5118575096130371,
            -0.6432650685310364,
            -0.5678778886795044,
            -0.23081742227077484,
            -0.17757822573184967,
            0.06486005336046219,
            -0.3554055392742157,
            -0.3178951144218445,
            -0.2667340934276581,
            -0.5846677422523499,
            -0.2008051872253418,
            0.11647047102451324,
            -0.059477221220731735,
            -0.09976284950971603,
            -0.028347332030534744,
            -0.5420242547988892,
            -0.21369002759456635,
            -0.0936662033200264,
            0.1318202167749405,
            -0.2607954144477844,
            -0.21031811833381653,
            0.2900724411010742,
            -0.22803492844104767,
            -0.3132023513317108,
            -0.2457195669412613,
            -0.5882495641708374,
            -0.40394270420074463,
            0.19197320938110352,
            0.2075159251689911,
            -0.36562031507492065,
            -0.23693090677261353,
            -0.24950675666332245,
            0.28448933362960815,
            0.06790237873792648,
            0.37828317284584045,
            -0.029383564367890358,
            -0.23049744963645935,
            0.1645563393831253,
            0.4722450375556946,
            0.328102171421051,
            -0.1635080724954605,
            -0.36151424050331116,
            0.24605320394039154,
            -0.20323890447616577,
            -0.45114049315452576,
            0.24107901751995087,
            -0.02339410036802292,
            -0.01168261468410492,
            -0.2600013017654419,
            -0.2388266772031784,
            -0.1901867538690567,
            -0.1035347580909729,
            -0.07440293580293655,
            0.16230638325214386,
            0.10446108877658844,
            -0.09382939338684082,
            -0.03667330741882324,
            -0.39416563510894775,
            -0.3227945864200592,
            -0.06349944323301315,
            0.09544657170772552,
            -0.19250163435935974,
            -0.45543113350868225,
            0.35979336500167847,
            -0.1556907743215561,
            0.6211666464805603,
            0.18741828203201294,
            0.39469680190086365,
            0.6874983310699463,
            0.4520275592803955,
            0.2068483680486679,
            -0.46522361040115356,
            0.1465185433626175,
            0.7511370778083801,
            0.0876927599310875,
            -0.16415390372276306,
            -0.43151822686195374,
            -0.6044912338256836,
            0.01372232660651207,
            -0.5328007936477661,
            -0.42082715034484863,
            -0.21765385568141937,
            0.09991008788347244,
            -0.12559562921524048,
            0.41000622510910034,
            -0.8363672494888306,
            0.4087308347225189,
            0.13417448103427887,
            0.19619053602218628,
            0.03947344049811363,
            0.3401426076889038,
            0.3923710584640503,
            -0.42157676815986633,
            0.24178893864154816,
            -0.21773706376552582,
            -0.9720624685287476,
            0.7043401598930359,
            0.045445531606674194,
            0.011616277508437634,
            -0.514061450958252,
            -0.33639615774154663,
            -0.5238246917724609,
            0.018388187512755394,
            -1.259323239326477,
            0.04357168450951576,
            0.11737848818302155,
            -0.3733862638473511,
            0.1945183426141739,
            0.03127564862370491,
            -0.06147769093513489,
            -0.17297060787677765,
            -0.3461765646934509,
            0.27082428336143494,
            -0.46236535906791687,
            0.027497785165905952,
            -0.08449910581111908,
            0.2771683931350708,
            -0.13317535817623138,
            0.02603898197412491,
            -0.18596720695495605,
            0.17710214853286743,
            -0.5929197669029236,
            -0.04311845079064369,
            -0.28611695766448975,
            -0.2425929754972458,
            0.2991544306278229,
            -0.24934236705303192,
            0.42284977436065674,
            -0.3880934417247772,
            0.7557000517845154,
            -0.6824656128883362,
            -0.05779815837740898,
            -0.26401570439338684,
            0.19132080674171448,
            -0.21191813051700592,
            -0.12453728914260864,
            -0.2792365252971649,
            -0.2825280725955963,
            -0.2734726071357727,
            -0.8924186825752258,
            -0.5468736290931702,
            0.03288647159934044,
            0.4839631915092468,
            -0.1597839593887329,
            0.27132928371429443,
            0.11522380262613297,
            0.00396768469363451,
            -0.4342619478702545,
            -0.3303065001964569,
            -0.43576326966285706,
            0.05185174196958542,
            -0.8920608758926392,
            -0.10934683680534363,
            0.7308423519134521,
            -0.08264648169279099,
            -0.26580366492271423,
            0.4730888307094574,
            -0.3216729462146759,
            0.020762918516993523,
            -0.9581595659255981,
            0.4007021486759186,
            -0.4682773947715759,
            -0.08438986539840698,
            -1.2163664102554321,
            -0.13051651418209076,
            0.5486518740653992,
            0.09518766403198242,
            -0.027343057096004486,
            0.11019871383905411,
            0.4291402995586395,
            -0.5326744914054871,
            -0.016831377521157265,
            0.63984614610672,
            0.13961972296237946,
            -0.426873117685318,
            -0.35649123787879944,
            -0.34509414434432983,
            0.16835996508598328,
            -0.12870515882968903,
            0.2670341730117798,
            -0.5279375314712524,
            -0.3576400876045227,
            -0.40182244777679443,
            0.2919333577156067,
            -0.1555323302745819,
            -0.23237459361553192,
            0.10853156447410583,
            -0.04701956734061241,
            -0.3047187626361847,
            -0.520626962184906,
            -0.19096305966377258,
            -0.2361922562122345,
            -0.029418058693408966,
            -0.1312609314918518,
            -0.4836888909339905,
            -0.021660035476088524,
            -0.04751022160053253,
            0.7218713760375977,
            0.23587268590927124,
            -0.27407896518707275,
            0.4445636570453644,
            -0.12772111594676971,
            -0.0638081431388855,
            0.2757614850997925,
            0.1992081254720688,
            0.13166479766368866,
            -0.06622228771448135,
            -0.553771436214447,
            -0.4230159521102905,
            0.21396850049495697,
            0.17371982336044312,
            0.00275446567684412,
            -0.601050615310669,
            0.6945533156394958,
            -0.02666713483631611,
            -0.04362209513783455,
            0.18485715985298157,
            0.5616358518600464,
            -0.1289909929037094,
            0.05435670167207718,
            0.13735492527484894,
            -0.07611612230539322,
            0.027730772271752357,
            0.250979483127594,
            0.6911818981170654,
            0.32928258180618286,
            -0.1812325417995453,
            -0.012439196929335594,
            -0.19282719492912292,
            0.08372607827186584,
            -0.08941046893596649,
            0.12517476081848145,
            -0.07487562298774719,
            -0.07189138233661652,
            -0.01641934923827648,
            -0.38680073618888855,
            -0.21941417455673218,
            -0.060675766319036484,
            -0.2769695520401001,
            -0.04354393854737282,
            -0.08323566615581512,
            -0.03612719476222992,
            0.02185177616775036,
            0.035947591066360474,
            0.15631361305713654,
            -0.673139214515686,
            -0.18672865629196167,
            0.056012123823165894,
            -0.4877331554889679,
            -0.38656413555145264,
            -0.5622951984405518,
            0.3124958276748657,
            -0.5985069274902344,
            -0.41011717915534973,
            -0.3604605495929718,
            -0.1451246440410614,
            -0.8736786246299744,
            0.25183385610580444,
            0.35057973861694336,
            -0.12770651280879974,
            0.09175939112901688,
            0.2429421842098236,
            0.0631994977593422,
            0.18389509618282318,
            0.1360493153333664,
            -0.3077043294906616,
            0.20575116574764252,
            -0.736568033695221,
            -0.013920881785452366,
            -0.04487548768520355,
            -0.05026766285300255,
            -0.1806778460741043,
            -0.21812520921230316,
            -0.7783563137054443,
            0.05817994475364685,
            -0.4362003803253174,
            -0.3027253746986389,
            -0.13543325662612915,
            -0.09543397277593613,
            -0.17863929271697998,
            -0.07862888276576996,
            -0.36079660058021545,
            -0.12007565796375275,
            0.00040168591658584774,
            0.18411491811275482,
            -0.10310520976781845,
            -0.15627674758434296,
            -0.3219124376773834,
            0.37873804569244385,
            -0.11861028522253036,
            0.3448546528816223,
            0.02261870726943016,
            -0.8018290996551514,
            0.20013003051280975,
            -0.2024966925382614,
            -0.3878624141216278,
            -0.20232203602790833,
            -0.08226549625396729,
            0.07466109097003937,
            -0.10282579064369202,
            0.8891156315803528,
            -0.1517329066991806,
            0.10717909783124924,
            -0.10141196101903915,
            -0.20768961310386658,
            0.596549391746521,
            -0.9965042471885681,
            -1.2118717432022095,
            -0.35993877053260803,
            -0.25972652435302734,
            -0.27796411514282227,
            -0.6276420950889587,
            0.17570653557777405,
            0.32389041781425476,
            -1.3116905689239502,
            0.633766233921051,
            0.2880770266056061,
            -0.139932319521904,
            -0.3592245876789093,
            -0.3698611259460449,
            -0.47755658626556396,
            -0.48442938923835754,
            1.3267793655395508,
            -0.020999934524297714,
            0.44290852546691895,
            0.9292582273483276,
            0.420462429523468,
            0.669061005115509,
            1.383118987083435,
            -0.45285722613334656,
            1.123694658279419,
            -0.6055769920349121,
            0.5440910458564758,
            1.0980089902877808,
            -0.514085054397583
        ],
        "bias": [
            0.5046953558921814,
            -0.7576846480369568,
            -0.254975289106369,
            -0.2987750768661499,
            -0.871149480342865,
            0.2770901620388031,
            -0.4610118865966797,
            0.07544705271720886,
            -1.862200379371643,
            0.17395858466625214,
            0.40919923782348633,
            -0.19472943246364594,
            -0.7830504179000854,
            0.2190454751253128,
            0.37171557545661926,
            -0.371448278427124,
            -1.402689814567566,
            -1.696465253829956,
            -0.7781941890716553,
            -1.3685768842697144,
            -0.7243154644966125,
            -0.3077659606933594,
            0.32421454787254333,
            0.041843317449092865,
            -0.3504157066345215,
            -0.5257618427276611,
            0.02326107583940029,
            -0.586264967918396,
            -2.2521517276763916,
            -0.18505807220935822,
            -0.1507447063922882,
            -0.6694484353065491,
            -0.6713423132896423,
            -0.3352721035480499,
            -0.6214552521705627,
            -0.966354489326477,
            -0.28160229325294495,
            -0.21150074899196625,
            -0.1773684173822403,
            -0.5933311581611633,
            -0.564169704914093,
            0.3545915186405182,
            -0.33763256669044495,
            -0.7684400677680969,
            -0.13571244478225708,
            -0.16521024703979492,
            -1.292781949043274,
            2.2327659130096436,
            -0.2514604926109314,
            0.11035658419132233,
            1.3654747009277344,
            -0.45943838357925415,
            -0.17158624529838562,
            1.8827540874481201,
            -0.4195261299610138,
            1.2767794132232666,
            -0.36429789662361145,
            -0.1689097136259079,
            1.122450351715088,
            -0.19276610016822815,
            -1.5056674480438232
        ]
    },
    "policy": {
        "hidden_layer_size": 30,
        "hidden_layer_count": 2,
        "weights": [
            -0.0016027060337364674,
            0.19067570567131042,
            -0.3382824957370758,
            0.004353209864348173,
            0.08201650530099869,
            0.2460601031780243,
            -0.005871337838470936,
            0.2030392736196518,
            0.1963290125131607,
            -0.1002037301659584,
            0.3035886585712433,
            0.4095782935619354,
            -0.10965947806835175,
            0.5821141004562378,
            0.3629557192325592,
            -0.09831297397613525,
            0.23308232426643372,
            0.5705647468566895,
            0.4598236382007599,
            0.2752302587032318,
            -0.277589350938797,
            0.6201698780059814,
            0.28839772939682007,
            -0.35772985219955444,
            -0.5706936120986938,
            0.8824979662895203,
            -0.005129852797836065,
            -0.061099596321582794,
            -0.3269464373588562,
            -0.0872938260436058,
            -0.4533641040325165,
            0.21384170651435852,
            0.5921587944030762,
            -0.008249019272625446,
            -0.28900226950645447,
            0.3542272448539734,
            0.7681595683097839,
            -0.34617599844932556,
            0.3072609007358551,
            0.27097591757774353,
            -0.32457390427589417,
            0.12855073809623718,
            -0.30376365780830383,
            0.056431740522384644,
            0.17986752092838287,
            0.10864264518022537,
            0.20582562685012817,
            -0.16054239869117737,
            -0.04793926700949669,
            -0.04565766081213951,
            -0.3578008711338043,
            -0.29475462436676025,
            0.1886727660894394,
            -0.030971942469477654,
            -0.09865716099739075,
            0.4512425661087036,
            -0.444230854511261,
            -0.013435564935207367,
            -0.4316975474357605,
            0.5361524820327759,
            -0.33261215686798096,
            -0.15897469222545624,
            -0.07415983825922012,
            0.15390565991401672,
            1.262387990951538,
            0.5862772464752197,
            0.1749318391084671,
            -0.6923320293426514,
            0.12001719325780869,
            -0.20261074602603912,
            0.8864902853965759,
            -0.0827685222029686,
            -0.022970322519540787,
            -0.09897267073392868,
            0.3825345039367676,
            -0.0619797483086586,
            0.4096042215824127,
            0.2252739816904068,
            0.5119689106941223,
            -0.5211600661277771,
            -0.23019848763942719,
            -0.08716368675231934,
            -0.046547748148441315,
            -0.4333057999610901,
            -0.05466592311859131,
            0.7817795276641846,
            -0.5111079812049866,
            -0.2513226270675659,
            -0.4364728331565857,
            -0.015010247938334942,
            -0.28982454538345337,
            -0.04347863793373108,
            -0.4215909540653229,
            -0.12006895244121552,
            0.5186285376548767,
            0.1349671483039856,
            0.5114455819129944,
            0.5331313610076904,
            0.3714960217475891,
            -0.03756872937083244,
            -0.3191598057746887,
            0.01942398212850094,
            -0.18325696885585785,
            -0.38646456599235535,
            0.14638228714466095,
            0.8577277660369873,
            -0.016266964375972748,
            0.41811269521713257,
            -0.5822288990020752,
            -0.13874781131744385,
            -0.30904847383499146,
            0.3871656358242035,
            -0.3586615324020386,
            0.26823821663856506,
            0.6592029333114624,
            0.1405770480632782,
            -0.28174737095832825,
            0.9199596047401428,
            0.1416805237531662,
            0.07556027919054031,
            0.3517618477344513,
            0.09883908927440643,
            0.3302363157272339,
            0.40065494179725647,
            0.2371833622455597,
            0.05188605561852455,
            0.08244062960147858,
            0.40639162063598633,
            0.16350577771663666,
            0.5918282866477966,
            0.24648092687129974,
            0.3235851526260376,
            0.3050549030303955,
            -0.09320652484893799,
            -0.06583844125270844,
            0.07627061009407043,
            -0.3914581835269928,
            -0.8412717580795288,
            -0.5579952001571655,
            -0.0903872549533844,
            0.6903683543205261,
            -0.08448605239391327,
            0.11246030777692795,
            -0.47927963733673096,
            -0.45253318548202515,
            -0.28275999426841736,
            0.39613673090934753,
            -0.14598853886127472,
            -0.5845073461532593,
            -0.3987945318222046,
            -0.35870856046676636,
            0.11708001047372818,
            -0.029295416548848152,
            0.20730076730251312,
            0.18832528591156006,
            0.2085798680782318,
            -0.01319590862840414,
            -0.12197728455066681,
            -0.5245786309242249,
            -0.3201964199542999,
            0.720812976360321,
            -0.24717102944850922,
            0.04376687481999397,
            -0.2762190103530884,
            -0.718255341053009,
            0.32563498616218567,
            0.10494842380285263,
            0.2699510455131531,
            -0.12822628021240234,
            0.17157214879989624,
            0.2031938135623932,
            0.2092837542295456,
            0.08090963959693909,
            0.22139659523963928,
            0.04417872056365013,
            0.22425809502601624,
            -0.6743754744529724,
            -0.48015156388282776,
            -0.2635380029678345,
            -0.002404790138825774,
            0.05251329764723778,
            0.11679009348154068,
            -0.8170228600502014,
            -0.678551971912384,
            0.4753012955188751,
            -0.6414546966552734,
            0.2403322160243988,
            -0.023436205461621284,
            0.11468083411455154,
            0.078317791223526,
            -0.24087749421596527,
            -0.15047745406627655,
            -0.4288053810596466,
            -0.6356756687164307,
            -0.04392024129629135,
            0.08445355296134949,
            -0.374944269657135,
            0.18453536927700043,
            -0.3176446855068207,
            0.28954392671585083,
            -0.2523370087146759,
            -0.6439785957336426,
            -0.203375905752182,
            -0.2719731330871582,
            0.28108689188957214,
            -0.16015811264514923,
            -0.2997949719429016,
            -0.2652619481086731,
            -0.2907615602016449,
            -0.06693664193153381,
            -0.3372836410999298,
            0.5511026978492737,
            -0.304475873708725,
            0.3260452151298523,
            0.4379957318305969,
            0.4806576073169708,
            0.313745379447937,
            -0.28548696637153625,
            0.5843376517295837,
            0.6460123062133789,
            0.3748683035373688,
            -0.4114951491355896,
            0.29875996708869934,
            -0.21511149406433105,
            -0.6351106762886047,
            -0.5797719955444336,
            0.2757090926170349,
            -0.7404434680938721,
            0.1706293225288391,
            -0.4493032693862915,
            0.0482761487364769,
            0.08238126337528229,
            0.024468930438160896,
            0.6966118216514587,
            -0.23003968596458435,
            -0.3592948019504547,
            -0.27304771542549133,
            -0.014783650636672974,
            0.7294389605522156,
            -0.042304638773202896,
            0.06509710848331451,
            0.17975376546382904,
            -0.307818740606308,
            -0.41138729453086853,
            0.28223657608032227,
            0.26631835103034973,
            0.16090694069862366,
            -0.5520839691162109,
            0.4095888137817383,
            0.7855643630027771,
            -0.3473009765148163,
            0.08091219514608383,
            0.09362335503101349,
            -0.5027679800987244,
            -0.4825906455516815,
            0.04022543132305145,
            -0.8128690719604492,
            0.11127160489559174,
            -0.15101280808448792,
            0.09244487434625626,
            0.34297072887420654,
            -0.37991616129875183,
            0.12189555913209915,
            0.4604499638080597,
            0.2963440716266632,
            -0.2599611282348633,
            -0.02721720188856125,
            0.25904226303100586,
            0.3032207190990448,
            -0.41621771454811096,
            -0.40682321786880493,
            0.6106009483337402,
            -0.1639004945755005,
            -0.2168228179216385,
            0.21974436938762665,
            0.07589102536439896,
            -0.41508492827415466,
            -0.4705362319946289,
            -0.08708864450454712,
            0.18701165914535522,
            0.574944019317627,
            0.8138771653175354,
            -0.08099107444286346,
            0.1976197063922882,
            0.4253069758415222,
            0.2349168062210083,
            0.18130555748939514,
            0.3145618438720703,
            -0.3794170618057251,
            0.340941458940506,
            -0.21807950735092163,
            -0.24269911646842957,
            -0.49783435463905334,
            -0.4752063453197479,
            -0.4892787039279938,
            0.4356037676334381,
            -0.12118270993232727,
            -0.3244847059249878,
            0.2753029763698578,
            0.26090553402900696,
            0.6344603300094604,
            0.11532402783632278,
            0.16336122155189514,
            -0.2861466705799103,
            0.2427861988544464,
            -0.04071033000946045,
            -0.4600164294242859,
            -0.0514240600168705,
            -0.02801346592605114,
            0.10396519303321838,
            0.3741934299468994,
            -0.004708250984549522,
            0.05898616462945938,
            -0.1045665293931961,
            -0.2671935558319092,
            -0.24767331779003143,
            -0.5420495271682739,
            -0.05239275470376015,
            -0.23642922937870026,
            0.24309316277503967,
            -0.49191516637802124,
            -0.28365159034729004,
            0.09995442628860474,
            -0.2838340103626251,
            -0.19708819687366486,
            0.08459817618131638,
            -0.02496643178164959,
            -0.12047518044710159,
            0.36573565006256104,
            0.605190634727478,
            -0.6336356401443481,
            -0.3104362487792969,
            0.3790885806083679,
            -0.5861819386482239,
            -0.1083589494228363,
            -0.3691231608390808,
            -0.13854804635047913,
            0.31612059473991394,
            -0.5570586919784546,
            -0.20726025104522705,
            -0.6230618357658386,
            0.2724419832229614,
            0.5920376181602478,
            0.6709542870521545,
            0.8166456818580627,
            -0.015392669476568699,
            0.1016732007265091,
            -0.20469939708709717,
            -0.3875215947628021,
            -0.2112511396408081,
            -0.2655981183052063,
            0.16793516278266907,
            0.0520816296339035,
            -0.8259981274604797,
            -0.18671675026416779,
            -0.12143004685640335,
            0.4980705678462982,
            0.031675513833761215,
            0.054647047072649,
            0.5431225895881653,
            -0.27127447724342346,
            0.08305288851261139,
            -0.35280415415763855,
            0.5110252499580383,
            0.39832475781440735,
            -0.1204022616147995,
            -0.28689026832580566,
            0.1197538673877716,
            -0.3967628479003906,
            -0.49705150723457336,
            -0.05968077853322029,
            -0.21371527016162872,
            0.375116765499115,
            -0.13296553492546082,
            0.6735363602638245,
            0.23555678129196167,
            -0.0782627984881401,
            -0.24660013616085052,
            -0.41071343421936035,
            0.4627518057823181,
            0.7749434113502502,
            0.06249843165278435,
            -0.2727392613887787,
            -0.07200221717357635,
            0.3275142312049866,
            0.04766685888171196,
            -0.19956685602664948,
            0.03581801429390907,
            -0.2540057301521301,
            -0.36174285411834717,
            -0.3082827925682068,
            -0.5324767827987671,
            -0.039123982191085815,
            -0.06558556854724884,
            0.09029926359653473,
            0.219463512301445,
            0.23479126393795013,
            0.13362683355808258,
            0.22420768439769745,
            -0.2997128665447235,
            -0.06565559655427933,
            -0.25247377157211304,
            0.17001967132091522,
            -0.36137300729751587,
            0.14579179883003235,
            -0.14513841271400452,
            0.6352256536483765,
            -0.2228216975927353,
            0.09213664382696152,
            0.4083024561405182,
            0.30096492171287537,
            0.4294213354587555,
            0.0570361502468586,
            -0.3199857473373413,
            0.2658527195453644,
            -0.28076231479644775,
            -0.04748651385307312,
            0.24909403920173645,
            -0.28528353571891785,
            0.3285253345966339,
            0.597517728805542,
            0.058022674173116684,
            -0.14974133670330048,
            0.10398964583873749,
            0.29977282881736755,
            0.32001903653144836,
            -0.05107422545552254,
            0.2102087438106537,
            -0.21227137744426727,
            0.44570109248161316,
            -0.16936205327510834,
            -0.31333014369010925,
            -0.4928141236305237,
            -0.4822573661804199,
            -0.5822833776473999,
            0.02226618491113186,
            -0.6574311852455139,
            -0.37207314372062683,
            0.06458725780248642,
            0.47226303815841675,
            0.09321855008602142,
            -0.15526558458805084,
            0.2844682037830353,
            -0.27536076307296753,
            0.385918527841568,
            0.3510802090167999,
            -0.11166752129793167,
            -0.19104701280593872,
            -0.7983410954475403,
            0.14522425830364227,
            0.08162175118923187,
            0.4594476819038391,
            -0.4730610251426697,
            0.3106813132762909,
            -0.06137390807271004,
            -0.2748146653175354,
            0.01409089844673872,
            0.29890647530555725,
            -0.3878783881664276,
            -0.14081653952598572,
            0.41331520676612854,
            0.7190039157867432,
            0.5992408990859985,
            -0.5294288396835327,
            -0.12736116349697113,
            0.39644503593444824,
            -0.3635554313659668,
            0.1911468505859375,
            0.2281041443347931,
            0.21840089559555054,
            0.4762714207172394,
            -0.25382566452026367,
            0.4069591164588928,
            -0.17907367646694183,
            0.20516949892044067,
            -0.3303176760673523,
            0.5904574990272522,
            -0.5502777695655823,
            0.3123157322406769,
            -0.1726134717464447,
            -0.2616308629512787,
            -0.28511011600494385,
            -0.14833582937717438,
            0.11238870769739151,
            0.35987821221351624,
            0.3680981695652008,
            -0.6282241940498352,
            -0.0034919867757707834,
            -0.03748978674411774,
            -0.12291275709867477,
            -0.2593054473400116,
            0.16619142889976501,
            0.2487521767616272,
            0.04442143067717552,
            -0.12231103330850601,
            -0.4764883518218994,
            0.12089598923921585,
            0.22549982368946075,
            -0.13130232691764832,
            -0.06457614153623581,
            -0.14419355988502502,
            0.3187011778354645,
            -0.012757544405758381,
            -0.35629671812057495,
            -0.41306236386299133,
            0.38829270005226135,
            0.39125868678092957,
            0.046862732619047165,
            -0.11774469166994095,
            -0.17789791524410248,
            -0.292253315448761,
            -0.15388697385787964,
            -0.03153666481375694,
            -0.20009660720825195,
            0.11654802411794662,
            -0.11973656713962555,
            0.02964222989976406,
            -0.06164047122001648,
            0.22999857366085052,
            -0.18479080498218536,
            -0.35316675901412964,
            -0.3517621159553528,
            0.19225864112377167,
            -0.7237339615821838,
            -0.6189808249473572,
            0.18154627084732056,
            -0.19003614783287048,
            -0.1908726990222931,
            -0.1894926130771637,
            -0.13450539112091064,
            -0.3788341283798218,
            -0.2142707258462906,
            -0.09490274637937546,
            0.5312688946723938,
            -0.24335607886314392,
            0.2563530206680298,
            -0.07139105349779129,
            -0.12631753087043762,
            0.3969162702560425,
            0.23530851304531097,
            0.27009594440460205,
            0.01113673485815525,
            -0.3319239616394043,
            0.14092843234539032,
            -0.4985209107398987,
            0.1713772714138031,
            -0.4857059419155121,
            0.4111919403076172,
            -0.6299422383308411,
            0.254213809967041,
            -0.03339469060301781,
            0.13243886828422546,
            -0.11952382326126099,
            0.2572662830352783,
            0.21560989320278168,
            -0.07033094018697739,
            0.005929525010287762,
            0.36273011565208435,
            0.016129957512021065,
            -0.36862969398498535,
            0.4076494574546814,
            -0.38310322165489197,
            -0.10833164304494858,
            0.4337273836135864,
            -0.012153091840445995,
            0.019741004332900047,
            -0.11415780335664749,
            -0.3189599812030792,
            0.37257638573646545,
            0.36147817969322205,
            -0.05596453696489334,
            0.3111902177333832,
            -0.15378081798553467,
            -0.08528709411621094,
            0.2169228345155716,
            0.02557847462594509,
            -0.1480751782655716,
            -0.4235364496707916,
            -0.21340897679328918,
            -0.2410319596529007,
            -0.07974010705947876,
            -0.3713074326515198,
            0.08665600419044495,
            -0.0960765853524208,
            0.4304734468460083,
            -0.07542916387319565,
            0.05680744722485542,
            0.6929330825805664,
            0.08060789853334427,
            -0.3827354609966278,
            -0.006009985692799091,
            -0.07102525234222412,
            -0.03724034130573273,
            -0.17342248558998108,
            0.18738466501235962,
            -0.22325724363327026,
            -0.272245854139328,
            0.06307809054851532,
            0.3742281496524811,
            -0.320675253868103,
            0.2068970948457718,
            0.1460544764995575,
            0.23398533463478088,
            -0.08708170056343079,
            0.42528036236763,
            -0.21926285326480865,
            0.20744162797927856,
            -0.007738051004707813,
            -0.25026270747184753,
            -0.13962404429912567,
            0.014409339055418968,
            -0.22914622724056244,
            -0.3194197416305542,
            0.11221829801797867,
            -0.9215276837348938,
            0.08985459804534912,
            0.019515829160809517,
            0.2538236975669861,
            -0.6036569476127625,
            0.3393041491508484,
            -0.03509410098195076,
            0.05176582559943199,
            -0.0943850576877594,
            -0.3989068567752838,
            -0.3931880295276642,
            0.41716182231903076,
            0.041094668209552765,
            -0.04978585243225098,
            -0.1609903872013092,
            -0.11636587977409363,
            -0.2962336540222168,
            0.5555810332298279,
            0.16457632184028625,
            -0.18995988368988037,
            0.1800481677055359,
            -0.4742991626262665,
            0.22519691288471222,
            -0.11025858670473099,
            0.3834608197212219,
            -0.13240277767181396,
            0.25546103715896606,
            0.3347740173339844,
            0.3427327871322632,
            0.019669879227876663,
            -0.27788710594177246,
            -0.03213399276137352,
            -0.0033887948375195265,
            0.36836132407188416,
            -0.022647392004728317,
            0.1254383772611618,
            -0.40166983008384705,
            -0.23115290701389313,
            -0.436840295791626,
            0.2857116460800171,
            0.6131545901298523,
            -0.5053899884223938,
            0.5262771248817444,
            -0.39573216438293457,
            0.060747724026441574,
            0.006457361858338118,
            -0.0158489178866148,
            -0.2646940052509308,
            -0.08693777024745941,
            0.2826234698295593,
            0.11196368932723999,
            -0.030539419502019882,
            0.13494367897510529,
            -0.15167273581027985,
            -0.06823687255382538,
            0.09419853985309601,
            -0.43340134620666504,
            0.13746243715286255,
            0.027383560314774513,
            0.037528544664382935,
            -0.031844060868024826,
            0.09877944737672806,
            -0.26864996552467346,
            0.1747807115316391,
            -0.29591482877731323,
            -0.08501880615949631,
            -0.31182125210762024,
            -0.3108774423599243,
            -0.032707132399082184,
            -0.0736464187502861,
            -0.24620574712753296,
            -0.018939347937703133,
            0.07267049700021744,
            -0.14314547181129456,
            -0.5624843835830688,
            -0.22128067910671234,
            0.15256784856319427,
            0.14501380920410156,
            0.30688637495040894,
            -0.2979183793067932,
            0.5470138192176819,
            0.8722963333129883,
            0.3836020827293396,
            -0.018295714631676674,
            0.10957562923431396,
            0.20956826210021973,
            0.10591310262680054,
            0.56583172082901,
            -0.016469400376081467,
            -0.3288506865501404,
            0.19618958234786987,
            -0.29392731189727783,
            -0.08496011048555374,
            -0.2566688060760498,
            0.3572322726249695,
            0.03693491593003273,
            -0.05740487203001976,
            0.06919845193624496,
            0.24262501299381256,
            -0.07143878191709518,
            -0.04531501978635788,
            -0.4233318567276001,
            0.1710534244775772,
            -0.19863292574882507,
            0.2527545690536499,
            0.22182752192020416,
            0.29445356130599976,
            -0.07357072085142136,
            0.15576237440109253,
            -0.4529084861278534,
            -0.4132486879825592,
            -0.18587058782577515,
            -0.17569223046302795,
            -0.06548544764518738,
            0.030079593881964684,
            0.4622027575969696,
            -0.49852022528648376,
            -0.31288695335388184,
            0.24465785920619965,
            0.22702200710773468,
            0.37681373953819275,
            -0.2942533791065216,
            0.5578320026397705,
            -0.11070315539836884,
            -0.0858864039182663,
            0.3876061737537384,
            -0.08578741550445557,
            0.43477657437324524,
            -0.1516505628824234,
            -0.0072240522131323814,
            0.11378753930330276,
            0.2467527985572815,
            0.1011928990483284,
            0.5842113494873047,
            0.2646265923976898,
            0.10474666208028793,
            0.33487576246261597,
            0.10187643766403198,
            -0.08720201253890991,
            0.34815675020217896,
            0.5231482982635498,
            0.039114899933338165,
            0.04698372259736061,
            0.10610777139663696,
            -0.2083023190498352,
            -0.6206865310668945,
            0.09826482832431793,
            0.032317303121089935,
            -0.2596735954284668,
            0.04750235751271248,
            -0.0142488032579422,
            0.2309853434562683,
            0.15258453786373138,
            0.06339547038078308,
            -0.004957524593919516,
            -0.08983693271875381,
            0.17230258882045746,
            -0.29190027713775635,
            -0.02953675389289856,
            0.118302121758461,
            0.32963210344314575,
            -0.46463248133659363,
            -0.03797357529401779,
            0.5098438262939453,
            0.08742964267730713,
            -0.08976993709802628,
            0.002353543881326914,
            0.3018639385700226,
            0.12308225780725479,
            0.05893572419881821,
            -0.4091640114784241,
            -0.4094803035259247,
            0.14960187673568726,
            0.23534171283245087,
            0.35529083013534546,
            0.46441879868507385,
            -0.057153746485710144,
            0.05227678269147873,
            0.039581336081027985,
            -0.1343565136194229,
            0.3431151211261749,
            0.10862047970294952,
            0.07404150813817978,
            0.0010058952029794455,
            0.37614938616752625,
            0.3688051402568817,
            0.5013272762298584,
            -0.22717519104480743,
            -0.628067672252655,
            0.520495593547821,
            -0.10641645640134811,
            -0.2675493061542511,
            0.1874171644449234,
            0.5856555700302124,
            -0.47404471039772034,
            0.4345385432243347,
            -0.08426132053136826,
            0.1459280401468277,
            -0.1475464105606079,
            -0.1935657113790512,
            -0.28148090839385986,
            0.2577587068080902,
            0.2959299385547638,
            0.09594404697418213,
            -0.33816400170326233,
            0.11130113154649734,
            -0.09311773627996445,
            0.24941836297512054,
            0.26444822549819946,
            0.001071819686330855,
            -0.009226503781974316,
            0.2553676962852478,
            0.1865830421447754,
            -0.2166660726070404,
            0.2299456000328064,
            0.2135293036699295,
            -0.5140810012817383,
            -0.13615287840366364,
            -0.1434573382139206,
            -0.10153641551733017,
            0.18030297756195068,
            0.22689728438854218,
            -0.13110487163066864,
            -0.33340173959732056,
            -0.10506877303123474,
            -0.06577914208173752,
            0.08529739081859589,
            0.08328474313020706,
            -0.45214152336120605,
            -0.11997119337320328,
            -0.12572628259658813,
            0.43724191188812256,
            0.12102194875478745,
            -0.026419883593916893,
            0.2806262671947479,
            0.046259280294179916,
            0.1470993459224701,
            -0.26414555311203003,
            -0.17062179744243622,
            0.12116862833499908,
            0.1514645665884018,
            -0.030529938638210297,
            0.07899327576160431,
            0.4297756850719452,
            0.4364206790924072,
            0.018418684601783752,
            -0.3029909133911133,
            0.6616910696029663,
            -0.29128706455230713,
            -0.08874249458312988,
            -0.007014535833150148,
            0.10525833070278168,
            -0.1094365194439888,
            0.16147087514400482,
            0.2567039132118225,
            0.2191607654094696,
            0.5024883151054382,
            0.62468022108078,
            -0.09390948712825775,
            -0.21974261105060577,
            0.41451433300971985,
            0.10709109902381897,
            0.4355222284793854,
            -0.2696879208087921,
            0.24353919923305511,
            0.25414201617240906,
            0.20405307412147522,
            0.22641244530677795,
            -0.16370552778244019,
            0.2563748359680176,
            -0.3215571641921997,
            -0.18810470402240753,
            0.20767973363399506,
            0.5936614274978638,
            0.3857739269733429,
            -0.2066439837217331,
            -0.14885826408863068,
            0.05075535178184509,
            0.29847243428230286,
            -0.04917135462164879,
            0.18420015275478363,
            0.3874434232711792,
            0.11248466372489929,
            -0.08929434418678284,
            0.15221090614795685,
            -0.02785678580403328,
            -0.2382039725780487,
            -0.17783097922801971,
            0.15134797990322113,
            0.10758983343839645,
            -0.3725697696208954,
            -0.14793242514133453,
            -0.023331506177783012,
            0.23591279983520508,
            -0.25903937220573425,
            0.02598557434976101,
            0.039484575390815735,
            0.2778227925300598,
            -0.1923445761203766,
            -0.010516919195652008,
            -0.46842557191848755,
            0.2313651442527771,
            0.11907325685024261,
            -0.2947697341442108,
            -0.008311117999255657,
            -0.49788665771484375,
            -0.5591408610343933,
            -0.040110278874635696,
            0.002290186006575823,
            0.20194639265537262,
            -0.40613287687301636,
            -0.1306953728199005,
            -0.06821923702955246,
            0.4444397985935211,
            -0.4442794919013977,
            -0.3331255316734314,
            -0.2883988320827484,
            -0.3146439492702484,
            -0.20508283376693726,
            0.015684891492128372,
            -0.000696465780492872,
            -0.3744208812713623,
            0.2063458412885666,
            -0.08018808811903,
            -0.027249356731772423,
            -0.18627005815505981,
            0.12689346075057983,
            0.35048991441726685,
            0.004925094079226255,
            0.06551060825586319,
            -0.15062867105007172,
            -0.4121963381767273,
            -0.3531228005886078,
            -0.20437200367450714,
            -0.2381831854581833,
            -0.3641446530818939,
            0.23847432434558868,
            0.06983165442943573,
            -0.250553697347641,
            0.1641809344291687,
            -0.10986708849668503,
            0.06306818127632141,
            0.13506664335727692,
            0.3647215962409973,
            -0.09968999028205872,
            -0.030268194153904915,
            0.0007147840806283057,
            0.18398702144622803,
            0.2533387243747711,
            0.7299217581748962,
            -0.5715339183807373,
            0.23904922604560852,
            -0.29480695724487305,
            -0.24249877035617828,
            0.026192734017968178,
            -0.01054435409605503,
            0.3985951542854309,
            -0.1137663722038269,
            0.13356904685497284,
            -0.43912598490715027,
            -0.005231785587966442,
            -0.5928496718406677,
            0.15057732164859772,
            0.27182862162590027,
            -0.278347909450531,
            -0.026468204334378242,
            0.3978557884693146,
            0.02233951911330223,
            0.10940578579902649,
            -0.08702047914266586,
            0.711909294128418,
            0.03828844428062439,
            0.13177725672721863,
            0.2051081657409668,
            -0.062167420983314514,
            0.4485880136489868,
            -0.4853566288948059,
            0.1980825513601303,
            -0.029884129762649536,
            0.06604345142841339,
            0.15440373122692108,
            -0.20392614603042603,
            -0.08220045268535614,
            -0.39096319675445557,
            -0.3452123999595642,
            0.02088470198214054,
            0.08161464333534241,
            0.17931288480758667,
            0.9423298835754395,
            0.11931999027729034,
            0.23349924385547638,
            0.03467277064919472,
            0.011126506142318249,
            0.0059259734116494656,
            -0.3248424530029297,
            -0.18017680943012238,
            -0.04586554318666458,
            -0.5220327377319336,
            -0.09696288406848907,
            -0.04093463718891144,
            0.35785412788391113,
            0.06051576882600784,
            0.07779660075902939,
            -0.38459622859954834,
            -0.21385911107063293,
            0.2839852571487427,
            0.32770833373069763,
            0.17279839515686035,
            0.13544869422912598,
            -0.0066338530741631985,
            -0.15555226802825928,
            -0.3039132356643677,
            -0.20711147785186768,
            -0.255525141954422,
            -0.27724143862724304,
            -0.11047802120447159,
            0.6396538615226746,
            0.2954949736595154,
            0.04608746990561485,
            -0.09940232336521149,
            -0.01310367975383997,
            0.22824209928512573,
            -0.16985687613487244,
            0.16067439317703247,
            -0.12373997271060944,
            0.0031175734475255013,
            0.146880641579628,
            0.008428724482655525,
            -0.0542292483150959,
            -0.22251273691654205,
            -0.16247501969337463,
            -0.119718998670578,
            0.19940805435180664,
            -0.10492397099733353,
            -0.062087636440992355,
            -0.22933338582515717,
            0.01551753282546997,
            -0.2096928507089615,
            0.07715317606925964,
            -0.09520701318979263,
            0.07326890528202057,
            0.24688684940338135,
            -0.15505748987197876,
            0.29755425453186035,
            0.33076539635658264,
            -0.3672104477882385,
            0.3947848975658417,
            -0.20872727036476135,
            -0.08987107127904892,
            0.516465425491333,
            0.016830425709486008,
            -0.1526213139295578,
            0.1766018122434616,
            0.028521299362182617,
            0.04250518977642059,
            0.098725825548172,
            0.13081416487693787,
            -0.023540791124105453,
            -0.10023891180753708,
            -0.6212430000305176,
            -0.05577138066291809,
            -0.21858713030815125,
            -0.1805240511894226,
            -0.3909880220890045,
            -0.045137327164411545,
            0.17837229371070862,
            -0.46363791823387146,
            -0.0750322937965393,
            0.05309620872139931,
            0.2972714304924011,
            -0.2556605339050293,
            -0.09590674191713333,
            0.24022705852985382,
            0.2694619596004486,
            -0.39360538125038147,
            -0.20665909349918365,
            0.1693769097328186,
            0.034832913428545,
            -0.08689942955970764,
            -0.11900448054075241,
            0.266975075006485,
            0.1506393402814865,
            0.43598470091819763,
            0.1985280066728592,
            0.6649654507637024,
            -0.08446808159351349,
            -0.15155556797981262,
            0.2978948652744293,
            0.05140867829322815,
            0.15713264048099518,
            0.27851179242134094,
            -0.11492303758859634,
            -0.21152469515800476,
            0.23387061059474945,
            -0.08719790726900101,
            0.08694353699684143,
            -0.36138245463371277,
            -0.04940345510840416,
            -0.015000376850366592,
            -0.35718420147895813,
            -0.48428118228912354,
            0.31231850385665894,
            -0.00034351079375483096,
            0.36704230308532715,
            0.07571253180503845,
            0.41534262895584106,
            0.2601419985294342,
            0.18615300953388214,
            -0.08021977543830872,
            0.12470191717147827,
            0.05552864447236061,
            0.2572777271270752,
            0.2222304493188858,
            0.12796595692634583,
            -0.06322499364614487,
            0.060621798038482666,
            0.2541620433330536,
            -0.38713762164115906,
            0.4090363085269928,
            -0.038280051201581955,
            -0.07464922964572906,
            0.17046083509922028,
            0.30371102690696716,
            0.23933854699134827,
            0.427170991897583,
            -0.14739972352981567,
            -0.23754654824733734,
            -0.23223437368869781,
            -0.007915093563497066,
            -0.3699006736278534,
            -0.10978864878416061,
            -0.360738068819046,
            0.30395668745040894,
            0.24491798877716064,
            -0.24227851629257202,
            -0.2393060177564621,
            -0.08455829322338104,
            0.2550063133239746,
            -0.012087280862033367,
            -0.31495028734207153,
            -0.40081289410591125,
            -0.4347406327724457,
            0.12423966079950333,
            0.10977164655923843,
            -0.4643147885799408,
            0.08644010126590729,
            0.3196830451488495,
            -0.40345704555511475,
            -0.16258938610553741,
            -0.010856102220714092,
            -0.1556900292634964,
            -0.09703752398490906,
            0.34857839345932007,
            0.04181322827935219,
            -0.00248538376763463,
            0.2496834248304367,
            0.06636429578065872,
            -0.12092845886945724,
            -0.11679640412330627,
            -0.20458100736141205,
            0.10395222902297974,
            0.3872681260108948,
            -0.34906959533691406,
            0.42738088965415955,
            -0.0874481126666069,
            -0.34780827164649963,
            -0.014136530458927155,
            -0.1644180715084076,
            -0.03143469989299774,
            -0.20233431458473206,
            0.1648266613483429,
            -0.17593730986118317,
            0.14807958900928497,
            0.23950062692165375,
            -0.09940142184495926,
            0.0009212028235197067,
            -0.09217751026153564,
            0.07412580400705338,
            0.07520823925733566,
            -0.11441414803266525,
            -0.11287645995616913,
            0.37896057963371277,
            -0.20488788187503815,
            0.05846577137708664,
            0.44466930627822876,
            0.37539711594581604,
            0.4440186023712158,
            0.01595892757177353,
            0.00458880327641964,
            -0.011150451377034187,
            -0.17152878642082214,
            0.14506587386131287,
            0.310328871011734,
            -0.3593844771385193,
            0.10544892400503159,
            -0.16753430664539337,
            -0.09256449341773987,
            0.40915441513061523,
            -0.04174254834651947,
            0.08044782280921936,
            0.41160669922828674,
            0.041910380125045776,
            0.44858333468437195,
            -0.07265353202819824,
            -0.255357027053833,
            -0.050432294607162476,
            -0.3505692481994629,
            0.06969190388917923,
            0.04018232598900795,
            -0.15749219059944153,
            -0.1656920164823532,
            0.1753057986497879,
            0.18016327917575836,
            0.08710137754678726,
            -0.32506272196769714,
            -0.026319975033402443,
            -0.5644583106040955,
            -0.25566691160202026,
            -0.023942982777953148,
            0.3045285642147064,
            -0.15508928894996643,
            -0.23564670979976654,
            0.010560446418821812,
            -0.03575554117560387,
            -0.2841837406158447,
            0.3650651276111603,
            0.2906940281391144,
            0.0995071530342102,
            -0.12692594528198242,
            0.029239507392048836,
            0.27730298042297363,
            -0.30860966444015503,
            0.06100822985172272,
            -0.5107431411743164,
            -0.18629173934459686,
            0.49504631757736206,
            0.1287679672241211,
            0.09354288130998611,
            0.10304830223321915,
            0.15026719868183136,
            -0.18405047059059143,
            0.3942435085773468,
            -0.18735042214393616,
            0.09943065792322159,
            0.4913112223148346,
            -0.05352718010544777,
            -0.304853618144989,
            0.41782718896865845,
            0.11369249224662781,
            -0.038616739213466644,
            0.0946611538529396,
            0.22998261451721191,
            0.4641053378582001,
            -0.20741838216781616,
            0.0023277129512280226,
            -0.21934132277965546,
            -0.07006341218948364,
            -0.3918812870979309,
            0.24603161215782166,
            -0.06762495636940002,
            -0.1876170039176941,
            -0.5968875885009766,
            0.2621809244155884,
            0.0007032855064608157,
            0.03679891675710678,
            -0.4891721308231354,
            0.002117353258654475,
            -0.2884996831417084,
            -0.036514025181531906,
            -0.06697782874107361,
            -0.053431399166584015,
            0.22052185237407684,
            -0.30701979994773865,
            -0.19452425837516785,
            0.038339704275131226,
            -0.35627686977386475,
            0.25901833176612854,
            0.1880693882703781,
            -0.1742851436138153,
            0.008492493070662022,
            -0.2846187651157379,
            0.1085195317864418,
            -0.16163568198680878,
            0.14150512218475342,
            -0.053114619106054306,
            -0.16904403269290924,
            -0.4708104431629181,
            0.243043914437294,
            -0.29588210582733154,
            0.10051195323467255,
            0.47768622636795044,
            0.31310001015663147,
            -0.08402983844280243,
            0.28121235966682434,
            -0.20226413011550903,
            0.2805376946926117,
            -0.233731210231781,
            0.1561731994152069,
            -0.1709294319152832,
            -0.0059479703195393085,
            0.37895071506500244,
            -0.054436277598142624,
            0.10380016267299652,
            -0.044711023569107056,
            -0.16563181579113007,
            -0.3749600350856781,
            0.214646577835083,
            0.4493442475795746,
            -0.23863685131072998,
            0.44845134019851685,
            0.1644103080034256,
            -0.2884434163570404,
            0.3167855739593506,
            -0.36492985486984253,
            0.03013109415769577,
            -0.21860240399837494,
            0.27480217814445496,
            0.06264707446098328,
            -0.13440172374248505,
            -0.5172631740570068,
            -0.20432285964488983,
            0.15400613844394684,
            0.0021218883339315653,
            0.07684137672185898,
            -0.2575768828392029,
            0.2679668366909027,
            -0.06817023456096649,
            0.15404284000396729,
            -0.0739816427230835,
            0.005346575751900673,
            0.5217958688735962,
            -0.044311460107564926,
            -0.0724371075630188,
            0.22733505070209503,
            -0.3731895089149475,
            0.37847521901130676,
            0.259098619222641,
            0.31536373496055603,
            0.23318757116794586,
            0.4274047613143921,
            0.8124337792396545,
            0.17871251702308655,
            -0.06142308935523033,
            0.212289959192276,
            -0.8769324421882629,
            0.2657318711280823,
            0.4022621810436249,
            -0.10294392704963684,
            -0.1493728905916214,
            -0.1686384528875351,
            -0.1408737152814865,
            -0.6207802295684814,
            0.1052243635058403,
            0.3935452997684479,
            0.1305776983499527,
            0.14546969532966614,
            0.2051594853401184,
            -0.1228257566690445,
            -0.33188682794570923,
            -0.26824459433555603,
            0.19042684137821198,
            -0.06149870902299881,
            0.3396330177783966,
            -0.3317870795726776,
            -0.2827335000038147,
            -0.28967440128326416,
            0.038499366492033005,
            0.024684179574251175,
            -0.8248215913772583,
            -0.3340936601161957,
            0.48461365699768066,
            0.5988442897796631,
            0.06728509068489075,
            0.443173348903656,
            -0.743476152420044,
            0.2614133954048157,
            -0.7273144721984863,
            -0.43093571066856384,
            -0.5244640707969666,
            0.2610655426979065,
            0.005625903606414795,
            -0.0926627442240715,
            0.2544749677181244,
            -0.18577320873737335,
            0.2870841920375824,
            0.11480439454317093,
            -0.4350520968437195,
            -0.3865765631198883,
            -0.048670776188373566,
            -0.26100194454193115,
            -0.4557943046092987,
            -0.4016615152359009,
            0.08472203463315964,
            -0.2892637252807617,
            -0.055043723434209824,
            0.5166756510734558,
            -0.5311325788497925,
            0.3383271098136902,
            0.10860492289066315,
            0.05751325935125351,
            -0.17710795998573303,
            -0.3492071330547333,
            -0.010214351117610931,
            -0.04390711337327957,
            0.027549225836992264,
            0.18394602835178375,
            0.09356878697872162,
            -0.08895482122898102,
            -0.5440070629119873,
            0.5613104104995728,
            -0.36697760224342346,
            -0.04882168024778366,
            0.19981560111045837,
            0.23120079934597015,
            -0.29913052916526794,
            0.03173680230975151,
            0.02304293029010296,
            0.07654502242803574,
            -0.18862201273441315,
            0.27941983938217163,
            -0.18899771571159363,
            0.047484565526247025,
            0.3286099135875702,
            -0.022776590660214424,
            -0.12050789594650269,
            0.29099026322364807,
            -0.300989031791687,
            -0.46971920132637024,
            0.05084514245390892,
            -0.6752690672874451,
            0.18267053365707397,
            0.008353304117918015,
            -0.19431470334529877,
            -0.040853098034858704,
            -0.10663431137800217,
            -0.2522922158241272,
            0.1770368367433548,
            -0.0033261803910136223,
            -0.6819440722465515,
            -0.9182679653167725,
            -0.11950098723173141,
            -0.10669239610433578,
            -0.1340879648923874,
            0.12360353767871857,
            0.07444166392087936,
            -0.12638144195079803,
            -0.2453562468290329,
            -0.1048957109451294,
            -0.3804570436477661,
            -0.5213273167610168,
            -0.11565150320529938,
            0.15141747891902924,
            -0.014967294409871101,
            -0.018036602064967155,
            -0.0658487007021904,
            -0.0358644500374794,
            -0.31935200095176697,
            0.3443790376186371,
            -0.18986725807189941,
            -0.36225852370262146,
            -0.016261033713817596,
            0.3387823700904846,
            0.32812920212745667,
            -0.1655716896057129,
            0.45796871185302734,
            -0.15605653822422028,
            0.5496494770050049,
            -0.2400359809398651,
            0.0411234125494957,
            0.03545517846941948,
            0.28836002945899963,
            0.1715683788061142,
            -0.07189139723777771,
            -0.18073362112045288,
            0.013398213312029839,
            -0.15192314982414246,
            0.0007580680539831519,
            0.011385062709450722,
            0.11728477478027344,
            0.14907525479793549,
            -0.14883413910865784,
            0.3713698089122772,
            0.26190754771232605,
            0.3675212264060974,
            -0.14861874282360077,
            -0.26673638820648193
        ],
        "bias": [
            0.017641209065914154,
            0.004132761154323816,
            0.008409887552261353,
            0.008946403861045837,
            -0.028286276385188103,
            0.006990115623921156,
            0.00011769890261348337,
            -0.01376071386039257,
            -0.01295271422713995,
            0.0780365988612175,
            0.04676700010895729,
            0.06478545069694519,
            -0.013742206618189812,
            -0.008022182621061802,
            0.3205523192882538,
            0.0043109748512506485,
            0.11105161160230637,
            0.16381801664829254,
            0.09179854393005371,
            -0.010078750550746918,
            -0.03455546870827675,
            0.12297666817903519,
            -0.03134126588702202,
            -0.013099958188831806,
            0.11344360560178757,
            0.003855875227600336,
            -0.01640496961772442,
            -0.001256866380572319,
            0.20798756182193756,
            0.03985392674803734,
            0.017622383311390877,
            -0.0013905572704970837,
            0.08874398469924927,
            0.057770129293203354,
            -0.01792210340499878,
            0.07005208730697632,
            -0.0004468400729820132,
