{
    "value": {
        "hidden_layer_size": 26,
        "hidden_layer_count": 2,
        "weights": [
            -0.513703465461731,
            0.6561812162399292,
            -0.19013768434524536,
            0.34721606969833374,
            -0.11014855653047562,
            -0.35846999287605286,
            -0.0990314856171608,
            0.16775736212730408,
            -0.3080519735813141,
            -0.3461819887161255,
            0.11481883376836777,
            -1.0977270603179932,
            -0.13619481027126312,
            -0.17805913090705872,
            -0.4718513488769531,
            0.06658798456192017,
            2.1924734115600586,
            1.0076032876968384,
            -0.24516978859901428,
            -0.1346854418516159,
            -0.2551777958869934,
            -0.026765504851937294,
            -0.23848377168178558,
            -0.14748407900333405,
            -0.1701386719942093,
            0.8508802652359009,
            -0.2309459000825882,
            0.1352035254240036,
            -0.25873976945877075,
            -0.1883828490972519,
            0.004395768512040377,
            -0.017307579517364502,
            4.13719367980957,
            0.015003492124378681,
            0.12367993593215942,
            -0.06435510516166687,
            -0.1448509246110916,
            -0.1772284209728241,
            -0.20805226266384125,
            0.09441322088241577,
            0.5573809146881104,
            -0.33787450194358826,
            0.08490858972072601,
            0.053257595747709274,
            -0.48703187704086304,
            -0.0021982041653245687,
            0.16660219430923462,
            0.005373771768063307,
            -2.9061057567596436,
            -0.43200281262397766,
            -0.008710728958249092,
            -0.12900382280349731,
            -0.08698777854442596,
            0.13279947638511658,
            -0.21519891917705536,
            -0.14625616371631622,
            0.15828944742679596,
            -0.3091357946395874,
            -0.19292165338993073,
            0.2661409378051758,
            0.0091790072619915,
            -0.5222663283348083,
            -0.3273574709892273,
            -0.21398413181304932,
            -1.316799283027649,
            0.09321357309818268,
            0.6318867206573486,
            -0.17745740711688995,
            0.5778453350067139,
            -0.04726583883166313,
            -0.1382390409708023,
            -0.5571158528327942,
            0.019016366451978683,
            0.20799961686134338,
            -0.18142765760421753,
            0.9606776833534241,
            0.35793665051460266,
            -0.4122885465621948,
            -0.3620411455631256,
            0.1421939879655838,
            -0.6298400163650513,
            0.2873062789440155,
            -0.3306858241558075,
            -0.23888355493545532,
            -0.1807686984539032,
            -0.017361406236886978,
            -0.1933743953704834,
            -0.0008077166276052594,
            -0.4337886869907379,
            -0.056052207946777344,
            -0.13153181970119476,
            0.32243168354034424,
            0.36437365412712097,
            0.04504340514540672,
            -0.28525128960609436,
            0.115684874355793,
            -8.066341400146484,
            0.711493968963623,
            0.028884876519441605,
            -0.08342751860618591,
            0.46467772126197815,
            0.2151598185300827,
            0.02112598903477192,
            0.24713335931301117,
            -0.02261478826403618,
            0.09198253601789474,
            -0.06992866843938828,
            -0.06579820066690445,
            0.1656908094882965,
            -0.08784881979227066,
            -0.00978839211165905,
            0.07679614424705505,
            0.244302436709404,
            0.09618286043405533,
            -0.18919764459133148,
            0.08954989910125732,
            0.4965863525867462,
            0.49609658122062683,
            -0.3545226752758026,
            -0.03607819601893425,
            -0.42346733808517456,
            -0.03971615433692932,
            -0.1724068969488144,
            -0.5023715496063232,
            0.07461240142583847,
            -0.0480910949409008,
            -0.1838396042585373,
            -0.22095297276973724,
            5.059652328491211,
            0.23441140353679657,
            0.5071750283241272,
            0.35881924629211426,
            -0.4930054545402527,
            0.1278696209192276,
            0.13294456899166107,
            0.12038674205541611,
            -0.22971349954605103,
            -0.04102602228522301,
            -0.30485159158706665,
            -0.4180360436439514,
            -0.7408186793327332,
            -0.11920388787984848,
            -0.6550465226173401,
            0.013424866832792759,
            0.07444707304239273,
            -0.2725410461425781,
            0.1558348685503006,
            -0.45789164304733276,
            0.13002191483974457,
            0.22855547070503235,
            -0.1374603658914566,
            -0.15519817173480988,
            0.19686780869960785,
            -0.5760842561721802,
            -0.7360532879829407,
            -0.38934722542762756,
            -0.3223217725753784,
            0.08550692349672318,
            -0.27228960394859314,
            0.15132510662078857,
            1.4860599040985107,
            -0.4829694926738739,
            0.2816454768180847,
            -0.4894518554210663,
            -0.6999843716621399,
            -0.12887826561927795,
            -0.039478447288274765,
            0.8382331132888794,
            0.3119567036628723,
            0.033130545169115067,
            0.7581300139427185,
            -0.2795368432998657,
            0.1661391258239746,
            -0.1505124568939209,
            -0.6694194078445435,
            0.31025201082229614,
            2.124807357788086,
            0.2134794443845749,
            0.015580551698803902,
            -0.4602111577987671,
            -0.9672886729240417,
            -0.2758503258228302,
            -0.7448311448097229,
            0.4353717863559723,
            0.2525481581687927,
            0.6215882897377014,
            0.2589767575263977,
            0.4860483407974243,
            0.060185082256793976,
            -0.48320603370666504,
            0.16318529844284058,
            0.010752398520708084,
            0.24278640747070312,
            0.28571364283561707,
            -0.08440190553665161,
            -0.2307834029197693,
            -0.1752624809741974,
            0.06443057954311371,
            -0.13953951001167297,
            -0.2175343632698059,
            -0.16068503260612488,
            -0.05602992698550224,
            0.024346621707081795,
            -0.11712618172168732,
            0.4432922303676605,
            -0.32994017004966736,
            -0.39175400137901306,
            0.294065922498703,
            0.5908430814743042,
            -0.4126206934452057,
            0.09133020788431168,
            0.688811182975769,
            0.3903750479221344,
            0.24452540278434753,
            0.3587833642959595,
            -0.31925421953201294,
            0.06747473776340485,
            -0.3980729281902313,
            -0.11812455207109451,
            0.16780658066272736,
            -0.01894420199096203,
            0.08073056489229202,
            -0.5116557478904724,
            -0.04467453807592392,
            4.146585941314697,
            1.0959606170654297,
            0.30096930265426636,
            -0.09631814807653427,
            -0.37658584117889404,
            -0.07649359852075577,
            0.11650512367486954,
            0.41181355714797974,
            -0.33566296100616455,
            0.08280608057975769,
            -0.19970625638961792,
            0.16024765372276306,
            0.4577468931674957,
            -0.2674848735332489,
            -0.18477243185043335,
            -0.06553888320922852,
            0.2330245077610016,
            -0.4110126495361328,
            0.620927631855011,
            -0.3492291271686554,
            0.38885730504989624,
            0.4516741633415222,
            -0.19012980163097382,
            0.04107201099395752,
            0.22592969238758087,
            0.3104218542575836,
            0.09249766170978546,
            0.1212516576051712,
            0.17588770389556885,
            -0.5698328018188477,
            0.8330944776535034,
            -0.09763677418231964,
            -0.309803307056427,
            -0.6642899513244629,
            -0.3854943811893463,
            -0.031448956578969955,
            -0.17244821786880493,
            -0.17042630910873413,
            0.3773088753223419,
            -0.0594659298658371,
            0.13251893222332,
            0.26472288370132446,
            -0.38661181926727295,
            0.06943100690841675,
            -0.8168725371360779,
            0.11196902394294739,
            0.011516441591084003,
            0.14884978532791138,
            0.6781642436981201,
            -0.09022155404090881,
            -0.04781700670719147,
            -0.20194923877716064,
            0.19089160859584808,
            -0.030558113008737564,
            -0.02491704374551773,
            0.33411285281181335,
            0.17685630917549133,
            -1.0514893531799316,
            0.54910808801651,
            -0.10347256064414978,
            0.021580051630735397,
            -0.011833729222416878,
            0.02838144451379776,
            -0.48149535059928894,
            -0.18034112453460693,
            -0.5478318333625793,
            -0.09799966216087341,
            0.1448948234319687,
            0.1212141215801239,
            -0.4759436249732971,
            -0.21204504370689392,
            0.1952354609966278,
            -0.05892403796315193,
            -0.5564263463020325,
            0.17084403336048126,
            -0.35476046800613403,
            -0.4041648209095001,
            -0.2590154707431793,
            -0.028575574979186058,
            -0.6723337769508362,
            5.519050121307373,
            0.6997412443161011,
            -0.5135325789451599,
            -0.12045014649629593,
            -0.43259185552597046,
            -0.08231992274522781,
            -0.0033130610827356577,
            -0.476915568113327,
            -0.0931021198630333,
            -0.17499105632305145,
            0.17515945434570312,
            0.8637442588806152,
            0.025719940662384033,
            -0.1007142961025238,
            -0.05112968385219574,
            -0.27458202838897705,
            -0.4190976619720459,
            -0.25398316979408264,
            0.10699699819087982,
            -0.022658931091427803,
            0.016299717128276825,
            0.17418110370635986,
            0.23041580617427826,
            0.011699997819960117,
            -0.09743456542491913,
            -0.2747286260128021,
            -0.3772657811641693,
            -0.11904190480709076,
            -0.5462964773178101,
            -0.20804674923419952,
            0.07387711852788925,
            -0.5463260412216187,
            -5.486904621124268,
            -0.6743166446685791,
            -0.2647774815559387,
            -0.014803824946284294,
            0.2837775647640228,
            0.3602738380432129,
            0.028630370274186134,
            -0.5397551655769348,
            -0.18115094304084778,
            -0.39909520745277405,
            -0.1158028244972229,
            0.12683846056461334,
            0.11415669322013855,
            0.9726424813270569,
            0.5803619027137756,
            0.08614297211170197,
            0.09155558794736862,
            0.2941856384277344,
            -0.1385955661535263,
            -0.21981774270534515,
            0.7059695720672607,
            0.7674636244773865,
            0.2108103483915329,
            -0.10173807293176651,
            -0.09001325070858002,
            0.26527974009513855,
            -0.2953971028327942,
            -1.1232712268829346,
            -0.14869330823421478,
            -0.24694669246673584,
            -0.16171430051326752,
            0.049028731882572174,
            -0.11019738018512726,
            -0.45880126953125,
            0.1112358495593071,
            0.09121070057153702,
            -0.043141257017850876,
            0.5923632979393005,
            -0.5043429732322693,
            0.03025468997657299,
            0.022150548174977303,
            0.0680830329656601,
            -0.15114405751228333,
            -0.28724169731140137,
            -0.08425524085760117,
            0.18189175426959991,
            0.2675594985485077,
            0.23872001469135284,
            4.803307056427002,
            0.2257954180240631,
            0.38128116726875305,
            -0.1034289002418518,
            0.0537906289100647,
            0.205466166138649,
            0.008986763656139374,
            -0.2876613438129425,
            -0.008370472118258476,
            0.021063752472400665,
            0.378832072019577,
            0.4484899640083313,
            0.11933336406946182,
            -0.01716344617307186,
            -0.04234597831964493,
            -0.05174306407570839,
            0.523898184299469,
            -0.33805885910987854,
            0.36368805170059204,
            0.5980038642883301,
            0.09358233213424683,
            0.08676687628030777,
            0.5467257499694824,
            0.18913723528385162,
            -0.46931692957878113,
            -0.1726364940404892,
            -0.3843892514705658,
            -0.12970922887325287,
            -0.19333772361278534,
            0.02974890172481537,
            -0.3725798726081848,
            -0.083907350897789,
            -0.06534487009048462,
            0.523653507232666,
            0.3830888271331787,
            -0.059820450842380524,
            0.131465882062912,
            0.024462563917040825,
            -0.14854292571544647,
            -0.45912793278694153,
            -0.5172661542892456,
            -0.06719093024730682,
            -0.29522469639778137,
            -0.03997408598661423,
            0.008472084067761898,
            -0.20877550542354584,
            0.2338186353445053,
            -0.18102282285690308,
            -0.15647082030773163,
            0.019661836326122284,
            -0.4006860852241516,
            -0.36543363332748413,
            -0.2703815698623657,
            0.02467736415565014,
            -0.1992749124765396,
            -0.030049597844481468,
            -0.17053651809692383,
            0.004610410891473293,
            -0.35906702280044556,
            -0.017202313989400864,
            -0.3840957581996918,
            0.34160012006759644,
            0.11860967427492142,
            0.27265170216560364,
            -0.864740788936615,
            0.09709688276052475,
            -1.1637649536132812,
            0.22762803733348846,
            0.0658327043056488,
            0.03695053979754448,
            0.21006983518600464,
            0.11229870468378067,
            -0.08829983323812485,
            -0.2665342688560486,
            -0.015648946166038513,
            0.408475399017334,
            -0.037746038287878036,
            -0.8144959807395935,
            0.3106013536453247,
            0.23627382516860962,
            -0.50459885597229,
            -0.5007948279380798,
            0.19392120838165283,
            -0.029658913612365723,
            -0.06706466525793076,
            0.17570464313030243,
            -0.18315722048282623,
            -0.07496679574251175,
            0.02748151868581772,
            -0.41763466596603394,
            0.3499421775341034,
            0.6065233945846558,
            -0.29108405113220215,
            -0.2718900740146637,
            0.01704123243689537,
            0.11270207166671753,
            0.5412091612815857,
            0.18094801902770996,
            0.20438408851623535,
            -0.34902825951576233,
            0.43121108412742615,
            -0.37371817231178284,
            -0.17937280237674713,
            -0.0670260563492775,
            -0.3926497995853424,
            -0.7387319207191467,
            -0.006097869016230106,
            -0.25105538964271545,
            -0.04942198097705841,
            0.1765953004360199,
            -1.1232863664627075,
            -0.2914806604385376,
            -0.4522392153739929,
            -0.034649964421987534,
            0.19470319151878357,
            -0.05555649474263191,
            -0.10516352206468582,
            -0.1944059282541275,
            -0.13699541985988617,
            0.516758143901825,
            0.08430254459381104,
            -0.20440350472927094,
            -0.11002165079116821,
            -0.0733964741230011,
            -0.10632830858230591,
            0.44304001331329346,
            0.09884493052959442,
            0.09535316377878189,
            0.0453404076397419,
            0.21836628019809723,
            0.13404403626918793,
            -0.04091207683086395,
            -0.19460529088974,
            0.3505169153213501,
            0.03758051246404648,
            -0.5185797810554504,
            0.03079608455300331,
            -0.4031667709350586,
            0.11754250526428223,
            -0.558860719203949,
            -0.3308078646659851,
            -0.21954724192619324,
            -0.6127189993858337,
            -0.18129988014698029,
            -0.691968560218811,
            -0.4720872640609741,
            0.40039223432540894,
            0.20861682295799255,
            -0.6488116383552551,
            0.14643144607543945,
            -0.2915756404399872,
            0.49003347754478455,
            0.10337218642234802,
            0.13796012103557587,
            -0.32856810092926025,
            -0.08051808923482895,
            -0.2155468910932541,
            -0.5663893222808838,
            -0.19127802550792694,
            0.08563658595085144,
            0.20791086554527283,
            -0.24481241405010223,
            -0.3225921392440796,
            0.07100939750671387,
            -0.7797284126281738,
            0.31475555896759033,
            0.5313761830329895,
            0.053134310990571976,
            -0.28136593103408813,
            -0.1331997513771057,
            -0.22425304353237152,
            -0.02782081626355648,
            -0.04718916118144989,
            -0.0911625325679779,
            -0.11298767477273941,
            -0.47420886158943176,
            -0.3602052628993988,
            0.0940796360373497,
            0.05665769428014755,
            -0.17366735637187958,
            -0.4651522934436798,
            -0.2694055438041687,
            -0.20136843621730804,
            0.11177592724561691,
            -0.3503663241863251,
            -0.10955990105867386,
            -0.5431738495826721,
            0.2508706748485565,
            -0.03532605990767479,
            0.10313988476991653,
            -0.13984791934490204,
            0.19754381477832794,
            -0.16441737115383148,
            -0.27009984850883484,
            -0.2564525604248047,
            -0.20749393105506897,
            -1.0416079759597778,
            0.09473492950201035,
            0.24950727820396423,
            -0.034005824476480484,
            0.21099813282489777,
            0.06444015353918076,
            -0.19226203858852386,
            0.43887534737586975,
            -0.14845654368400574,
            -0.04036302492022514,
            -0.32763391733169556,
            0.0017029426526278257,
            -0.06041388213634491,
            0.03254716098308563,
            0.21577121317386627,
            -0.3916916251182556,
            0.19630761444568634,
            0.14054076373577118,
            0.10363545268774033,
            0.025895772501826286,
            -0.9926894903182983,
            -0.08682052791118622,
            -0.1916249543428421,
            0.15820124745368958,
            -0.8783954381942749,
            -0.08602210134267807,
            -0.3002966046333313,
            -0.28797057271003723,
            -0.08501428365707397,
            -0.23358333110809326,
            0.1070392057299614,
            0.22296224534511566,
            -0.8880255222320557,
            0.27345725893974304,
            -0.6250150203704834,
            -0.4024686813354492,
            0.3020160496234894,
            -0.32388368248939514,
            -0.014086980372667313,
            0.5061702132225037,
            -0.402392715215683,
            -0.4102628827095032,
            -0.9667102098464966,
            -0.10868839919567108,
            -0.13722141087055206,
            0.04880760237574577,
            -0.07504995167255402,
            0.031779397279024124,
            0.14597541093826294,
            0.2784951627254486,
            -0.013103529810905457,
            0.06703885644674301,
            -0.09707892686128616,
            -0.055478718131780624,
            -0.09322948008775711,
            -0.2831217348575592,
            0.18468308448791504,
            0.02653416246175766,
            0.10114020854234695,
            -0.3129015564918518,
            -0.18907314538955688,
            0.3655390739440918,
            -0.07609587907791138,
            -0.15646396577358246,
            -0.2763633131980896,
            0.06784071773290634,
            0.027592314407229424,
            0.5330951809883118,
            -0.4760982394218445,
            -0.003785813460126519,
            0.18681298196315765,
            0.057159796357154846,
            0.08073379844427109,
            0.28908830881118774,
            -0.23386506736278534,
            0.05855044722557068,
            0.1861315816640854,
            -0.026645218953490257,
            0.578102707862854,
            0.24826861917972565,
            -0.5665705800056458,
            -0.2375762015581131,
            0.31857162714004517,
            -0.14804688096046448,
            -0.25945010781288147,
            -0.005785470362752676,
            -0.16485203802585602,
            -0.3353617191314697,
            0.20452286303043365,
            0.1885894387960434,
            0.553752064704895,
            -0.758431077003479,
            -0.13880367577075958,
            -0.00820503942668438,
            -0.5508667230606079,
            0.1588219851255417,
            -0.39712804555892944,
            -0.25783485174179077,
            -0.43551507592201233,
            -0.02211509458720684,
            0.03632475808262825,
            0.16960391402244568,
            -0.27529457211494446,
            0.13937953114509583,
            -0.21361377835273743,
            -0.30014973878860474,
            -0.2111605852842331,
            -0.2383483201265335,
            0.4198415279388428,
            -0.014235973358154297,
            0.014214973896741867,
            -0.03356008231639862,
            0.1707322746515274,
            -0.1111169308423996,
            -0.1459745466709137,
            -0.06961675733327866,
            -0.30453765392303467,
            0.021382322534918785,
            0.324449360370636,
            0.001294648856855929,
            0.0832979828119278,
            0.11908402293920517,
            -0.26887282729148865,
            0.24733535945415497,
            -0.2974258065223694,
            -0.04777844250202179,
            0.1598753184080124,
            -0.18181255459785461,
            -0.1078270971775055,
            0.04890723526477814,
            0.4673994183540344,
            0.21842217445373535,
            0.06073996052145958,
            0.11089971661567688,
            0.05945392698049545,
            0.1829948127269745,
            -0.33649885654449463,
            -0.44999364018440247,
            0.371796578168869,
            -0.06313040852546692,
            -0.219951793551445,
            0.05469685420393944,
            0.022529488429427147,
            -0.06007343903183937,
            -0.16683509945869446,
            -0.37918415665626526,
            -0.12982186675071716,
            0.3644835948944092,
            -0.20644283294677734,
            0.11023613810539246,
            -0.08912788331508636,
            -0.386379212141037,
            -0.22732408344745636,
            -0.1388198286294937,
            0.3209459185600281,
            -0.3211522400379181,
            0.17664484679698944,
            -0.22746729850769043,
            -0.17342634499073029,
            0.23931442201137543,
            0.2611585259437561,
            0.3839729428291321,
            0.09750302135944366,
            -0.1482570469379425,
            0.14908771216869354,
            0.5362786054611206,
            0.13860654830932617,
            -0.2380456030368805,
            0.1236300989985466,
            -0.5011486411094666,
            -0.5145483613014221,
            -0.2814987897872925,
            0.005154943559318781,
            0.2422790378332138,
            -0.21114188432693481,
            -0.20318740606307983,
            -0.3320850431919098,
            -0.3813225328922272,
            -0.21625679731369019,
            0.05369768291711807,
            0.01982387900352478,
            -0.3374743163585663,
            -0.4673216938972473,
            0.5684583187103271,
            -0.47186315059661865,
            0.010596484877169132,
            0.10522937774658203,
            0.15670597553253174,
            0.22725753486156464,
            0.04844006523489952,
            0.4644177556037903,
            0.7694945335388184,
            0.12925292551517487,
            0.0839570090174675,
            0.41425812244415283,
            -0.18931186199188232,
            0.11818843334913254,
            0.2558782696723938,
            0.10242024809122086,
            0.1779477298259735,
            0.3885302245616913,
            -0.1543659269809723,
            0.30601996183395386,
            -0.10495699942111969,
            0.01311776414513588,
            0.6130991578102112,
            -0.42721760272979736,
            -0.16494454443454742,
            -0.49886465072631836,
            0.07972351461648941,
            0.025612100958824158,
            -0.0773923322558403,
            -0.09410958737134933,
            0.03590957075357437,
            -0.37332162261009216,
            0.384446382522583,
            -0.46860241889953613,
            -0.5165435075759888,
            0.11134275048971176,
            -0.0639047771692276,
            -0.043905775994062424,
            0.2377224713563919,
            -0.10290104150772095,
            -0.30357563495635986,
            -0.23538318276405334,
            -0.3688487708568573,
            0.8906828165054321,
            0.32762575149536133,
            0.10934152454137802,
            -0.5951822400093079,
            -0.6325232982635498,
            -0.0901007130742073,
            -0.3131504952907562,
            0.6180540919303894,
            0.13051263988018036,
            0.39635080099105835,
            -0.03275564685463905,
            0.12751834094524384,
            -0.15959084033966064,
            0.37089067697525024,
            0.013896094635128975,
            -0.3466813862323761,
            -0.14669987559318542,
            -0.058152779936790466,
            0.02371494099497795,
            0.19404855370521545,
            -0.01593794859945774,
            -1.143966555595398,
            0.8121007680892944,
            -0.1958611011505127,
            0.1465371549129486,
            0.4543713927268982,
            0.46859222650527954,
            0.3147372901439667,
            0.028005927801132202,
            -0.1637267917394638,
            0.43003788590431213,
            0.06866797804832458,
            -0.16318504512310028,
            0.2788963317871094,
            0.23115116357803345,
            0.27865996956825256,
            -0.4384252429008484,
            -0.49268028140068054,
            -0.05542397126555443,
            0.1674242615699768,
            0.14301669597625732,
            -0.31730443239212036,
            -0.16168949007987976,
            0.004786301404237747,
            -0.1029428094625473,
            -0.2525003254413605,
            0.3191971182823181,
            0.24729348719120026,
            0.5860812664031982,
            -0.6435280442237854,
            -0.4044398367404938,
            -0.10114534199237823,
            0.31319308280944824,
            -0.017434243112802505,
            -0.016343167051672935,
            0.4017207622528076,
            -0.4333648979663849,
            0.006026004906743765,
            0.009733128361403942,
            -0.22641287744045258,
            0.07304422557353973,
            0.271375447511673,
            0.22008642554283142,
            -0.40722891688346863,
            0.19154369831085205,
            -0.07329891622066498,
            -0.35434114933013916,
            0.22278088331222534,
            -0.7823411226272583,
            0.3804459869861603,
            0.06543202698230743,
            0.31278008222579956,
            -0.8023840188980103,
            -0.20582804083824158,
            0.26122400164604187,
            -0.5119408965110779,
            0.04977976158261299,
            -0.07482514530420303,
            0.23340612649917603,
            -0.06844626367092133,
            -0.9115369915962219,
            0.6311208605766296,
            0.5756753087043762,
            0.03448868542909622,
            -0.39841577410697937,
            -0.6918482184410095,
            -0.1529821753501892,
            -0.4092327356338501,
            -0.606330394744873,
            -0.6190839409828186,
            -0.36345911026000977,
            0.013241388835012913,
            -1.1496727466583252,
            -0.09300000965595245,
            0.009765245951712132,
            0.15744641423225403,
            0.04490751400589943,
            -1.1988252401351929,
            -0.0892617329955101,
            0.23512832820415497,
            0.4155806601047516,
            0.04063238203525543,
            -1.4724072217941284,
            -0.1314651370048523,
            -0.0038837564643472433,
            0.6240534782409668,
            -0.7416870594024658,
            0.528589129447937,
            0.26467716693878174,
            0.010538315400481224,
            -0.36177974939346313,
            -0.4695700705051422,
            -0.09498956054449081,
            -0.8868253231048584,
            0.018346061930060387,
            -0.3139827847480774,
            -0.17049968242645264,
            -0.3298378586769104,
            -0.4188597500324249,
            0.14319634437561035,
            0.0015389479231089354,
            -0.3731677532196045,
            -0.1365709900856018,
            -0.5631524920463562,
            0.2947272062301636,
            0.3403271734714508,
            -0.16683118045330048,
            0.17571689188480377,
            -0.876484215259552,
            -0.6835638284683228,
            -0.1455991268157959,
            0.5056571364402771,
            -0.19754083454608917,
            -0.10469874739646912,
            -0.12163840234279633,
            0.10874152928590775,
            -0.09255976974964142,
            -0.04748678207397461,
            -0.15425889194011688,
            0.020162710919976234,
            -0.13150615990161896,
            -0.11857828497886658,
            -0.26626208424568176,
            -0.01729007251560688,
            -0.6164810061454773,
            -0.2778610587120056,
            0.09551603347063065,
            0.11660988628864288,
            0.23944871127605438,
            -0.4403073489665985,
            -0.6099801659584045,
            -0.4163709282875061,
            0.40320172905921936,
            0.39265403151512146,
            0.5108398795127869,
            0.17376288771629333,
            -0.44379913806915283,
            -0.10361286252737045,
            -1.1074575185775757,
            -0.10350251197814941,
            -0.20359504222869873,
            -0.3677445948123932,
            -0.6767279505729675,
            -0.1771731674671173,
            -0.20372502505779266,
            -0.08845268189907074,
            -0.8165939450263977,
            -0.7910913228988647,
            -0.6702033877372742,
            -0.06271093338727951,
            -0.9406899809837341,
            -0.0027431880589574575,
            -0.5063280463218689,
            0.06925942003726959,
            -0.6179719567298889,
            -0.5510785579681396,
            -0.24660557508468628,
            0.5586321949958801,
            0.20655734837055206,
            0.023702280595898628,
            -0.6562814116477966,
            -0.49981066584587097,
            -0.36977270245552063,
            -0.09868772327899933,
            0.029544200748205185,
            -0.35602128505706787,
            -0.09997651726007462,
            0.08671744912862778,
            0.3399716019630432,
            0.4543065130710602,
            0.48923224210739136,
            -0.3730035424232483,
            -0.06448424607515335,
            0.0680602416396141,
            -0.12383287400007248,
            0.599155843257904,
            -0.2810312807559967,
            -0.07270735502243042,
            -0.152003213763237,
            0.12597301602363586,
            -0.14637616276741028,
            -0.20940357446670532,
            -0.03601382300257683,
            -0.1355857253074646,
            0.2859139144420624,
            0.07091700285673141,
            -0.1576560139656067,
            0.17333360016345978,
            -0.3682408928871155,
            -0.15591903030872345,
            0.13008129596710205,
            -0.16977766156196594,
            -0.34576213359832764,
            0.4098711609840393,
            -0.30181199312210083,
            -0.09202754497528076,
            0.09918725490570068,
            -0.47672736644744873,
            0.04456719383597374,
            -0.09833162277936935,
            0.07186906039714813,
            -0.3701995313167572,
            -0.4307997226715088,
            0.11127078533172607,
            0.5316650867462158,
            0.6019989252090454,
            0.2074812352657318,
            -0.08088399469852448,
            0.3163429796695709,
            -0.8705378174781799,
            -0.19882257282733917,
            -0.3348083794116974,
            0.45427024364471436,
            0.027841808274388313,
            -0.06131279096007347,
            0.5219475030899048,
            0.224397674202919,
            -1.0439106225967407,
            -0.6092203855514526,
            0.1763978898525238,
            -1.0044254064559937,
            -0.11968504637479782,
            0.03888571634888649,
            0.11867990344762802,
            0.06518634408712387,
            0.3036922216415405,
            0.22252047061920166,
            0.10818568617105484,
            0.4604968726634979,
            0.014945711940526962,
            -0.11683008819818497,
            -0.07993368059396744,
            -0.6618916988372803,
            -0.2621397078037262,
            -0.7158324718475342,
            -2.260105609893799,
            -0.659374475479126,
            -0.040716502815485,
            0.11484987288713455,
            -0.16473466157913208,
            -0.05456273630261421,
            0.39012131094932556,
            -0.7417232990264893,
            0.11325022578239441,
            0.3037521541118622,
            -0.3411717414855957,
            -0.36036378145217896,
            0.30999478697776794,
            0.3543897569179535,
            -0.6926597952842712,
            -0.2010577917098999,
            -0.21038725972175598,
            -0.07812798023223877,
            0.043639592826366425,
            -0.7021769881248474,
            0.37892183661460876,
            -0.18146415054798126,
            0.04235756769776344,
            0.11796412616968155,
            -0.40401503443717957,
            -0.15155677497386932,
            0.1197616308927536,
            -0.37919577956199646,
            -0.058375969529151917,
            -0.9522942900657654,
            -0.1902887225151062,
            0.033546239137649536,
            0.9761837720870972,
            -0.09977352619171143,
            -0.008026010356843472,
            -0.1439998298883438,
            -0.3204711675643921,
            0.7415172457695007,
            -0.8965505957603455,
            -0.17196117341518402,
            -0.4128812551498413,
            0.2524764835834503,
            -0.05637618526816368,
            -0.2595563530921936,
            -0.13569064438343048,
            0.44328853487968445,
            -0.03372158110141754,
            -0.46307530999183655,
            -0.13080880045890808,
            -0.680393397808075,
            -0.4426088333129883,
            0.37799039483070374,
            -0.9601019620895386,
            0.4724269509315491,
            -0.14774656295776367,
            -0.3749517500400543,
            -0.5434703230857849
        ],
        "bias": [
            0.1872803121805191,
            -0.8134748935699463,
            0.3702484965324402,
            -0.3298814594745636,
            -0.23537294566631317,
            -0.6564067602157593,
            -0.3156176805496216,
            0.003979119006544352,
            -0.9969110488891602,
            0.16206562519073486,
            0.15696066617965698,
            0.21447812020778656,
            -0.4611881971359253,
            -0.34386420249938965,
            0.42588678002357483,
            -0.3522871434688568,
            -0.17263086140155792,
            -0.4070955514907837,
            -0.3132795989513397,
            -0.5001938343048096,
            0.07812342792749405,
            -0.13830341398715973,
            0.014888983219861984,
            -0.38990518450737,
            -0.16514845192432404,
            -0.07178482413291931,
            -0.11251538246870041,
            3.2331602573394775,
            -0.008251938968896866,
            0.11452728509902954,
            -0.33625486493110657,
            0.1582036167383194,
            1.7869642972946167,
            0.5655107498168945,
            0.14701111614704132,
            0.2239072471857071,
            -0.01078846212476492,
            0.09505707770586014,
            -0.028463194146752357,
            -0.06387440115213394,
            1.5542594194412231,
            -0.022687505930662155,
            0.16751880943775177,
            -0.05692123994231224,
            1.015849232673645,
            0.3815610110759735,
            0.27558255195617676,
            0.32064923644065857,
            -0.8991114497184753,
            -0.0847245380282402,
            -0.45613572001457214,
            0.4214504063129425,
            -0.39942479133605957
        ]
    },
    "policy": {
        "hidden_layer_size": 26,
        "hidden_layer_count": 2,
        "weights": [
            -0.1254691183567047,
            -0.04898935556411743,
            0.31721624732017517,
            0.48670104146003723,
            -0.7304083704948425,
            0.1770637184381485,
            -0.14177636802196503,
            -0.3568504750728607,
            -0.23371393978595734,
            -0.3112286627292633,
            -0.350473552942276,
            0.1905812919139862,
            -0.01851319521665573,
            0.44530344009399414,
            0.12706688046455383,
            -0.027502531185746193,
            0.016805503517389297,
            0.39163514971733093,
            -0.117057666182518,
            0.22356387972831726,
            -0.5190233588218689,
            0.030745239928364754,
            0.39436623454093933,
            0.1154715046286583,
            0.6324322819709778,
            0.20010913908481598,
            -0.02214612439274788,
            0.14231719076633453,
            0.4847866892814636,
            0.982589066028595,
            0.23630356788635254,
            -0.09938579797744751,
            -0.4294465184211731,
            -0.23353704810142517,
            -0.19086205959320068,
            -0.1544051617383957,
            -0.2588478922843933,
            -0.3095828592777252,
            -0.031194081529974937,
            0.30686867237091064,
            -0.5983622670173645,
            0.37625497579574585,
            -0.08678633719682693,
            -0.2538047730922699,
            -0.2250710427761078,
            -0.35517051815986633,
            0.04752219095826149,
            -0.2798163592815399,
            -0.09490480273962021,
            0.16123530268669128,
            0.36321356892585754,
            -0.4001547694206238,
            -0.542381227016449,
            0.23591306805610657,
            0.03222944587469101,
            0.28795021772384644,
            -0.379194438457489,
            -0.28775298595428467,
            -0.23524713516235352,
            -0.04530305787920952,
            0.03343385457992554,
            0.5883018970489502,
            0.44853296875953674,
            0.05496920272707939,
            0.21692171692848206,
            -0.6481854915618896,
            -0.24608394503593445,
            0.03042030707001686,
            0.07864084839820862,
            -0.012626834213733673,
            0.3407648801803589,
            0.18040964007377625,
            -0.004985420498996973,
            -0.16293421387672424,
            -0.7646031379699707,
            -0.2847774922847748,
            0.19792842864990234,
            0.11052437871694565,
            -0.2046518623828888,
            0.18326807022094727,
            0.16769403219223022,
            -0.6313239932060242,
            -0.11947538703680038,
            0.18680106103420258,
            -0.2166774868965149,
            -0.4956047534942627,
            -0.2052479386329651,
            0.17201054096221924,
            0.09212473034858704,
            -0.24522830545902252,
            0.3883954882621765,
            -0.41266998648643494,
            -0.010551032610237598,
            0.2485947161912918,
            0.037784624844789505,
            -0.30863967537879944,
            0.08855633437633514,
            0.34911495447158813,
            -0.6116370558738708,
            0.034050144255161285,
            -0.08394962549209595,
            -0.37790998816490173,
            0.5733413696289062,
            0.30002960562705994,
            -0.43741098046302795,
            -0.08300720900297165,
            0.039088644087314606,
            -0.5172584056854248,
            0.4799092710018158,
            -0.3939523994922638,
            -0.047824427485466,
            -0.1846936196088791,
            -0.02108418382704258,
            0.10169616341590881,
            -0.10807500034570694,
            0.03723197430372238,
            0.5174511671066284,
            0.15315568447113037,
            -0.16036498546600342,
            -0.040610115975141525,
            0.03460396081209183,
            -0.46990495920181274,
            0.4741813540458679,
            0.01840440183877945,
            -0.036697618663311005,
            0.13408207893371582,
            -0.6525002121925354,
            -0.1632920652627945,
            -0.80033278465271,
            -0.0822414755821228,
            0.3497811257839203,
            0.5410606861114502,
            0.0640130490064621,
            0.28017139434814453,
            -0.4234045147895813,
            -0.5768007040023804,
            -0.08712933212518692,
            -0.3248315751552582,
            0.2730473577976227,
            -0.23880460858345032,
            -0.13769927620887756,
            -0.21948762238025665,
            -0.5536674857139587,
            -0.30895861983299255,
            0.14533227682113647,
            0.009239624254405499,
            0.07955758273601532,
            -0.15575115382671356,
            0.14441174268722534,
            -0.05548400059342384,
            0.013416027650237083,
            0.056171610951423645,
            -0.2153317630290985,
            -0.3604154586791992,
            -0.3109833598136902,
            -0.04524880275130272,
            -0.5478625297546387,
            0.2590150535106659,
            -0.45392149686813354,
            -0.21576175093650818,
            0.6299425363540649,
            -1.1012736558914185,
            -0.2726368010044098,
            -0.190715491771698,
            0.053070876747369766,
            -0.15956351161003113,
            0.4564380943775177,
            0.08131654560565948,
            -0.20263785123825073,
            0.21117721498012543,
            0.2820632755756378,
            0.02857646904885769,
            0.15927588939666748,
            0.09621229022741318,
            0.39496830105781555,
            -0.08908555656671524,
            -0.13743461668491364,
            -0.4926934242248535,
            -0.527783215045929,
            0.5929346680641174,
            -0.2362336367368698,
            -0.23924213647842407,
            0.529789388179779,
            0.27381017804145813,
            0.1520538628101349,
            0.1625291407108307,
            -0.2602996230125427,
            0.06345851719379425,
            -0.3469241261482239,
            0.0816403403878212,
            0.40908217430114746,
            0.22881071269512177,
            0.45170411467552185,
            0.40071070194244385,
            -0.4722473919391632,
            -0.13414131104946136,
            0.33015185594558716,
            -0.21187713742256165,
            -0.11083386093378067,
            -0.0366140753030777,
            -0.13725724816322327,
            0.14976558089256287,
            -0.18763399124145508,
            0.04860661178827286,
            -0.40894702076911926,
            0.2217717319726944,
            0.6141131520271301,
            0.4869193732738495,
            -0.2802248001098633,
            -0.6268993616104126,
            -0.0686928853392601,
            -0.2406090646982193,
            0.30383798480033875,
            -0.2694058418273926,
            0.17538315057754517,
            -0.29205289483070374,
            -0.3896106481552124,
            0.22341465950012207,
            -0.4454793334007263,
            -0.17960339784622192,
            -0.12865199148654938,
            0.1565995067358017,
            -0.6753092408180237,
            0.630784809589386,
            0.45861878991127014,
            -0.31059592962265015,
            0.16761434078216553,
            -0.09440124779939651,
            -0.5031876564025879,
            0.20968560874462128,
            -0.09757707267999649,
            0.46765652298927307,
            0.7428226470947266,
            0.41302967071533203,
            -0.1600082367658615,
            0.1628849357366562,
            -0.02597828209400177,
            0.5447811484336853,
            0.6758071184158325,
            0.01803884282708168,
            -0.18658196926116943,
            0.5338494181632996,
            -0.32010677456855774,
            -0.6092543601989746,
            0.2671271860599518,
            -0.1812419593334198,
            -0.11434804648160934,
            -0.19441570341587067,
            0.02450912818312645,
            -0.31067147850990295,
            -0.6137722730636597,
            0.499950647354126,
            -0.1798410266637802,
            0.17337416112422943,
            0.2739894986152649,
            -0.9906623959541321,
            0.12001699209213257,
            0.06799914687871933,
            -0.5712789297103882,
            0.9548125863075256,
            0.2662390172481537,
            0.07459083944559097,
            -0.6023464202880859,
            -0.36243006587028503,
            0.14262600243091583,
            -0.262868732213974,
            -0.28849536180496216,
            0.1575600504875183,
            0.3329716920852661,
            -0.17647169530391693,
            0.0912511944770813,
            -0.185023695230484,
            -0.16387344896793365,
            0.6855268478393555,
            -0.4069233536720276,
            -0.8263487815856934,
            0.22622938454151154,
            0.14436770975589752,
            -0.09649911522865295,
            0.5513820648193359,
            -0.3892798125743866,
            -0.06822667270898819,
            0.1307058185338974,
            -0.18440695106983185,
            -0.3276435136795044,
            -0.42097151279449463,
            -0.17915566265583038,
            0.813374400138855,
            -0.20285531878471375,
            0.2597132921218872,
            -0.28998318314552307,
            0.29326650500297546,
            -0.5253891944885254,
            0.23560647666454315,
            -0.44284701347351074,
            0.6860752701759338,
            0.022996777668595314,
            -0.23193739354610443,
            -0.49262386560440063,
            0.0778454840183258,
            0.006015550345182419,
            -0.5519732236862183,
            0.3193252980709076,
            -0.7698436379432678,
            0.6985893249511719,
            -0.3497610092163086,
            -0.25168880820274353,
            0.3130479156970978,
            -0.08272745460271835,
            0.45891135931015015,
            -0.13512714207172394,
            -0.5206561088562012,
            -0.7773442268371582,
            -0.5559765696525574,
            -0.4847123920917511,
            0.15315233170986176,
            -0.6454325914382935,
            0.08018559217453003,
            -0.04647991433739662,
            0.6783579587936401,
            0.1991071105003357,
            0.271384596824646,
            -0.09537702798843384,
            0.46382269263267517,
            0.21040938794612885,
            -0.11183327436447144,
            0.5631600022315979,
            -0.3756437599658966,
            -0.1751052588224411,
            -0.0019672312773764133,
            0.2029666006565094,
            -0.6810066103935242,
            -0.26272058486938477,
            -0.042549602687358856,
            0.05007334426045418,
            0.5335632562637329,
            -0.9322843551635742,
            0.14112286269664764,
            -0.6175073981285095,
            0.10112028568983078,
            -0.46074527502059937,
            -0.20119282603263855,
            -0.1502298265695572,
            0.13312332332134247,
            0.20031484961509705,
            0.5612958073616028,
            -0.48258495330810547,
            0.240531787276268,
            -0.12960295379161835,
            0.07685632258653641,
            0.02913198061287403,
            0.2109425961971283,
            1.0016940832138062,
            0.3323993682861328,
            -0.44118693470954895,
            -0.7002814412117004,
            -0.3264825642108917,
            -0.18714866042137146,
            0.12402131408452988,
            -0.13738439977169037,
            0.16391292214393616,
            -0.29904353618621826,
            0.4117302894592285,
            0.3373081386089325,
            0.3137595057487488,
            0.20031635463237762,
            0.2402724176645279,
            -0.23932668566703796,
            -0.24679312109947205,
            0.42935243248939514,
            -0.06359103322029114,
            -0.20664039254188538,
            -0.5411846041679382,
            0.29792237281799316,
            -0.014854524284601212,
            -0.31848031282424927,
            -0.23939983546733856,
            0.05539233982563019,
            0.21293818950653076,
            0.017686188220977783,
            0.5359466671943665,
            -0.7147526144981384,
            -0.4061809480190277,
            0.13018104434013367,
            0.87654709815979,
            -0.07455631345510483,
            0.20811569690704346,
            -0.08651956915855408,
            0.42650169134140015,
            -0.4146052896976471,
            0.17286579310894012,
            0.11548669636249542,
            -0.2344236671924591,
            0.09334433078765869,
            -0.5629972815513611,
            0.031562067568302155,
            -0.007525268010795116,
            -0.24486924707889557,
            0.06310158967971802,
            -0.3487248122692108,
            -0.07855048775672913,
            -0.7769358158111572,
            0.22314222157001495,
            -0.1837163120508194,
            0.937763512134552,
            -0.30392956733703613,
            0.42446643114089966,
            0.49055057764053345,
            0.00240853033028543,
            -0.11454866826534271,
            0.08759094774723053,
            -0.0001242432917933911,
            -0.12277868390083313,
            -0.5980281829833984,
            0.17229507863521576,
            -0.2591869831085205,
            0.31610167026519775,
            0.6840583086013794,
            -0.17078639566898346,
            0.28184738755226135,
            -0.34216564893722534,
            0.0731532946228981,
            -0.2581586241722107,
            0.24331577122211456,
            -0.29110562801361084,
            0.07744371891021729,
            -0.031284548342227936,
            0.2012094259262085,
            -0.27991199493408203,
            -0.049798909574747086,
            -0.15969650447368622,
            -0.5266525745391846,
            0.1740611344575882,
            -0.2123822420835495,
            -0.16168659925460815,
            -0.10823419690132141,
            -0.4761582016944885,
            0.5977841019630432,
            -0.5219577550888062,
            -0.1899365484714508,
            -0.38526973128318787,
            -0.03683634474873543,
            0.03812873363494873,
            0.08829416334629059,
            -0.5139151811599731,
            0.2418450266122818,
            0.04479364678263664,
            -0.3123754858970642,
            0.09212939441204071,
            0.055263929069042206,
            0.3242950141429901,
            0.11097775399684906,
            0.5565374493598938,
            0.20391270518302917,
            -0.26368027925491333,
            -0.459698349237442,
            0.33925166726112366,
            -0.1915762573480606,
            -0.18629413843154907,
            0.06619826704263687,
            -0.020178819075226784,
            0.07286933064460754,
            -0.5841415524482727,
            0.49926358461380005,
            0.24186260998249054,
            -0.0013524552341550589,
            -0.22534294426441193,
            0.11074136197566986,
            0.15433859825134277,
            -0.025449350476264954,
            0.49400630593299866,
            0.06308525055646896,
            0.24156823754310608,
            0.46998512744903564,
            0.2714309096336365,
            0.132869690656662,
            -0.44989416003227234,
            0.07873819768428802,
            -0.22071251273155212,
            -0.18860337138175964,
            0.28128868341445923,
            0.36166855692863464,
            0.11805370450019836,
            -0.0004516595508903265,
            -0.1731703281402588,
            -0.2230352908372879,
            -0.2822451591491699,
            -0.2684950828552246,
            -0.4908794164657593,
            -0.3444885313510895,
            -0.2955879271030426,
            -0.6923542618751526,
            0.04403527081012726,
            -0.3828478157520294,
            -0.34323230385780334,
            -0.29891735315322876,
            0.25033295154571533,
            -0.02621537819504738,
            -0.5165837407112122,
            -0.2582685947418213,
            0.4040094017982483,
            0.10484343767166138,
            -0.3834935426712036,
            -0.042410578578710556,
            0.2789798974990845,
            -0.18707479536533356,
            0.01277377549558878,
            -0.08043263852596283,
            -0.10681810230016708,
            -0.14208899438381195,
            0.4503202736377716,
            0.017407836392521858,
            -0.3613723814487457,
            0.2690523564815521,
            -0.14823834598064423,
            0.33962205052375793,
            0.2538640797138214,
            -0.05624113976955414,
            0.02706567756831646,
            0.3561212420463562,
            -0.17923162877559662,
            0.15448923408985138,
            0.05486410856246948,
            -0.21848227083683014,
            0.0063623408786952496,
            0.03713340312242508,
            -0.01985168270766735,
            -0.07029502093791962,
            -0.14963112771511078,
            -0.4964010417461395,
            -0.16224305331707,
            -0.1684684455394745,
            0.27813148498535156,
            0.20293647050857544,
            0.3255576491355896,
            -0.526931881904602,
            0.4302501678466797,
            0.10250093787908554,
            0.2521803677082062,
            0.690973699092865,
            0.05432462692260742,
            -0.29842182993888855,
            -0.028393752872943878,
            -0.2044370472431183,
            0.5507743954658508,
            0.5734575986862183,
            0.2801606357097626,
            -0.18776804208755493,
            0.25669220089912415,
            -0.35670769214630127,
            0.09518689662218094,
            0.0671900063753128,
            0.19866713881492615,
            -0.5738672614097595,
            -0.04683652147650719,
            0.3471943736076355,
            0.19472458958625793,
            -0.08393296599388123,
            -0.11346689611673355,
            0.26691967248916626,
            -0.24978817999362946,
            0.5772765874862671,
            0.03776601329445839,
            -0.016513684764504433,
            0.005920859985053539,
            0.12461897730827332,
            -0.30293577909469604,
            0.16555309295654297,
            -0.5604170560836792,
            0.19201990962028503,
            0.4423608183860779,
            -0.23118500411510468,
            -0.34075823426246643,
            -0.1617618203163147,
            0.5213852524757385,
            -0.3404793441295624,
            0.38228413462638855,
            0.06730911880731583,
            -0.3665567636489868,
            -0.03932547569274902,
            -0.09379962086677551,
            -0.12823475897312164,
            -0.13108767569065094,
            0.005822641309350729,
            0.21547870337963104,
            0.1389104276895523,
            -0.08394275605678558,
            0.40910109877586365,
            -0.35973358154296875,
            0.605919599533081,
            -0.3171760141849518,
            -0.06027849018573761,
            -0.0915650799870491,
            -0.3117089569568634,
            -0.10588038712739944,
            -0.4228881299495697,
            -0.15206356346607208,
            0.1706206351518631,
            -0.19865670800209045,
            -0.12239891290664673,
            -0.158951073884964,
            -0.07190851122140884,
            -0.3560500741004944,
            0.5495589375495911,
            0.4827474057674408,
            -0.03304218873381615,
            -0.0010042469948530197,
            0.17366865277290344,
            0.2161371260881424,
            -0.070048987865448,
            -0.13467219471931458,
            -0.3604417145252228,
            -0.14371690154075623,
            -0.02436044067144394,
            -0.34250015020370483,
            0.07652411609888077,
            -0.16535523533821106,
            -0.34272831678390503,
            0.2837468981742859,
            -0.005418299697339535,
            -0.10918763279914856,
            0.1866241693496704,
            -0.07845684140920639,
            -0.46166694164276123,
            0.2581275999546051,
            -0.36437132954597473,
            0.07474224269390106,
            -0.22803039848804474,
            -0.11834878474473953,
            -0.5180894136428833,
            -0.1818353831768036,
            -0.4615188241004944,
            -0.2740481495857239,
            0.24475017189979553,
            0.3357079029083252,
            0.3723776638507843,
            -0.06406759470701218,
            0.19746242463588715,
            -0.01950559765100479,
            -0.1020401120185852,
            0.13577206432819366,
            0.029749875888228416,
            0.12087450921535492,
            0.05346072465181351,
            -0.0744810700416565,
            0.19733741879463196,
            -0.2791762948036194,
            0.5177828073501587,
            0.37171125411987305,
            0.2201971560716629,
            0.06810430437326431,
            -0.000047060650103958324,
            0.46077343821525574,
            0.03556736931204796,
            -0.2611083686351776,
            0.11436406522989273,
            0.267813503742218,
            0.08195868134498596,
            -0.20836308598518372,
            0.11628695577383041,
            -0.13045290112495422,
            -0.3032228648662567,
            0.09323594719171524,
            -0.18083499372005463,
            -0.19747768342494965,
            0.5645371675491333,
            -0.16442930698394775,
            0.5891203880310059,
            0.5209645628929138,
            -0.39550140500068665,
            0.16127769649028778,
            -0.13611869513988495,
            0.03333533927798271,
            -0.13958635926246643,
            -0.06288181245326996,
            0.41274523735046387,
            0.28978052735328674,
            0.07032217085361481,
            0.21775074303150177,
            -0.31828561425209045,
            0.4072780907154083,
            0.20844979584217072,
            -0.3964117467403412,
            0.2652202546596527,
            0.035217273980379105,
            -0.13672734797000885,
            0.630479633808136,
            -0.09282053261995316,
            -0.10414305329322815,
            -0.25174254179000854,
            0.5466144680976868,
            0.4673786461353302,
            -0.5663141012191772,
            0.4715408682823181,
            0.46168357133865356,
            -0.5852863788604736,
            -0.13602373003959656,
            0.062171608209609985,
            0.08705593645572662,
            0.031004134565591812,
            -0.22586043179035187,
            0.06182696297764778,
            -0.3100823163986206,
            -0.13574060797691345,
            -0.32372161746025085,
            -0.243871808052063,
            -0.39043933153152466,
            0.37491047382354736,
            0.2731866240501404,
            0.09664048999547958,
            0.3726004362106323,
            -0.38544711470603943,
            0.12576118111610413,
            0.1051846519112587,
            -0.1380729228258133,
            -0.14114932715892792,
            0.27016735076904297,
            -0.2422427386045456,
            0.20933797955513,
            -0.08439204841852188,
            -0.09688413888216019,
            -0.07120417058467865,
            -0.3049416244029999,
            -0.1476382315158844,
            -0.061629801988601685,
            -0.09511365741491318,
            0.7568287253379822,
            -0.26355859637260437,
            0.31942635774612427,
            0.2315388172864914,
            -0.5163218379020691,
            -0.08509533107280731,
            0.2783554196357727,
            0.028830252587795258,
            0.14426037669181824,
            0.07722344249486923,
            -0.11099956929683685,
            -0.14409177005290985,
            -0.5611565113067627,
            0.044631898403167725,
            -0.5179106593132019,
            -0.22428743541240692,
            0.12938524782657623,
            0.16910313069820404,
            -0.04695728048682213,
            0.23332719504833221,
            -0.42207902669906616,
            0.07540077716112137,
            0.3461149036884308,
            0.17850586771965027,
            0.16707295179367065,
            -0.47658735513687134,
            0.01936800219118595,
            0.0060561178252100945,
            0.340948224067688,
            0.05373276397585869,
            0.28985926508903503,
            -0.011808355338871479,
            0.021341439336538315,
            -0.5329344272613525,
            -0.15053556859493256,
            -0.40595272183418274,
            -0.14999109506607056,
            -0.29832836985588074,
            0.3172423839569092,
            0.6107560992240906,
            0.2746400237083435,
            -0.3672564923763275,
            -0.14790430665016174,
            -0.09711803495883942,
            0.0834493562579155,
            0.14002953469753265,
            -0.10815898329019547,
            -0.153560072183609,
            0.12011684477329254,
            -0.40351080894470215,
            0.36851394176483154,
            0.0458170548081398,
            0.09867984801530838,
            0.3716442286968231,
            0.24688367545604706,
            0.540385901927948,
            0.4530729055404663,
            0.18091334402561188,
            0.1335638165473938,
            0.015954187139868736,
            0.2854793965816498,
            -0.0006263367249630392,
            0.09893447160720825,
            0.1654512584209442,
            -0.4838317334651947,
            0.06156310811638832,
            -0.5876665115356445,
            -0.5599608421325684,
            -0.17099855840206146,
            -0.010685605928301811,
            -0.08214731514453888,
            -0.26956698298454285,
            0.037553511559963226,
            -0.4929206967353821,
            0.029368706047534943,
            0.31714484095573425,
            -0.300205796957016,
            -0.5946189165115356,
            -0.0011288366513326764,
            0.2557849586009979,
            -0.2868978977203369,
            0.37857621908187866,
            0.24320659041404724,
            -0.6464070081710815,
            0.4155752956867218,
            0.264804869890213,
            -0.13039781153202057,
            0.16054460406303406,
            -0.17702603340148926,
            0.10865844041109085,
            0.502202033996582,
            -0.015098712407052517,
            0.1663094162940979,
            -0.3171122074127197,
            -0.13342636823654175,
            0.0650860145688057,
            -0.0549459271132946,
            0.5844905972480774,
            -0.5335407257080078,
            -0.4274265766143799,
            -0.22685737907886505,
            -0.44858843088150024,
            0.29085773229599,
            0.12100104242563248,
            -0.3504619896411896,
            0.1561013162136078,
            0.14116810262203217,
            -0.1362130045890808,
            0.16286401450634003,
            -0.03460865840315819,
            0.16812258958816528,
            0.336139440536499,
            -0.03114563785493374,
            0.0703577846288681,
            0.2716769874095917,
            0.16711442172527313,
            -0.11674802005290985,
            -0.19979825615882874,
            0.06264668703079224,
            -0.5137200951576233,
            -0.356359601020813,
            0.28349569439888,
            0.06078748777508736,
            0.30065664649009705,
            0.4773271679878235,
            -0.6491721272468567,
            0.002525832038372755,
            -0.2614637613296509,
            -0.21536603569984436,
            0.22936759889125824,
            -0.44890978932380676,
            0.14084383845329285,
            -0.6683732867240906,
            0.38805878162384033,
            -0.28321951627731323,
            0.0903492122888565,
            -0.03500290587544441,
            0.2177710235118866,
            -0.024547869339585304,
            -0.7244390845298767,
            0.015580853447318077,
            0.3605230748653412,
            0.17489679157733917,
            -0.06373805552721024,
            0.04951285570859909,
            -0.404419481754303,
            0.21503618359565735,
            -0.012865814380347729,
            0.2396128922700882,
            0.16594432294368744,
            0.1567368060350418,
            -0.3357374668121338,
            0.05904315784573555,
            -0.43000149726867676,
            0.16737911105155945,
            -0.2504723072052002,
            0.020862150937318802,
            -0.2963743805885315,
            0.447716623544693,
            -0.17559461295604706,
            0.44144749641418457,
            -0.11610244959592819,
            0.031247729435563087,
            -0.34989026188850403,
            0.5056041479110718,
            0.04335161671042442,
            -0.18415550887584686,
            -0.08649469912052155,
            -0.21309839189052582,
            -0.4649270176887512,
            -0.09418321400880814,
            0.1559164822101593,
            -0.26509737968444824,
            0.07632685452699661,
            -0.15720349550247192,
            -0.05175715684890747,
            0.005040485877543688,
            0.11915166676044464,
            0.20255695283412933,
            0.15139181911945343,
            0.17805761098861694,
            -0.4621979594230652,
            0.3302420377731323,
            0.1500910371541977,
            0.16733454167842865,
            0.16480931639671326,
            -0.01653376966714859,
            -0.0213699359446764,
            -0.3455168306827545,
            -0.001064577721990645,
            0.022547181695699692,
            -0.3137688636779785,
            0.18927216529846191,
            0.1476089507341385,
            0.3325914442539215,
            -0.009898004122078419,
            -0.15208032727241516,
            -0.1942688375711441,
            -0.2523368299007416,
            -0.06547398120164871,
            0.03353945538401604,
            -0.31920313835144043,
            0.34268686175346375,
            0.32544592022895813,
            0.4174017310142517,
            -0.40438616275787354,
            -0.2721319794654846,
            -0.039189063012599945,
            -0.13477551937103271,
            -0.1354745477437973,
            -0.1412350982427597,
            0.24542655050754547,
            -0.2575088441371918,
            -0.11020851880311966,
            0.13504379987716675,
            0.3151477575302124,
            0.1983264833688736,
            0.3747541308403015,
            0.32138970494270325,
            0.3351244628429413,
            -0.40625301003456116,
            -0.6534509062767029,
            0.0753425806760788,
            0.1444474458694458,
            0.4062376022338867,
            0.14265744388103485,
            0.07455260306596756,
            0.07929906994104385,
            0.07622871547937393,
            -0.01119070965796709,
            -0.09665914624929428,
            0.16990216076374054,
            0.1932445913553238,
            -0.4259359538555145,
            -0.039459940046072006,
            0.09171038120985031,
            -0.192759171128273,
            -0.39289402961730957,
            -0.3423998951911926,
            0.31013748049736023,
            -0.15800713002681732,
            -0.3381320536136627,
            -0.21293649077415466,
            -0.47567063570022583,
            -0.06147817522287369,
            0.2443181872367859,
            -0.22488616406917572,
            0.13460028171539307,
            -0.21965283155441284,
            0.23988112807273865,
            0.40502598881721497,
            0.14236441254615784,
            0.35288339853286743,
            0.12406615912914276,
            0.02488652989268303,
            0.045816294848918915,
            0.5173698663711548,
            -0.15586698055267334,
            -0.22065399587154388,
            0.09287753701210022,
            0.7197423577308655,
            0.09685846418142319,
            -0.21117264032363892,
            -0.06937940418720245,
            -0.7508647441864014,
            -0.1566939651966095,
            -0.12332076579332352,
            -0.07467900216579437,
            0.16023080050945282,
            0.4037382900714874,
            0.15395121276378632,
            0.18375469744205475,
            0.09728345274925232,
            -0.1169397383928299,
            0.1690661758184433,
            -0.18120136857032776,
            -0.24018393456935883,
            0.1557423323392868,
            -0.36244067549705505,
            -0.26001739501953125,
            -0.37312936782836914,
            0.08456846326589584,
            -0.6111456155776978,
            0.337549090385437,
            0.13916893303394318,
            -0.2838669717311859,
            0.04059769585728645,
            0.04109548032283783,
            -0.24251066148281097,
            -0.13483135402202606,
            -0.12744373083114624,
            0.1363292783498764,
            -0.2936030626296997,
            -0.5751630067825317,
            0.10625381767749786,
            0.3919198215007782,
            -0.20119625329971313,
            0.0712641254067421,
            0.21048800647258759,
            -0.4002009630203247,
            0.4921249449253082,
            0.2438204437494278,
            0.5545947551727295,
            0.07833132147789001,
            0.2622455358505249,
            -0.1773626059293747,
            -0.13087958097457886,
            0.18833869695663452,
            -0.03125700354576111,
            -0.7600594162940979,
            0.10487313568592072,
            -0.0788896307349205,
            0.018516987562179565,
            0.08396289497613907,
            0.0850682184100151,
            -0.09024963527917862,
            -0.18130721151828766,
            0.15620161592960358,
            0.1761292666196823,
            -0.4561860263347626,
            -0.05940000340342522,
            0.34226033091545105,
            -0.011495728977024555,
            -0.16356655955314636,
            -0.30131182074546814,
            -0.1021195575594902,
            0.1375601440668106,
            0.19916628301143646,
            0.3527205288410187,
            -0.2614438533782959,
            -0.09365521371364594,
            0.2272176593542099,
            -0.21227267384529114,
            -0.07359690964221954,
            -0.3472830653190613,
            -0.3666335642337799,
            0.4862591326236725,
            0.3139684200286865,
            -0.34138110280036926,
            0.13560941815376282,
            -0.1109994575381279,
            -0.11908701062202454,
            0.4139330983161926,
            0.32494795322418213,
            -0.04729410260915756,
            -0.041961345821619034,
            -0.035217493772506714,
            -0.057859718799591064,
            0.1729210913181305,
            -0.14199014008045197,
            -0.48593083024024963,
            -0.343345582485199,
            -0.3839321732521057,
            -0.060489192605018616,
            -0.26811647415161133,
            0.16597533226013184,
            0.04320312663912773,
            0.039837442338466644,
            -0.34992384910583496,
            -0.18068662285804749,
            0.31056877970695496,
            0.10907039791345596,
            -0.11745403707027435,
            -0.08244774490594864,
            -0.04413904994726181,
            -0.11325408518314362,
            -0.759351909160614,
            -0.2206987738609314,
            -0.1007794737815857,
            -0.38082781434059143,
            0.38163086771965027,
            0.45048487186431885,
            0.44855573773384094,
            0.00020244333427399397,
            -0.004352205898612738,
            -0.39956972002983093,
            -0.09035579860210419,
            0.15180261433124542,
            -0.1297629475593567,
            0.3305235207080841,
            -0.7616438865661621,
            0.8450667858123779,
            0.10785131901502609,
            0.39391639828681946,
            0.021007806062698364,
            -0.3552074432373047,
            -0.4141962230205536,
            0.4519035220146179,
            0.26336824893951416,
            0.7972045540809631,
            0.21876168251037598,
            0.5488077998161316,
            0.11821136623620987,
            -0.46063143014907837,
            0.4377182722091675,
            -0.11697494238615036,
            -0.20253047347068787,
            0.08795937150716782,
            -0.011847637593746185,
            -0.4254720211029053,
            0.09352628886699677,
            -0.09033944457769394,
            -0.28671813011169434,
            0.24627770483493805,
            0.09623093903064728,
            -0.28193360567092896,
            0.5079525709152222,
            -0.14200614392757416,
            0.130711629986763,
            -0.24224638938903809,
            0.07575619965791702,
            0.24514524638652802,
            0.0637347623705864,
            0.01749943383038044,
            -0.23592238128185272,
            -0.19310224056243896,
            -0.21517176926136017,
            -0.4720475673675537,
            -0.40649494528770447,
            -0.2872820496559143,
            0.03997166454792023,
            0.2515120506286621,
            -0.2248038649559021,
            -0.41893142461776733,
            -0.12502649426460266,
            -0.047866351902484894,
            -0.11477848887443542,
            -0.6848465204238892,
            0.08904632180929184,
            -0.08664309978485107,
            -0.2773303687572479,
            -0.7469444274902344,
            0.43560591340065,
            -0.2395959347486496,
            -0.2334250807762146,
            0.018150612711906433,
            0.37069952487945557,
            0.0824001282453537,
            0.7044572830200195,
            0.049384407699108124,
            -0.04393453896045685,
            -0.007636773865669966,
            -0.2179766446352005,
            -0.08462140709161758,
            -0.419814795255661,
            -0.24810875952243805,
            -0.0518883615732193,
            0.16037903726100922,
            0.1987883448600769,
            0.18154482543468475,
            -0.13494820892810822,
            0.30168429017066956,
            -0.06848373264074326,
            -0.1995357722043991,
            0.2178802639245987,
            -0.21598048508167267,
            0.019966736435890198,
            -0.23494620621204376,
            -0.06223241239786148,
            -0.07849147170782089,
            -0.021398529410362244,
            0.3335173428058624,
            -0.13157083094120026,
            -0.24296709895133972,
            0.36343470215797424,
            0.15341606736183167,
            -0.35934126377105713,
            0.4120131731033325,
            0.4370422661304474,
            0.18803998827934265
        ],
        "bias": [
            0.0712340921163559,
            0.019036931917071342,
            0.03732633590698242,
            0.12036704272031784,
            -0.004316679202020168,
            -0.09032586961984634,
            -0.03423735871911049,
            0.03315281122922897,
            -0.023977011442184448,
            0.00650934549048543,
            0.13561542332172394,
            0.06854810565710068,
            0.03795376420021057,
            0.01047410350292921,
            -0.016662707552313805,
            0.01078353077173233,
            -0.0045210085809230804,
            -0.12698931992053986,
            0.04959765821695328,
            -0.031009703874588013,
            -0.06609167158603668,
            0.1944178193807602,
            0.03168758749961853,
            -0.16934284567832947,
            -0.029921121895313263,
            0.05162891745567322,
            0.07048141211271286,
            0.11657480895519257,
            -0.015633543953299522,
            -0.05519871413707733,
            0.003242751583456993,
            -0.036438729614019394,
            -0.029020776972174644,
            -0.00838514044880867,
            -0.006430910434573889,
            0.08589181303977966,
            0.02019360288977623,
            -0.045445896685123444,
            0.00038997706724330783,
            0.14268267154693604,
            0.09500591456890106,
            -0.01860874332487583,
            -0.0405755378305912,
            -0.033666592091321945,
            -0.0025112114381045103,
            -0.0996769592165947,
            -0.08680200576782227,
            -0.01097897533327341,
            -0.018312908709049225,
            0.08125851303339005,
            0.03034168854355812,
            0.011029860004782677,
            -0.09274154901504517,
            -0.29138869047164917,
            -0.046243876218795776,
            -0.06423065811395645
        ]
    }
}