{
    "value": {
        "hidden_layer_size": 30,
        "hidden_layer_count": 1,
        "weights": [
            -1.7993537187576294,
            -0.11048722267150879,
            -0.2138829380273819,
            0.3078432083129883,
            0.2427106499671936,
            -0.21481405198574066,
            -0.6249335408210754,
            0.2544877827167511,
            -0.29932156205177307,
            -0.6072732210159302,
            -0.03526097536087036,
            -0.9636793732643127,
            -0.40228626132011414,
            0.2233070284128189,
            0.26566800475120544,
            -0.2694726884365082,
            -0.27599474787712097,
            -0.1011287197470665,
            0.005139161832630634,
            -0.227294921875,
            0.3470694124698639,
            0.31034067273139954,
            -0.11583063006401062,
            -0.3087981045246124,
            0.20098932087421417,
            0.17291192710399628,
            0.0017555016092956066,
            -0.28268900513648987,
            -0.22898167371749878,
            -0.31942203640937805,
            0.2837701737880707,
            0.35472479462623596,
            0.20876643061637878,
            0.22025702893733978,
            -0.04157029837369919,
            0.019412629306316376,
            -0.10760119557380676,
            -0.2927932143211365,
            -0.05080465227365494,
            -0.0689268410205841,
            0.16101166605949402,
            -0.08621427416801453,
            0.05840686708688736,
            0.15555059909820557,
            -0.31913039088249207,
            -0.17017769813537598,
            -0.3424678146839142,
            0.24635745584964752,
            -0.12264133989810944,
            0.015426727943122387,
            0.34898415207862854,
            -0.21983835101127625,
            0.22273503243923187,
            0.07874233275651932,
            0.10786204785108566,
            -0.2801212966442108,
            0.32101893424987793,
            -0.41412127017974854,
            -0.554510772228241,
            0.17376640439033508,
            0.27011600136756897,
            -0.2011466920375824,
            -0.0423511378467083,
            -0.1614447981119156,
            -0.25953519344329834,
            -0.13067400455474854,
            0.1479598879814148,
            0.21203243732452393,
            -0.24046888947486877,
            -0.12944048643112183,
            0.27213698625564575,
            -0.30853596329689026,
            -0.09970401227474213,
            -0.30355969071388245,
            -0.4236653745174408,
            -0.42723560333251953,
            -0.2822240889072418,
            -0.09305880963802338,
            0.08520928770303726,
            -0.2883724272251129,
            0.6788428425788879,
            -0.2699804902076721,
            0.21829231083393097,
            0.1990397721529007,
            -0.377157062292099,
            -0.2190633863210678,
            -0.2214038223028183,
            -0.2187144011259079,
            0.16199345886707306,
            0.04247063025832176,
            -0.140040323138237,
            0.10491915792226791,
            -0.3418378531932831,
            -0.41855648159980774,
            -0.2200338989496231,
            -0.23525308072566986,
            0.3789811432361603,
            -0.25095054507255554,
            -0.013874492608010769,
            0.07510815560817719,
            -0.26843953132629395,
            -0.19600999355316162,
            0.013167218305170536,
            0.2197730392217636,
            0.12070024758577347,
            -0.1384570151567459,
            -0.43768182396888733,
            -0.5248324275016785,
            0.2617439031600952,
            0.06096124276518822,
            -0.014692721888422966,
            -0.2153468281030655,
            0.4185519516468048,
            -0.18711864948272705,
            0.10560616105794907,
            -0.17230519652366638,
            0.48230624198913574,
            0.04030574485659599,
            0.13088224828243256,
            -0.27341702580451965,
            -0.4014175236225128,
            -0.8252543807029724,
            -0.26827433705329895,
            -0.09098368883132935,
            -0.19526083767414093,
            -0.0710846334695816,
            -0.4839741289615631,
            -0.5701857805252075,
            1.666515827178955,
            0.32353344559669495,
            -0.007678952068090439,
            0.3680618107318878,
            0.10159328579902649,
            0.025948990136384964,
            0.14457765221595764,
            -0.06960349529981613,
            -0.06886633485555649,
            0.11563935875892639,
            -0.03800158575177193,
            -0.7668703198432922,
            -0.5341676473617554,
            -0.5573493242263794,
            0.02055387943983078,
            -0.03870942071080208,
            0.08012954890727997,
            0.376956045627594,
            0.35988518595695496,
            0.05762592703104019,
            -0.07132374495267868,
            0.04235352575778961,
            0.2011573761701584,
            -0.14746415615081787,
            -0.19857093691825867,
            -0.017340105026960373,
            -0.3071081042289734,
            0.20501549541950226,
            0.055426012724637985,
            -0.15499120950698853,
            -0.07982993870973587,
            -0.1309017837047577,
            -0.10090325027704239,
            0.06863811612129211,
            -0.12959547340869904,
            -0.0021098500583320856,
            0.2478579878807068,
            -0.23807790875434875,
            0.08496055006980896,
            -0.09066519886255264,
            -0.2934158444404602,
            0.2630314528942108,
            -0.3873700201511383,
            -0.04616023600101471,
            -0.013767614960670471,
            0.04878997057676315,
            0.2434917390346527,
            0.07499586045742035,
            0.8827038407325745,
            -0.37316837906837463,
            0.0902474895119667,
            0.06168479844927788,
            -0.38088423013687134,
            -0.02570377103984356,
            -0.05092441290616989,
            0.2556098699569702,
            -0.14264924824237823,
            -0.028385620564222336,
            0.16750600934028625,
            -0.4895079433917999,
            -0.033456817269325256,
            0.07345911115407944,
            -0.3276703357696533,
            0.20997324585914612,
            0.14083293080329895,
            0.15448026359081268,
            -0.28473880887031555,
            -0.09668108820915222,
            -0.4018910527229309,
            -0.30056291818618774,
            -0.247963085770607,
            0.043766241520643234,
            -0.3466681241989136,
            0.17231281101703644,
            0.237339049577713,
            0.10555417090654373,
            -0.18548046052455902,
            0.11113252490758896,
            0.07493073493242264,
            -0.3740972876548767,
            0.4507696330547333,
            -0.09930738806724548,
            -0.11823716014623642,
            -0.12773683667182922,
            -0.06404925882816315,
            0.3858757019042969,
            -0.2966960370540619,
            0.04910903424024582,
            0.12732838094234467,
            -0.36454206705093384,
            -0.17821285128593445,
            0.18862026929855347,
            -0.18335328996181488,
            0.058668103069067,
            0.40007340908050537,
            -0.33115100860595703,
            9.6738920211792,
            -0.3199347257614136,
            0.09882284700870514,
            0.10665486007928848,
            -0.8712693452835083,
            0.43103766441345215,
            0.16500324010849,
            0.06572841852903366,
            0.02186734974384308,
            0.022595584392547607,
            -0.22320565581321716,
            -0.6953108906745911,
            -0.01786954514682293,
            0.15968285501003265,
            0.04074529930949211,
            -0.2665216624736786,
            1.7385634183883667,
            0.05634709820151329,
            0.11103504151105881,
            0.3367336094379425,
            0.004023608285933733,
            -0.0004482995136640966,
            -0.6643338203430176,
            -0.011565462686121464,
            0.015024122782051563,
            -0.09123476594686508,
            -0.017857270315289497,
            -0.4742565453052521,
            -0.09503614157438278,
            -0.5362067818641663,
            -0.409671813249588,
            0.08581371605396271,
            -0.3325670063495636,
            0.07925216853618622,
            -0.38336002826690674,
            -0.07821793854236603,
            -0.043498069047927856,
            -0.03098057210445404,
            -0.2386242300271988,
            -0.4011145234107971,
            0.1717117428779602,
            0.3233916759490967,
            -0.355766236782074,
            -0.022001897916197777,
            -0.24087092280387878,
            0.1321117877960205,
            -0.13047027587890625,
            -0.04877277836203575,
            0.15221010148525238,
            0.4062139391899109,
            0.01103043183684349,
            0.014761210419237614,
            0.22706274688243866,
            -0.291019469499588,
            -0.261359840631485,
            -0.40569230914115906,
            -0.3396637737751007,
            -0.04453268647193909,
            -0.8093386292457581,
            -0.2632918059825897,
            -0.3378281593322754,
            -0.31851106882095337,
            -0.5982463955879211,
            -0.2770775854587555,
            -9.677412033081055,
            -0.052470795810222626,
            -0.21217690408229828,
            -0.2659079134464264,
            0.892906129360199,
            -0.09374742954969406,
            0.1700298935174942,
            -0.3843482434749603,
            -0.030746787786483765,
            -0.075850710272789,
            -0.1614660918712616,
            -1.2603362798690796,
            -0.25867998600006104,
            -0.009662579745054245,
            0.033584073185920715,
            0.01635223813354969,
            0.953023374080658,
            -0.3786991834640503,
            -0.10367179661989212,
            -0.3405519127845764,
            0.17990021407604218,
            0.22388488054275513,
            -0.006219838745892048,
            -0.014502150006592274,
            0.16823498904705048,
            -0.24325165152549744,
            0.12144256383180618,
            -0.25588348507881165,
            -0.4060475528240204,
            -0.22321857511997223,
            0.19418133795261383,
            -0.030647093430161476,
            0.13826267421245575,
            0.2758922576904297,
            0.012887964025139809,
            0.29548150300979614,
            -0.18357956409454346,
            -0.36653265357017517,
            -0.11409004032611847,
            0.282376766204834,
            -0.00801860261708498,
            -0.31544020771980286,
            0.28745049238204956,
            -0.42178717255592346,
            -0.24744153022766113,
            0.17693249881267548,
            0.04717173054814339,
            -0.10227058082818985,
            -0.15742293000221252,
            -0.07169576734304428,
            -0.27831339836120605,
            -0.198384091258049,
            0.08676005899906158,
            0.0047207060270011425,
            0.020016580820083618,
            -0.1594788283109665,
            -0.35149770975112915,
            0.08802144974470139,
            0.27371296286582947,
            -0.08166288584470749,
            -0.24294792115688324,
            0.2857586145401001,
            -0.2535402476787567,
            0.3412284255027771,
            5.5504150390625,
            0.1815650910139084,
            -0.3942413628101349,
            -0.2951057553291321,
            0.0038291714154183865,
            0.013336325995624065,
            -0.05056002363562584,
            -0.07675164192914963,
            -0.031029675155878067,
            -0.059610359370708466,
            -0.11231943219900131,
            -0.1699080765247345,
            0.14315220713615417,
            -0.4755335748195648,
            -0.26347315311431885,
            -0.48758193850517273,
            4.224221706390381,
            0.11436611413955688,
            0.2085382044315338,
            0.13387562334537506,
            -1.2237803936004639,
            0.319350004196167,
            0.36811351776123047,
            0.1743406355381012,
            0.2838800549507141,
            -0.13084067404270172,
            -0.4805734157562256,
            -0.37935420870780945,
            0.008797742426395416,
            -0.2848125696182251,
            -0.022579791024327278,
            -0.294159471988678,
            0.4282399117946625,
            -0.0777750089764595,
            -0.2720995843410492,
            -0.027770332992076874,
            -0.1797429919242859,
            0.3476329445838928,
            -0.38368505239486694,
            -0.26355355978012085,
            -0.018347127363085747,
            -0.10591177642345428,
            0.3252817690372467,
            0.3215791881084442,
            -0.0801871120929718,
            -0.1123381108045578,
            -0.31552985310554504,
            0.18670471012592316,
            0.0016364085022360086,
            -0.0884799063205719,
            0.1357460618019104,
            0.06847761571407318,
            -0.3240193724632263,
            0.12513765692710876,
            0.39711934328079224,
            -0.3012300431728363,
            0.03490372374653816,
            0.10884027928113937,
            0.13058941066265106,
            -0.06443941593170166,
            -0.24121633172035217,
            -0.2156253308057785,
            0.307539165019989,
            -0.06053711101412773,
            1.8758373260498047,
            0.37178751826286316,
            0.1642741709947586,
            -0.1092187911272049,
            -0.05408463627099991,
            -0.004993174225091934,
            0.03715631738305092,
            -0.0037446091882884502,
            0.15362857282161713,
            0.017976747825741768,
            -0.27974358201026917,
            -0.723421037197113,
            -0.020130125805735588,
            -0.060249846428632736,
            -0.3282623887062073,
            -0.3485870957374573,
            0.23757599294185638,
            0.26940783858299255,
            0.2526710331439972,
            -0.379721462726593,
            -0.222161203622818,
            -0.14568182826042175,
            -0.002284181071445346,
            0.17749816179275513,
            -0.4557673931121826,
            -0.16460275650024414,
            0.24030867218971252,
            0.1917913854122162,
            -0.19517645239830017,
            0.0223196092993021,
            -0.016283659264445305,
            -0.4472906291484833,
            -4.7475972175598145,
            0.011347655206918716,
            -0.10747818648815155,
            0.07071413844823837,
            0.589137613773346,
            -0.015522903762757778,
            -0.8975068926811218,
            -0.6015456914901733,
            -0.585342288017273,
            -0.0845712274312973,
            -0.4497417211532593,
            -1.11598801612854,
            -0.3734979033470154,
            -0.11612579971551895,
            -0.2033882439136505,
            0.5208465456962585,
            0.7323914766311646,
            0.19781778752803802,
            0.2343200296163559,
            -0.1564943939447403,
            -0.12913337349891663,
            -0.20558662712574005,
            0.2670596241950989,
            0.20022092759609222,
            -0.1905418485403061,
            0.22956062853336334,
            0.012169272638857365,
            -0.07797596603631973,
            -0.056871749460697174,
            -0.29663538932800293,
            0.12371718883514404,
            0.19185541570186615,
            -0.879817008972168,
            0.14871107041835785,
            0.263021320104599,
            0.24267852306365967,
            -0.3677920997142792,
            0.3206753432750702,
            -0.4482079744338989,
            0.10374777019023895,
            -0.2875034511089325,
            0.12399574369192123,
            0.2382560521364212,
            -0.3446013629436493,
            0.13325218856334686,
            0.06805059313774109,
            -0.6685172915458679,
            -0.6874178051948547,
            0.1244058758020401,
            0.043766893446445465,
            -0.817925751209259,
            0.2790800631046295,
            -0.1438695192337036,
            -0.15851929783821106,
            -0.6926368474960327,
            -0.5123353600502014,
            -0.11301388591527939,
            0.25676798820495605,
            -0.403400719165802,
            0.16359834372997284,
            -1.0837284326553345,
            -0.21365348994731903
        ],
        "bias": [
            0.09387665241956711,
            -0.4446730613708496,
            -0.23481307923793793,
            -0.1643708199262619,
            -0.2626276910305023,
            -0.3301156461238861,
            -0.23838411271572113,
            0.2937825620174408,
            0.2664715349674225,
            -0.11740442365407944,
            -0.29072922468185425,
            -0.03208794817328453,
            -0.21465544402599335,
            0.13275639712810516,
            0.15271474421024323,
            -0.118611641228199,
            -0.46373435854911804,
            0.42060065269470215,
            0.9235867857933044,
            -0.10893330723047256,
            -0.029063772410154343,
            -0.0660899356007576,
            -0.8582319021224976,
            -0.5121007561683655,
            -0.39137473702430725,
            -0.34359997510910034,
            -0.0848056972026825,
            -0.34038975834846497,
            -0.20861509442329407,
            -0.44603395462036133,
            4.7884650230407715
        ]
    },
    "policy": {
        "hidden_layer_size": 30,
        "hidden_layer_count": 1,
        "weights": [
            1.0422084331512451,
            -0.25689682364463806,
            0.013165730983018875,
            0.18747428059577942,
            0.548494279384613,
            0.34387996792793274,
            -0.12593913078308105,
            0.13276779651641846,
            0.10801758617162704,
            0.31892693042755127,
            -0.27129772305488586,
            0.44829511642456055,
            0.18829230964183807,
            -0.04719455912709236,
            -0.17383943498134613,
            0.07735791802406311,
            0.3505958914756775,
            0.2941584289073944,
            -0.38236886262893677,
            -0.06017926707863808,
            -0.055430859327316284,
            0.3412438929080963,
            0.4542238116264343,
            0.22971735894680023,
            -0.32808220386505127,
            0.439378023147583,
            0.39103031158447266,
            0.15212900936603546,
            0.07146258652210236,
            0.19074787199497223,
            0.25028401613235474,
            -0.15139929950237274,
            -0.37769055366516113,
            0.11300121247768402,
            -0.04939205199480057,
            0.3250616192817688,
            -0.24893434345722198,
            0.027110110968351364,
            0.06659138202667236,
            0.12577751278877258,
            -0.08654951304197311,
            0.2540087401866913,
            -0.26016491651535034,
            -0.23402632772922516,
            -0.045392267405986786,
            -0.032180313020944595,
            0.04442935436964035,
            0.3565826117992401,
            0.9319130778312683,
            0.1471623182296753,
            0.12876009941101074,
            0.1257954239845276,
            0.39828020334243774,
            0.18516184389591217,
            -0.09119178354740143,
            0.17563290894031525,
            -0.21292133629322052,
            -0.2814869284629822,
            0.31950563192367554,
            -0.10051481425762177,
            0.2745025157928467,
            0.44755327701568604,
            -0.02611873485147953,
            0.33916741609573364,
            0.5549113750457764,
            0.06637531518936157,
            0.10584022104740143,
            -0.35647261142730713,
            0.01838368922472,
            -0.22064577043056488,
            -0.24022206664085388,
            -0.3991381824016571,
            0.32384759187698364,
            0.09576170146465302,
            -0.029000218957662582,
            0.1780826598405838,
            0.2589825689792633,
            -0.23931635916233063,
            0.3329281508922577,
            0.30236855149269104,
            -0.6878105998039246,
            -0.16532444953918457,
            -0.22809015214443207,
            -0.0966670960187912,
            -0.46172213554382324,
            0.3895030617713928,
            0.1963730752468109,
            -0.08487154543399811,
            0.3616466820240021,
            -0.09770006686449051,
            -0.31230756640434265,
            0.2542093098163605,
            0.03391445055603981,
            0.013690931722521782,
            0.19930380582809448,
            0.1177259236574173,
            -0.02819782681763172,
            -0.3015676438808441,
            -0.2302403599023819,
            -0.2292424440383911,
            -0.26492583751678467,
            0.3378696143627167,
            0.0666416734457016,
            0.12929028272628784,
            -0.06366725265979767,
            0.3734182119369507,
            -0.24546092748641968,
            0.34225112199783325,
            -0.20011292397975922,
            0.38465845584869385,
            -0.36687570810317993,
            -0.16985030472278595,
            0.03498786687850952,
            0.27431708574295044,
            0.03350130841135979,
            -0.22904135286808014,
            -0.1774987280368805,
            0.0430421307682991,
            0.05279989540576935,
            0.042484112083911896,
            -0.2610178291797638,
            -0.3405973017215729,
            -0.2173382192850113,
            -0.06689733266830444,
            -0.004372091498225927,
            -0.3550414741039276,
            -0.0718480572104454,
            -0.25930339097976685,
            0.3010682463645935,
            -0.05039532482624054,
            0.09645110368728638,
            -0.19309884309768677,
            -0.11471621692180634,
            -0.02980033867061138,
            -0.07964149862527847,
            0.20388726890087128,
            0.1615089327096939,
            0.01174199115484953,
            0.029412534087896347,
            -0.18094274401664734,
            -0.08013768494129181,
            -0.3576069176197052,
            -0.2846999168395996,
            -0.14313183724880219,
            -0.16369375586509705,
            -0.196707084774971,
            0.025345725938677788,
            0.380034476518631,
            0.2886163592338562,
            -0.36883923411369324,
            0.29168426990509033,
            0.22962982952594757,
            0.1615688055753708,
            -0.24101606011390686,
            -0.29561847448349,
            -0.0321008563041687,
            -0.08756127953529358,
            -0.26024699211120605,
            -0.2346903532743454,
            -0.21237362921237946,
            0.27429869771003723,
            -0.1448346972465515,
            0.05312618985772133,
            0.2107941210269928,
            0.14468388259410858,
            0.1492076963186264,
            -0.36877715587615967,
            0.02953103557229042,
            -0.28336524963378906,
            -0.008759800344705582,
            -0.2727435827255249,
            0.04732315242290497,
            0.32428792119026184,
            0.15210381150245667,
            -0.24616245925426483,
            -0.0979280099272728,
            0.25723233819007874,
            0.06559186428785324,
            -0.1595064401626587,
            0.22499535977840424,
            -0.10875941812992096,
            -0.11733903735876083,
            -0.325122594833374,
            0.01532431785017252,
            -0.08956340700387955,
            0.16138246655464172,
            0.17983759939670563,
            -0.17014877498149872,
            0.12361977249383926,
            -0.19878214597702026,
            0.0322146862745285,
            -0.03425721824169159,
            -0.22542662918567657,
            -0.14436055719852448,
            0.03468181937932968,
            -0.39678794145584106,
            0.3969634771347046,
            -0.17857769131660461,
            0.3911517262458801,
            0.28580665588378906,
            0.3535689115524292,
            -0.18975602090358734,
            -0.3164377212524414,
            0.20629604160785675,
            -0.28026625514030457,
            0.07994288206100464,
            -0.00034388669882901013,
            0.05080334469676018,
            -0.08134426176548004,
            0.2665467858314514,
            -0.150091752409935,
            0.07106718420982361,
            -0.04432583600282669,
            0.3330695927143097,
            -0.3567698001861572,
            0.032956313341856,
            0.00229965103790164,
            -0.31581583619117737,
            0.14797304570674896,
            -0.0244638342410326,
            0.16553564369678497,
            -0.41752293705940247,
            -0.20349477231502533,
            -0.0642179399728775,
            0.3999941647052765,
            -0.2726442813873291,
            0.005250183399766684,
            -0.07350284606218338,
            -0.1314716637134552,
            -0.2774718701839447,
            0.18688741326332092,
            -0.22123932838439941,
            -0.0087095582857728,
            -0.3740847706794739,
            -0.1942540556192398,
            -0.36100125312805176,
            0.2833326756954193,
            -0.027202660217881203,
            0.09073711186647415,
            -0.0809466764330864,
            0.9301390647888184,
            -0.04504373297095299,
            -0.24024125933647156,
            0.3429935872554779,
            0.3774130940437317,
            -0.07952803373336792,
            0.195087268948555,
            -0.15217892825603485,
            -0.04856059327721596,
            0.22857628762722015,
            -0.21702483296394348,
            0.13103269040584564,
            -0.12899987399578094,
            -0.2203809916973114,
            0.39017048478126526,
            0.15494267642498016,
            0.20462021231651306,
            -0.1638515442609787,
            0.018955722451210022,
            0.14307241141796112,
            -0.32233282923698425,
            0.3133160471916199,
            0.12756134569644928,
            -0.06271915882825851,
            -0.353407084941864,
            0.31721436977386475,
            0.23779244720935822,
            -0.08176932483911514,
            -0.2611277103424072,
            -0.12404360622167587,
            0.3453547954559326,
            -0.18241746723651886,
            0.028660420328378677,
            -0.27225515246391296,
            0.38896825909614563,
            -0.008729556575417519,
            0.4917210638523102,
            0.3909567892551422,
            0.3154456913471222,
            -0.12771941721439362,
            -0.2689621150493622,
            -0.1747741550207138,
            0.3752042055130005,
            0.0331612266600132,
            0.18406793475151062,
            -0.015877055004239082,
            0.1395626962184906,
            0.42211076617240906,
            -0.31273984909057617,
            0.06644385308027267,
            0.2619384229183197,
            0.09832528978586197,
            -0.3388424217700958,
            0.2909550666809082,
            0.25470298528671265,
            0.1826552003622055,
            0.027175746858119965,
            -0.37327462434768677,
            -0.03540726751089096,
            0.26545408368110657,
            -0.36225712299346924,
            -0.15182740986347198,
            -0.4115296006202698,
            0.15122881531715393,
            -0.4352111220359802,
            0.12030839174985886,
            0.16650034487247467,
            0.3453541398048401,
            -0.16309469938278198,
            -0.27993524074554443,
            -0.11331561952829361,
            0.26700085401535034,
            -0.16524356603622437,
            0.43109315633773804,
            0.28130286931991577,
            -0.2682671844959259,
            -0.1911257803440094,
            -0.050128210335969925,
            0.14543169736862183,
            0.023486776277422905,
            -0.4629437029361725,
            0.25447532534599304,
            0.14754647016525269,
            -0.08368803560733795,
            -0.3680450916290283,
            -0.054290223866701126,
            0.34530818462371826,
            -0.19746403396129608,
            0.041204143315553665,
            0.21118712425231934,
            0.33100080490112305,
            0.21428337693214417,
            -0.04625560715794563,
            0.3037378191947937,
            0.37584346532821655,
            0.08917780965566635,
            0.02486596442759037,
            -0.11453069746494293,
            -0.31229260563850403,
            0.35627907514572144,
            0.36851197481155396,
            0.17571912705898285,
            0.09012627601623535,
            0.20282776653766632,
            -0.2296433299779892,
            0.17814087867736816,
            -0.30994921922683716,
            -0.3575345277786255,
            0.13943515717983246,
            -0.3817555904388428,
            -0.24969761073589325,
            -0.08580898493528366,
            0.09407471120357513,
            0.17282620072364807,
            0.2864452004432678,
            -0.060298334807157516,
            -0.37467896938323975,
            0.06850748509168625,
            -0.3248492181301117,
            0.19817283749580383,
            0.06728138774633408,
            -0.14905238151550293,
            -0.18723125755786896,
            -0.014462274499237537,
            -0.3407362401485443,
            0.004213039297610521,
            0.3160972595214844,
            -0.3942908048629761,
            -0.32211244106292725,
            -0.03727234899997711,
            -0.29108989238739014,
            -0.37591150403022766,
            -0.1254713535308838,
            0.11900822073221207,
            -0.2493792623281479,
            0.14288762211799622,
            0.222752645611763,
            -0.20443156361579895,
            -0.31005582213401794,
            0.2565191984176636,
            -0.07526550441980362,
            -0.31047743558883667,
            -0.36649537086486816,
            0.23201802372932434,
            -0.09553178399801254,
            0.16073115170001984,
            -0.25676724314689636,
            0.16834956407546997,
            0.3452881872653961,
            -0.3907889425754547,
            -0.38172784447669983,
            0.22522041201591492,
            0.13716286420822144,
            -0.11076236516237259,
            0.19803695380687714,
            -0.3201797306537628,
            -0.170962855219841,
            0.23360808193683624,
            -0.30687907338142395,
            0.10921479016542435,
            -0.39724233746528625,
            0.2543036639690399,
            -0.1007794737815857,
            0.2984512746334076,
            0.01042150054126978,
            0.09400705993175507,
            0.29198870062828064,
            -0.32644280791282654,
            0.24231143295764923,
            -0.022343527525663376,
            -0.1516241431236267,
            0.3139726221561432,
            0.019380180165171623,
            0.08555135875940323,
            0.1100107729434967,
            -0.2678461968898773,
            -0.234117791056633,
            -0.289418488740921,
            0.2809968888759613,
            -0.006144588813185692,
            0.2989569902420044,
            0.2877214848995209,
            -0.3197222054004669,
            0.2853017747402191,
            0.025130482390522957,
            -0.33161598443984985,
            0.14504535496234894,
            0.23179639875888824,
            -0.3432192802429199,
            0.23395708203315735,
            -0.03433186188340187,
            0.1276269555091858,
            -1.070343255996704,
            0.29540762305259705,
            -0.09153543412685394,
            -0.06619363278150558,
            -0.38864466547966003,
            0.34807533025741577,
            -0.33395493030548096,
            0.1910317987203598,
            0.39299291372299194,
            0.2978943884372711,
            0.43355658650398254,
            -0.03604736179113388,
            0.09478563815355301,
            -0.2448648065328598,
            -0.022016646340489388,
            -0.06810978055000305,
            -0.6701411604881287,
            -0.16552111506462097,
            0.08509105443954468,
            -0.029566073790192604,
            -0.22502487897872925,
            -0.38207492232322693,
            0.3200415074825287,
            0.053757548332214355,
            -0.25769442319869995,
            0.26574838161468506,
            0.1052965298295021,
            0.2380332350730896,
            -0.019921835511922836,
            -0.04140366613864899,
            -0.2928151786327362,
            0.3910074532032013,
            0.18433228135108948,
            0.3719559907913208,
            -0.3500955104827881,
            0.2733452022075653,
            -0.2629459500312805,
            0.059096645563840866,
            0.2475755512714386,
            -0.33176758885383606,
            0.05955768749117851,
            0.1743256151676178,
            -0.26841187477111816,
            0.04609011113643646,
            -0.0020347873214632273,
            0.380238801240921,
            -0.18707816302776337,
            -0.30700650811195374,
            1.0724883079528809,
            0.3195796012878418,
            0.09328211098909378,
            0.9063288569450378,
            0.5189775228500366,
            -0.7680410146713257,
            -0.2667708396911621,
            0.3476916253566742,
            -0.4253319203853607,
            0.06185564026236534,
            0.19425003230571747,
            0.10558293014764786,
            0.041905730962753296,
            -0.31637248396873474,
            0.28803539276123047,
            1.0143135786056519,
            -0.23886269330978394,
            0.36441904306411743,
            -0.046299196779727936,
            -0.3267208933830261,
            -0.5857700109481812,
            0.026367882266640663,
            -0.2782353162765503,
            -0.18057695031166077,
            -0.06281255930662155,
            -0.45048683881759644,
            -0.057338155806064606,
            -1.1158428192138672,
            -0.6616141200065613,
            0.29285740852355957,
            -0.3595937490463257,
            -0.7012515068054199,
            -0.010311056859791279,
            0.06638043373823166,
            0.14123253524303436,
            0.02408897876739502,
            -0.12686848640441895,
            0.09233862906694412,
            -0.1339862048625946,
            0.0893746167421341,
            0.27505427598953247,
            -0.10285668820142746,
            0.17453934252262115,
            -0.09311821311712265,
            0.343627005815506,
            -0.06977058202028275,
            -0.06774268299341202,
            -0.6594504117965698,
            0.32573679089546204,
            -0.28787097334861755,
            -0.5109285116195679,
            -0.39791420102119446,
            0.026762401685118675,
            -0.14149209856987,
            0.2589600086212158,
            -0.18925756216049194,
            0.25211042165756226,
            -0.563385546207428,
            -0.017019564285874367,
            0.11089272052049637,
            -0.19875876605510712,
            0.03745770826935768,
            -0.21334804594516754,
            0.13723500072956085,
            -0.07554937154054642,
            0.08174534887075424,
            -0.23802028596401215,
            -0.03168671578168869,
            0.2746492922306061,
            -0.06458934396505356,
            0.1635584682226181,
            0.1644798368215561,
            -0.32297661900520325,
            0.22889485955238342,
            -0.3839460015296936,
            -0.38141682744026184,
            -0.07449677586555481,
            -0.0038293590769171715,
            0.2482862025499344,
            0.19921231269836426,
            -0.471948504447937,
            0.32829955220222473,
            0.2485865354537964,
            -0.3908471465110779,
            0.06104965880513191,
            0.16198807954788208,
            -0.13611538708209991,
            0.002843970898538828,
            -0.2817726135253906,
            0.2875536382198334,
            0.31900379061698914,
            0.08880981057882309,
            0.01296033151447773,
            0.05573444068431854,
            0.06296414136886597,
            -0.27831584215164185,
            -0.30207452178001404,
            -0.16350853443145752,
            -0.29390302300453186,
            0.20404501259326935,
            0.19642125070095062,
            -0.18092019855976105,
            -0.21568244695663452,
            0.040447898209095,
            0.2773405909538269,
            0.008054944686591625,
            -0.17326588928699493,
            0.035336460918188095,
            0.3568604588508606,
            -0.3533575236797333,
            0.26130685210227966,
            -0.055296629667282104,
            -0.2363004833459854,
            0.10194500535726547,
            -0.18668021261692047,
            -0.12274301052093506,
            -0.11839260905981064,
            0.012910460121929646,
            -0.3453517258167267,
            -0.046112239360809326
        ],
        "bias": [
            0.5179147124290466,
            0.39733201265335083,
            -0.38474467396736145,
            0.08088726550340652,
            -0.18008801341056824,
            0.16594374179840088,
            0.33128413558006287,
            0.31924474239349365,
            0.14062882959842682,
            0.1573808789253235,
            0.2764652967453003,
            0.056306589394807816,
            0.08624955266714096,
            -0.32310959696769714,
            -0.03271190822124481,
            0.5467633605003357,
            -0.3358258306980133,
            0.6146596074104309,
            -0.022321538999676704,
            0.24384765326976776,
            0.07259935140609741,
            -0.239919513463974,
            -0.03582154959440231,
            -0.318832665681839,
            0.08160844445228577,
            0.15886643528938293,
            -0.0882059633731842,
            0.5360897183418274,
            0.3005385398864746,
            0.2538876235485077,
            -0.12663309276103973,
            -0.4897802174091339,
            -0.008154885843396187,
            -0.1534447968006134
        ]
    }
}